{"data":[0.44580480456352234,-0.15147387981414795,-0.22658619284629822,-0.3261798322200775,-0.24316886067390442,-0.01534080971032381,-0.14861643314361572,-0.6669451594352722,0.3166082203388214,-0.4913008213043213,0.7140960097312927,0.036034658551216125,-0.24426530301570892,0.11326507478952408,-0.06914360076189041,-0.4330068528652191,-0.08158519864082336,0.020981645211577415,-0.4791920483112335,-0.111301951110363,-0.2761952579021454,-0.46536633372306824,0.7806676030158997,-0.4788409173488617,-0.879571795463562,0.4399394989013672,-0.7323541641235352,0.4923260807991028,0.5218872427940369,0.3678281307220459,-0.47101306915283203,0.051288288086652756,-0.49419745802879333,-0.4399707019329071,-0.20137228071689606,0.5413396954536438,-0.2730945944786072,0.20985744893550873,0.49886396527290344,-0.4844098687171936,0.0441482737660408,-0.3850417733192444,-0.45424091815948486,-0.6644042730331421,-0.4163302183151245,0.3946059048175812,-0.1551883965730667,0.2859301269054413,-0.3363097310066223,-0.22675350308418274,0.2666656970977783,0.4785442352294922,-0.022904150187969208,0.06189882382750511,-0.8755742311477661,0.03012412041425705,0.22092695534229279,-0.2650311589241028,0.3400757610797882,-0.4690341055393219,-0.7334021329879761,-0.08870156109333038,0.04974767938256264,-0.5797587037086487,-0.06385171413421631,0.20912717282772064,0.139942467212677,0.3012566864490509,-0.6679955124855042,0.0651436373591423,0.3385370671749115,-0.7371968626976013,0.3811073303222656,-0.5809694528579712,-0.31084147095680237,-0.12027649581432343,-0.18226221203804016,0.7982110381126404,-0.1933896541595459,-0.3006426692008972,-0.041421934962272644,-0.10586830973625183,-0.9189075231552124,0.12685415148735046,0.11889936774969101,0.44197791814804077,0.7956649661064148,0.4135199189186096,0.5877473950386047,-0.7123819589614868,-0.1347486823797226,0.7644871473312378,-0.2285587340593338,-0.22648584842681885,-0.09213800728321075,-0.35825681686401367,0.9437414407730103,0.09333152323961258,-0.6879333257675171,0.04223380237817764,0.23562292754650116,0.4016628563404083,-0.4274756610393524,0.49340054392814636,0.1925256997346878,-0.08022940158843994,0.400342732667923,-0.46077972650527954,-0.5113332867622375,0.1769801378250122,0.1696218103170395,0.38375282287597656,-0.26606485247612,0.43128183484077454,0.5295314788818359,-0.6660438179969788,0.09734909236431122,0.6059880256652832,-0.2535383403301239,0.5809585452079773,0.8119540810585022,-0.5589112043380737,-0.12105648964643478,0.5993515849113464,-0.2820000648498535,0.03629634529352188,0.23615781962871552,-0.2503252625465393,0.9807846546173096,-0.564642608165741,0.16249340772628784,0.3958648443222046,-0.016520939767360687,0.4959120452404022,-0.39044156670570374,-0.018052024766802788,0.4447973370552063,0.3777788281440735,-0.24829594790935516,0.026778362691402435,0.402354896068573,-0.6168869733810425,0.48738783597946167,0.03970657289028168,0.6583688855171204,0.5382256507873535,0.5923846960067749,0.1398911029100418,0.06579603254795074,0.24561479687690735,-0.6076440215110779,-0.3852800130844116,0.11388161778450012,0.28638920187950134,0.0786849707365036,0.03566398844122887,0.2049241065979004,-0.043758030980825424,0.01870015263557434,-0.5393590927124023,-0.07805562019348145,-0.5037571787834167,0.37726670503616333,0.16110272705554962,0.0753287747502327,-0.11115442216396332,0.5884920954704285,-0.22220414876937866,-0.26450401544570923,0.24023723602294922,0.37218013405799866,0.11068710684776306,-0.6070882678031921,0.3499767482280731,-0.5071669220924377,0.3181089758872986,0.1313612312078476,0.7614856362342834,-0.39994266629219055,-0.3553568124771118,-0.10303117334842682,0.43555065989494324,0.40537938475608826,0.27855801582336426,0.6773931384086609,0.33015474677085876,-0.08168647438287735,0.008895758539438248,-0.26301106810569763,-0.00191400945186615,0.25737127661705017,0.09070592373609543,0.17901025712490082,0.7712616920471191,-0.3231527507305145,0.3098711371421814,0.646601676940918,0.14452902972698212,-0.2833366394042969,0.24951620399951935,-0.4705254137516022,0.08398199826478958,0.25624245405197144,-0.5207884311676025,0.06280046701431274,0.04873562604188919,0.02272915281355381,0.5359407663345337,-0.21013963222503662,-0.20083528757095337,0.2331284135580063,-0.5961520671844482,-0.5210846662521362,0.08714718371629715,-0.11835053563117981,-0.5844378471374512,-0.02874721772968769,-0.47065770626068115,-0.414421409368515,-0.15475228428840637,0.3067643940448761,0.7540783286094666,0.622818648815155,-0.5648725628852844,0.3781222403049469,0.5408183932304382,-0.1237989291548729,0.11780582368373871,-0.43134191632270813,-0.16019326448440552,-0.0019524726085364819,0.38589775562286377,-0.3567129075527191,0.1324700564146042,-0.2116689234972,-0.43199971318244934,0.6398842930793762,0.12408433854579926,-0.004583662375807762,0.34007540345191956,-0.3892141282558441,-0.31094980239868164,0.11998315155506134,0.04366849362850189,0.6987494230270386,-0.3672744929790497,-0.024245750159025192,-0.6221612095832825,-0.20218710601329803,-0.34632179141044617,0.15330325067043304,-0.6934568881988525,-0.33809903264045715,-0.3415941894054413,-0.04870247468352318,0.7130584120750427,-0.3819770812988281,0.6113103032112122,0.30360960960388184,0.39021459221839905,-0.3115454316139221,-0.05816153064370155,0.28515270352363586,-0.0695950910449028,0.5460581183433533,0.3215269148349762,0.1394834667444229,-0.12155262380838394,0.20860692858695984,0.18275967240333557,-0.19352521002292633,0.21964146196842194,-0.019488686695694923,-0.19949813187122345,0.31756001710891724,-0.37716206908226013,-0.15973404049873352,-0.015537186525762081,-0.4120246469974518,0.483651727437973,0.4618493318557739,-0.700140118598938,0.043486569076776505,0.00375142740085721,-0.0829591229557991,0.4296930134296417,-0.239225834608078,0.00281453225761652,0.13207246363162994,-0.2742736339569092,0.18553398549556732,0.13593973219394684,-0.2932695746421814,-0.20317326486110687,0.013776345178484917,-0.26909583806991577,-0.517803430557251,0.27508625388145447,-0.258415162563324,0.6471961140632629,-0.20189230144023895,-0.2626427710056305,0.08021345734596252,-0.16925913095474243,-0.13755273818969727,-0.07053297758102417,-0.39585059881210327,-0.5020112991333008,-0.046075522899627686,0.5161763429641724,0.0063363490626215935,0.755655825138092,0.3209916055202484,-0.2749168574810028,0.15179352462291718,0.43113893270492554,0.17455311119556427,-0.3249306380748749,-0.3075105547904968,0.20281851291656494,0.11785576492547989,0.05382828414440155,-0.9146188497543335,-0.32667237520217896,0.8243146538734436,0.24248456954956055,-0.1008826419711113,0.5436697602272034,-0.3971271514892578,0.3721710443496704,-0.20587319135665894,0.9330583810806274,-0.1026848703622818,0.06052099168300629,0.24263162910938263,-0.09821753203868866,0.040835101157426834,0.14340753853321075,-0.6415868997573853,0.2913144826889038,-0.03581162914633751,-0.1866973340511322,-0.6683218479156494,-0.48788192868232727,-0.03662900999188423,0.44988635182380676,0.8143635988235474,0.3754552900791168,-0.4608446955680847,0.016791274771094322,0.5912474393844604,0.10797810554504395,0.41817402839660645,-0.36941295862197876,0.03476978838443756,0.4545454680919647,0.5310662984848022,0.10823050141334534,0.5215246677398682,0.17431649565696716,0.6203070878982544,-0.055948443710803986,-0.11051854491233826,0.5839720964431763,0.3702942132949829,0.5376712083816528,-0.869197428226471,-0.05572758987545967,-0.31691446900367737,-0.5446844100952148,-0.05582093819975853,0.2120809555053711,0.5041621327400208,0.09381700307130814,-0.4254623353481293,-0.8289453983306885,-0.44114652276039124,0.02005210518836975,-0.2926647961139679,0.7013750076293945,0.25164851546287537,0.27840179204940796,-0.4821779727935791,0.879986047744751,-0.28133442997932434,-0.34648260474205017,-0.2902980148792267,-0.4153769016265869,-0.16044731438159943,0.7705248594284058,-0.321169912815094,0.22220993041992188,0.3127366602420807,0.10011368989944458,-0.15784931182861328,-0.006017584353685379,-0.015982793644070625,0.3892129957675934,-0.8687067627906799,-0.17884494364261627,-0.691238284111023,-0.7644132375717163,0.3300454020500183,0.37158647179603577,0.1877344250679016,0.8449549078941345,0.6641806364059448,0.470516175031662,0.13944070041179657,0.2924879193305969,0.03557576239109039,0.13583558797836304,-0.2967321276664734,-0.6308786273002625,-0.12551157176494598,0.7147000432014465,-0.3509237766265869,-0.5229215025901794,0.6461193561553955,-0.6443516612052917,0.46951669454574585,0.022116079926490784,-0.7662241458892822,-0.47667112946510315,-0.33572718501091003,-0.6960658431053162,0.8183411955833435,0.6998252272605896,0.01780983991920948,0.15623895823955536,0.10125551372766495,-0.20819519460201263,0.4150428771972656,0.0792277380824089,-0.004940822254866362,0.04302915558218956,-0.061930179595947266,0.28439706563949585,-0.10851959139108658,-0.5815123915672302,0.015491343103349209,0.13279835879802704,0.42063671350479126,-0.07641124725341797,0.10896994918584824,0.3499419689178467,0.2447476089000702,-0.18690401315689087,0.6423645615577698,-0.4826818108558655,0.20741324126720428,-0.2849971055984497,0.04463674873113632,0.20753590762615204,-0.5437283515930176,0.7861995697021484,-0.15788646042346954,0.019557790830731392,0.7072865962982178,0.5034261345863342,0.2094566375017166,-0.15248273313045502,0.7448484301567078,-0.180799201130867,0.05607007071375847,-0.08801256120204926,-0.08351248502731323,-0.027175072580575943,0.06433214992284775,0.03197915107011795,-0.2893579304218292,0.6405656933784485,-0.010668575763702393,0.5468365550041199,0.12204945087432861,0.5314096212387085,-0.33064982295036316,0.10859404504299164,0.18465884029865265,0.18041782081127167,0.4693495035171509,0.17508894205093384,-0.8979440331459045,-0.7483007311820984,0.21177469193935394,0.2063821256160736,0.269287645816803,-0.5198651552200317,-0.7869393229484558,0.6832754015922546,-0.010987148620188236,0.2933799624443054,-0.03703637421131134,-0.13179375231266022,0.34979650378227234,0.06801626086235046,0.7254779934883118,0.13068363070487976,-0.3627115488052368,-0.18531784415245056,-0.18312811851501465,-0.4167269170284271,-0.10763109475374222,0.24596066772937775,-0.08249719440937042,0.2570241391658783,-0.13016916811466217,0.2369808554649353,0.32316428422927856,-0.07665149867534637,0.5352963805198669,0.08794013410806656,-0.1791103333234787,-0.3672886788845062,-0.22503381967544556,0.07705391943454742,0.2930537760257721,-0.41479405760765076,-0.7598562240600586,0.8702251315116882,0.24927295744419098,-0.7150349020957947,-0.10308841615915298,-0.6432793140411377,-0.032564979046583176,-0.0016378266736865044,-0.05095846205949783,0.09065486490726471,0.839022696018219,0.7121824622154236,-0.37942689657211304,-0.23370568454265594,-0.5726189613342285,-0.14746905863285065,0.37131717801094055,-0.036052487790584564,0.3610944151878357,0.8136073350906372,0.504072368144989,0.5868792533874512,0.15559926629066467,0.13066652417182922,0.025291994214057922,-0.09894140064716339,-0.12251753360033035,-0.3878510296344757,-0.8912290930747986,-0.7296328544616699,0.36563190817832947,0.33364975452423096,0.2049330174922943,-0.543673038482666,-0.777148425579071,-0.4081030488014221,-0.1129964143037796,-0.9874729514122009,0.37375780940055847,-0.19435828924179077,0.084534652531147,0.2895148694515228,-0.5616920590400696,-0.19141459465026855,-0.27183887362480164,-0.05268615484237671,-0.24837253987789154,-0.16533870995044708,-0.8746636509895325,-0.673419713973999,-0.569441556930542,0.13859157264232635,0.5099669098854065,-0.46249818801879883,0.11006676405668259,-0.013557422906160355,-0.19225573539733887,-0.6320679187774658,0.6115748882293701,-0.17301294207572937,-0.31709977984428406,0.060517799109220505,-0.07422231137752533,-0.008838680572807789,0.6481643319129944,0.05294230580329895,0.37367844581604004,-0.3752354383468628,0.4559033513069153,-0.13178472220897675,-0.18173851072788239,-0.06326378136873245,-0.4339052438735962,0.21895219385623932,0.21460221707820892,0.26261672377586365,-0.009845714084804058,0.25958240032196045,-0.2795496881008148,0.27675560116767883,-0.37094828486442566,-0.2839564383029938,0.36108317971229553,-0.10351873934268951,0.2694746255874634,0.34605613350868225,0.05439826101064682,0.31805846095085144,0.3304825723171234,0.496808797121048,-0.2681909203529358,-0.08055020868778229,-0.3404674232006073,0.48465877771377563,0.6452972292900085,-0.040435899049043655,0.11138126254081726,0.40903928875923157,0.6271304488182068,0.47273489832878113,-0.14961165189743042,-0.46637508273124695,0.1930806040763855,0.5331003665924072,0.5892333984375,0.26547643542289734,0.15138405561447144,-0.005306159146130085,0.7255250811576843,-0.15487977862358093,-0.16760556399822235,0.05152815207839012,-0.33965662121772766,0.4645976722240448,0.2761099934577942,-0.259078711271286,0.02661898359656334,0.06401175260543823,-0.04873708263039589,0.2320442646741867,-0.38780057430267334,0.5245389938354492,-0.07495234161615372,-0.15132413804531097,0.16867856681346893,-0.20162153244018555,-0.05971237272024155,-0.05890781059861183,0.7927651405334473,0.1260029375553131,-0.6583203077316284,-0.22046682238578796,-0.5126328468322754,-0.12203538417816162,-0.559088945388794,-0.21189099550247192,0.40924134850502014,-0.4197837710380554,0.39766809344291687,-0.16729652881622314,-0.15040145814418793,0.16883951425552368,0.3892234265804291,-0.09693805873394012,-0.8852314352989197,-0.01869836263358593,0.2935744822025299,0.15096838772296906,0.423818975687027,0.4454119801521301,0.18058571219444275,-0.18322300910949707,0.577929675579071,0.5471146106719971,-0.2695426642894745,-0.20327605307102203,0.7733418345451355,0.48289212584495544,0.3521400988101959,0.22789445519447327,0.13151097297668457,-0.2024376541376114,-0.03746568039059639,-0.3788800835609436,-0.08802686631679535,0.4562302231788635,-0.7758246064186096,0.6817830204963684,0.28879332542419434,-0.04915758967399597,-0.2785711884498596,-0.1809130609035492,0.6728380918502808,0.44056060910224915,0.4686354100704193,0.1713481992483139,0.021103819832205772,0.132359117269516,0.7346915602684021,-0.07705891877412796,-0.7347918152809143,-0.017652181908488274,-0.5030679106712341,0.3175888955593109,-0.6811980605125427,0.05206672102212906,-0.06919252872467041,-0.10027164220809937,-0.05677283927798271,-0.2056111991405487,-0.751463770866394,0.17025713622570038,-0.3930237591266632,0.8437464237213135,0.2751674950122833,0.778960645198822,0.022532077506184578,-0.38554713129997253,-0.08816767483949661,0.05594611540436745,-0.19763416051864624,-0.46130937337875366,0.6181901693344116,0.058922894299030304,-0.12687669694423676,-0.06887593865394592,0.02909819781780243,0.1114049106836319,-0.014882469549775124,0.2523212134838104,-0.12403140217065811,0.15476052463054657,0.45409876108169556,-0.23755182325839996,0.2690031826496124,-0.1864197552204132,0.16247542202472687,-0.10912251472473145,0.029399357736110687,0.7396644949913025,0.24309828877449036,-0.12994740903377533,0.5192694664001465,0.08916616439819336,0.43658193945884705,-0.9406664371490479,0.45861753821372986,0.025537557899951935,-0.06517763435840607,-0.7741003036499023,-0.34871867299079895,0.023639991879463196,-0.020491011440753937,-0.39919838309288025,0.6273300051689148,0.032744430005550385,-0.2301931083202362,0.2590697407722473,0.10325171053409576,-0.5934802293777466,-0.7187185883522034,0.7206956148147583,0.6985395550727844,-0.5168747305870056,0.18068698048591614,0.46381232142448425,0.13012589514255524,-0.45995253324508667,0.11883959174156189,-0.01831979490816593,-0.7094516158103943,0.21940861642360687,0.27708929777145386,0.10871776193380356,0.2357911467552185,0.11494243890047073,-0.2537202835083008,0.01908642239868641,0.15041550993919373,0.5943408608436584,-0.18865755200386047,0.7061367034912109,0.5916046500205994,0.15326988697052002,0.24220433831214905,-0.3612532913684845,0.03117544576525688,0.1634151041507721,-0.2638452351093292,-0.736192524433136,0.06598837673664093,-0.4706304371356964,0.7021785974502563,-0.588482141494751,-0.48114266991615295,0.1752387285232544,0.47648879885673523,-0.5884038805961609,0.6209419965744019,-0.3787042498588562,-0.0527428537607193,-0.20596665143966675,-0.5326522588729858,0.48740503191947937,0.21156634390354156,-0.6828215718269348,-0.5945394039154053,0.48817962408065796,-0.6564397811889648,-0.026756595820188522,0.19247955083847046,-0.16090597212314606,-0.29658931493759155,0.44949275255203247,0.7432588934898376,0.6204001903533936,-0.26828494668006897,0.08188232034444809,-0.07168640196323395,0.01007198728621006,-0.4426548182964325,0.15856941044330597,0.23520319163799286,0.17771556973457336,-0.5564996004104614,0.1181582435965538,-0.08668175339698792,0.535599410533905,0.18180370330810547,0.6555739045143127,-0.6621771454811096,-0.1035071387887001,0.22013725340366364,-0.6341956853866577,-0.006104968022555113,0.82145756483078,-0.795177698135376,-0.6323736310005188,0.3056803345680237,-0.15703153610229492,0.43008092045783997,0.12286926060914993,0.011455769650638103,-0.7298265099525452,-0.2167452871799469,0.5213562250137329,0.2485017031431198,0.18314380943775177,0.6884870529174805,-0.6143612861633301,-0.43321770429611206,-0.6264718770980835,-0.2186255007982254,0.0035976585932075977,-0.00291811628267169,0.023654581978917122,-0.21053852140903473,0.030936403200030327,-0.1922435313463211,0.329507440328598,0.11503700166940689,0.01720411702990532,-0.47623002529144287,-0.22877436876296997,0.8381641507148743,-0.5979365110397339,-0.2255154401063919,-0.4991203844547272,0.014139140024781227,-0.28759318590164185,-0.0715041533112526,-0.16494466364383698,-0.12455727905035019,-0.320625901222229,-0.15458053350448608,-0.05416831374168396,0.08101160079240799,-0.6304548978805542,0.07833940535783768,-0.17419369518756866,-0.3351864814758301,-0.4925716519355774,0.09029637277126312,-0.3763573169708252,-0.2725555896759033,-0.209454745054245,-0.2625223696231842,-0.7200023531913757,0.09337189793586731,-0.6846712827682495,0.35915037989616394,0.33466318249702454,0.15142926573753357,-0.16781660914421082,-0.3685598373413086,-0.31642961502075195,0.1567772477865219,0.015126326121389866,-0.07135067880153656,0.29055267572402954,0.06294737756252289,-0.14728274941444397,-0.05513833835721016,-0.1345740556716919,0.07144065946340561,-0.124681256711483,-0.31155142188072205,-0.19646264612674713,0.12488552927970886,-0.06925171613693237,0.17100860178470612,0.0010360474698245525,-0.4784660041332245,0.6891735792160034,-0.36688506603240967,0.04942580312490463,-0.6330861449241638,0.17423506081104279,-0.27348586916923523,-0.3602322041988373,-0.20227780938148499,-0.7026299834251404,-0.7307498455047607,-0.005384472198784351,-0.5677419304847717,-0.15448325872421265,0.06295356154441833,-0.11711049824953079,-0.9244346618652344,-0.3640940487384796,0.25265195965766907,-0.7571983337402344,-0.20597057044506073,-0.11157296597957611,-0.5044240951538086,0.5244993567466736,-0.21678240597248077,-0.05668751150369644,-0.2287885993719101,0.6632964015007019,-0.34755489230155945,0.3730313777923584,0.0790492594242096,-0.060883503407239914,0.3271516263484955,0.47382575273513794,0.06908155977725983,0.21703654527664185,0.16151370108127594,-0.04408218711614609,0.050892144441604614,0.12336258590221405,-0.9032188653945923,0.11346732079982758,0.1685418039560318,0.30721864104270935,0.5230570435523987,0.08055754750967026,-0.7504280209541321,0.28312817215919495,0.38881951570510864,-0.2066771388053894,0.39621055126190186,0.0038537392392754555,0.007541824132204056,-0.3425544500350952,0.25982624292373657,-0.5451531410217285,0.10577857494354248,0.5061883926391602,0.13163013756275177,0.6746460795402527,-0.2954796254634857,0.6335114240646362,-0.031692586839199066,0.5083922147750854,0.2748560905456543,-0.47772446274757385,0.5308967232704163,-0.06858868896961212,0.5431868433952332,0.6795421838760376,0.18447062373161316,-0.5050408244132996,0.8349980115890503,-0.7598351836204529,-0.23583979904651642,-0.6048426628112793,-0.03636934980750084,-0.43961676955223083,-0.21189174056053162,-0.012719263322651386,0.46156325936317444,0.7047462463378906,0.5219107866287231,-0.08033009618520737,0.32690611481666565,0.2686358392238617,-0.7353028655052185,0.46042901277542114,0.5366678237915039,-0.17694835364818573,-0.09483452141284943,-0.2021251767873764,0.5535898804664612,0.08845390379428864,-0.2673647999763489,0.3793574571609497,-0.721878707408905,-0.7224059104919434,0.6230555176734924,0.30027878284454346,-0.5208028554916382,0.4456142485141754,0.16994455456733704,0.6022307872772217,-0.06072491779923439,0.8349876999855042,-0.32663825154304504,0.0455409400165081,0.40755200386047363,0.07698601484298706,-0.8252300024032593,-0.6840989589691162,-0.04309815168380737,0.1033606231212616,0.11117717623710632,-0.17733359336853027,-0.10334932804107666,0.6012647151947021,-0.563181459903717,-0.21143360435962677,-0.6116697788238525,0.1841045320034027,-0.3734450340270996,0.4233807623386383,-0.41787153482437134,-0.017482850700616837,-0.38860926032066345,-0.03305449336767197,0.10139381885528564,-0.14968711137771606,-0.6348646283149719,-0.3780410885810852,0.6474364995956421,-0.6165763735771179,-0.24099375307559967,0.05512547120451927,0.22355380654335022,0.17846688628196716,-0.5660439729690552,0.2124619334936142,0.19759133458137512,0.12132038921117783,0.033566202968358994,0.6403031945228577,0.017903689295053482,-0.06125091761350632,-0.43042343854904175,-0.2848382592201233,0.8354024887084961,-0.17918236553668976,-0.28472983837127686,-0.788406491279602,-0.1012631207704544,0.059484079480171204,-0.4205991327762604,0.3899763524532318,-0.0494009293615818,-0.19078612327575684,0.48474687337875366,0.25845062732696533,-0.05037389323115349,0.13749955594539642,0.037746451795101166,0.9133793115615845,0.6274282336235046,-0.08544500172138214,0.10757879167795181,0.016971437260508537,0.23700487613677979,-0.47646528482437134,-0.6779838800430298,0.46827563643455505,-0.5582671165466309,0.1586228758096695,-0.8229305148124695,-0.7233108878135681,0.09785161167383194,0.5826041102409363,0.0954054445028305,0.5717750191688538,0.1951913982629776,0.49365389347076416,-0.12979979813098907,-0.2202259749174118,-0.4804299473762512,-0.12150385230779648,-0.02277984656393528,0.5511336922645569,-0.47878503799438477,-0.14248041808605194,-0.5275378823280334,0.08010874688625336,0.1496429145336151,-0.1301412731409073,0.269704669713974,0.4919140338897705,-0.047848835587501526,0.8240523338317871,0.33364415168762207,0.5044414401054382,-0.2877199053764343,-0.2884012758731842,-0.14650151133537292,-0.15208660066127777,-0.05275506526231766,-0.06467121839523315,-0.32595640420913696,-0.39836645126342773,-0.5637090802192688,-0.7305875420570374,-0.08442717045545578,0.3381534516811371,0.4612562656402588,0.6284045577049255,-0.2925871014595032,0.8165470957756042,0.24455493688583374,-0.284392774105072,0.4310958981513977,0.5208312273025513,-0.5307459235191345,0.43140149116516113,-0.038958750665187836,0.0005575390532612801,0.4846033751964569,-0.8162317276000977,-0.07254741340875626,-0.4458824396133423,-0.013278685510158539,-0.20751835405826569,0.03642682358622551,-0.37587663531303406,0.43608880043029785,0.22310248017311096,0.23154759407043457,0.6958211064338684,0.06255707144737244,-0.4704252779483795,-0.03027240000665188,-0.2242005467414856,-0.33086705207824707,0.2910458445549011,-0.5225141644477844,0.422742635011673,-0.22517138719558716,-0.37363359332084656,0.414156973361969,0.6599392890930176,-0.35864871740341187,-0.33128324151039124,-0.2885446846485138,-0.6645402312278748,-0.1029096394777298,0.16833311319351196,0.08299991488456726,-0.461539626121521,-0.5240708589553833,-0.6258548498153687,0.22959297895431519,-0.4101361632347107,0.0040139504708349705,-0.5759735703468323,-0.13097403943538666,-0.4996492862701416,-0.4372611939907074,0.004585851915180683,-0.47359639406204224,-0.08047222346067429,-0.03317411243915558,0.22626690566539764,-0.04125208407640457,-0.47586899995803833,0.8123087286949158,0.19538451731204987,0.17310717701911926,0.0023138239048421383,0.456327885389328,0.3630717694759369,0.12334872037172318,0.26831579208374023,0.11694611608982086,0.5205614566802979,-0.4075789153575897,-0.21858792006969452,0.44286200404167175,-0.015523765236139297,0.3992576003074646,0.454237699508667,-0.42584267258644104,0.31535589694976807,-0.19021061062812805,-0.4292908012866974,-0.22808673977851868,0.05575793609023094,-0.38335806131362915,0.016205787658691406,-0.569532036781311,-0.36148974299430847,-0.8753049373626709,-0.9175064563751221,-0.17687177658081055,-0.7753871083259583,-0.22922365367412567,0.12759077548980713,0.7001754641532898,-0.48259326815605164,-0.03620796278119087,-0.42554453015327454,0.45124128460884094,0.6009266376495361,0.3322131633758545,-0.20588845014572144,-0.30429673194885254,0.3633725643157959,0.31313133239746094,0.2019168585538864,0.49433186650276184,-0.2377512902021408,-0.6192460060119629,0.46100109815597534,0.4154166281223297,-0.051550883799791336,-0.1356954574584961,-0.44997549057006836,-0.16221584379673004,0.030065009370446205,-0.4724470376968384,0.38478922843933105,0.2707914710044861,-0.7020311951637268,-0.2527468204498291,0.5668501853942871,0.15184859931468964,-0.017636407166719437,-0.514509916305542,0.3998313248157501,-0.2789626121520996,0.22844749689102173,-0.8153899908065796,-0.6558685898780823,-0.2049582451581955,0.5679508447647095,0.4561949670314789,-0.2660568356513977,-0.14510738849639893,0.5442067980766296,0.882638156414032,0.5616167187690735,0.10982776433229446,0.41732361912727356,-0.04887767136096954,0.09163646399974823,0.041925594210624695,0.17879252135753632,-0.1501527577638626,0.22382628917694092,0.6980648636817932,-0.3406837284564972,0.20714594423770905,-0.10903961211442947,-0.0852881595492363,0.17147429287433624,0.724404513835907,0.1639210283756256,0.5829601287841797,-0.5694130063056946,-0.004101820755749941,0.6053482294082642,-0.7771303057670593,0.31100183725357056,0.6949100494384766,0.09563993662595749,0.062468934804201126,-0.8462527990341187,-0.08293871581554413,-0.6668657660484314,-0.7236555218696594,0.2694746255874634,-0.11698105931282043,0.5809561014175415,0.8517892360687256,0.16667602956295013,-0.4683680534362793,0.6546154022216797,0.6810742616653442,-0.7357486486434937,0.677051305770874,0.4602282643318176,-0.5206680297851563,-0.3231038451194763,0.07822921127080917,-0.04885975271463394,0.03411071375012398,-0.22127169370651245,-0.3398963510990143,-0.1099305972456932,0.4040578305721283,-0.45366886258125305,0.10371828079223633,-0.3088303804397583,-0.6950837969779968,0.46062853932380676,-0.2604714632034302,0.09384675323963165,0.3012103736400604,0.05301431566476822,-0.40823104977607727,0.1445777416229248,-0.1716582328081131,0.35123828053474426,0.31997907161712646,0.021884920075535774,-0.12508060038089752,0.24518264830112457,0.2670421004295349,-0.035919733345508575,0.21837644279003143,0.2903299033641815,-0.8448989391326904,-0.008767243474721909,0.7060099840164185,0.46576663851737976,0.17223475873470306,-0.2985074520111084,-0.1823395937681198,0.25232478976249695,0.31366732716560364,0.4307396113872528,0.840916097164154,-0.1088089570403099,0.6376986503601074,0.7307292222976685,0.1332976520061493,-0.6933504939079285,0.016612766310572624,-0.13385871052742004,-0.2935255467891693,0.36642444133758545,0.3507198691368103,0.27333682775497437,-0.4021678566932678,0.0788036659359932,-0.20196478068828583,-0.5520958304405212,-0.6116114258766174,0.08966532349586487,-0.05955880880355835,-0.346070259809494,0.5840269327163696,0.8178410530090332,-0.4548337459564209,-0.6814051270484924,-0.29179584980010986,0.5349400639533997,0.6667569875717163,0.24351203441619873,-0.26588645577430725,0.747023344039917,0.057974398136138916,0.11018706113100052,0.30238279700279236,0.2599720358848572,0.16704104840755463,-0.19234289228916168,-0.23831963539123535,-0.5142960548400879,-0.05720522999763489,0.4581901729106903,0.12762536108493805,-0.42035213112831116,-0.3786361515522003,-0.383331298828125,0.3501327335834503,-0.2661368250846863,-0.36476871371269226,0.17541122436523438,0.03985856473445892,-0.3527207672595978,0.043097879737615585,-0.6986745595932007,0.684754490852356,0.6560148596763611,0.41246721148490906,0.07855723798274994,-0.6520746946334839,0.054384950548410416,-0.06993912905454636,-0.5822397470474243,-0.16829103231430054,0.7729228138923645,0.421012282371521,0.09375901520252228,0.0892951563000679,0.2820853292942047,0.7877620458602905,-0.40356436371803284,-0.8907408118247986,0.34310925006866455,0.4036521017551422,-0.7477765083312988,0.5071442127227783,-0.12220428138971329,-0.34382617473602295,-0.20606769621372223,-0.24821102619171143,-0.21196524798870087,-0.2631034255027771,-0.6003836989402771,0.12223581969738007,0.04937831312417984,0.0011811405420303345,-0.11979058384895325,0.6017749905586243,0.8304077982902527,0.08637214452028275,0.05729106813669205,0.4723491370677948,0.45597702264785767,0.709045946598053,0.9309831261634827,-0.6105549931526184,0.6693972945213318,-0.458627849817276,0.10025912523269653,-0.47436895966529846,-0.09980625659227371,0.2103242427110672,-0.26992008090019226,-0.7604619264602661,-0.351386696100235,0.04483502358198166,-0.21320241689682007,-0.16178032755851746,0.1441098004579544,0.06370998173952103,0.04971795901656151,0.04529663920402527,-0.21815334260463715,0.3002628982067108,0.068515345454216,0.05261625722050667,-0.004495647270232439,-0.40292200446128845,-0.2638748586177826,0.45586588978767395,-0.05793469399213791,0.5081338882446289,0.16909129917621613,-0.5483279824256897,-0.037411388009786606,0.23269285261631012,-0.7408595681190491,-0.4365914463996887,-0.10027983784675598,-0.1534547656774521,-0.11285047233104706,0.0962163433432579,-0.14133569598197937,0.3503356873989105,0.711671769618988,-0.5483965277671814,0.03204505890607834,0.2531155049800873,-0.24472260475158691,-0.37502074241638184,0.33924081921577454,0.13061021268367767,0.4638625383377075,0.4467281103134155,-0.6852250695228577,-0.2932550013065338,-0.11511602997779846,0.7727062702178955,0.4952166974544525,-0.045704055577516556,0.3447662591934204,-0.6884123086929321,-0.008660494349896908,0.40958598256111145,-0.2436940222978592,0.3260367214679718,0.2666471004486084,-0.35181981325149536,0.4236266613006592,-0.01573699526488781,-0.10272792726755142,-0.4285261929035187,0.5620130300521851,0.04341353476047516,-0.07219300419092178,0.04487758129835129,-0.260539710521698,-0.3778460919857025,0.0997445285320282,-0.6304985880851746,0.583076536655426,-0.09989775717258453,0.2920972406864166,0.1618100106716156,0.2588198482990265,-0.18187932670116425,-0.12237145751714706,-0.4402553141117096,-0.06618227809667587,0.42036882042884827,0.43683531880378723,0.07465995103120804,0.8423334956169128,0.25723710656166077,-0.4207081198692322,0.2774273157119751,0.045310914516448975,0.07135630398988724,-0.5537684559822083,-0.5622963905334473,-0.3868977427482605,0.24878132343292236,-0.3370918929576874,-0.711336612701416,-0.565293550491333,-0.015311386436223984,0.14119289815425873,0.022445369511842728,-0.4442625641822815,0.09441188722848892,0.6363073587417603,0.8710066080093384,0.08476873487234116,0.45614469051361084,-0.6699416637420654,-0.046397291123867035,-0.6094779968261719,0.05817634239792824,0.8177853226661682,0.650909960269928,0.08844101428985596,0.4456636607646942,-0.062157042324543,-0.32931435108184814,0.09366218000650406,-0.4426661431789398,0.23235450685024261,-0.053404878824949265,0.13536299765110016,0.7410708665847778,-0.08826131373643875,-0.488618403673172,0.5702893137931824,-0.1433420479297638,-0.34659144282341003,-0.3217017650604248,0.22258345782756805,-0.6121205687522888,0.7580410838127136,0.2918771803379059,0.0225934199988842,-0.019863275811076164,0.006425489205867052,0.04360910505056381,0.21997873485088348,0.6605680584907532,0.37727370858192444,0.6209279894828796,0.27143076062202454,-0.08363919705152512,-0.07716371864080429,0.010476082563400269,-0.2338476926088333,0.5420930981636047,0.5650337338447571,0.40923255681991577,0.1926630735397339,0.17730621993541718,0.07486962527036667,-0.44439655542373657,-0.09603707492351532,0.018366068601608276,-0.27513808012008667,0.157159224152565,0.76683109998703,-0.6065267324447632,0.4020902216434479,-0.7044470906257629,-0.25156232714653015,-0.2915990352630615,-0.1640986055135727,-0.26866137981414795,0.7411973476409912,-0.11077903211116791,0.635944664478302],"size":1600,"type":"conv"}
