{"data":[-0.014536367729306221,-0.004966313950717449,-0.05545102804899216,-0.0670647919178009,0.007913732901215553,-0.0035003884695470333,-0.032395489513874054,0.0032008669804781675,0.03778273984789848,0.027301505208015442,0.004095226526260376,-0.0153817655518651,-0.04587309807538986,-0.026036839932203293,0.023977532982826233,0.010001660324633121,-0.012953097000718117,-0.008384703658521175,0.0007886996609158814,0.020301971584558487,0.027260133996605873,-0.02946557104587555,0.05004308745265007,0.007862004451453686,0.015728190541267395,-0.027443474158644676,0.019341684877872467,-0.043585218489170074,-0.06198716163635254,0.0191023051738739,-0.020632602274417877,0.009982870891690254,0.05431409552693367,0.008317030034959316,0.052024465054273605,-0.03808093070983887,0.023919392377138138,-0.03279229253530502,0.07226241379976273,-0.07441152632236481,-0.029699411243200302,-0.018771089613437653,0.019859297201037407,-0.0390222892165184,0.04984314739704132,0.040592171251773834,0.014995445497334003,0.004285183269530535,0.07215612381696701,0.046608299016952515,0.015737609937787056,0.008026991039514542,0.06812389194965363,-0.007957170717418194,-0.01865975186228752,0.08349187672138214,0.04558774456381798,0.0348726287484169,-0.039708610624074936,-0.0017096900846809149,-0.04607394337654114,-0.002810331992805004,0.014623994939029217,0.058362651616334915,-0.06525318324565887,0.0283091701567173,0.08581402897834778,-0.04439255967736244,0.03471506014466286,0.018339430913329124,-0.018279286101460457,0.098124198615551,-0.009159902110695839,0.02993924543261528,0.08964048326015472,0.031066859140992165,0.005691121332347393,-0.05082070827484131,-0.016145164147019386,-0.08834438025951385,-0.0790368914604187,0.0034039511810988188,-0.0018837058451026678,0.054817695170640945,0.041326459497213364,-0.030179858207702637,-0.07017230242490768,-0.015257825143635273,0.04473910108208656,-0.013952940702438354,-0.06706838309764862,-0.013513341546058655,-0.04756121337413788,0.02170800045132637,0.013764430768787861,0.006644703447818756,-0.02816671133041382,0.003491805400699377,-0.07642658054828644,-0.004415153991430998,-0.04161267355084419,0.05281228572130203,-0.021029166877269745,-0.05183140188455582,0.05179412290453911,-0.03345535323023796,-0.08410758525133133,9.279213554691523e-05,0.020535217598080635,-0.025711584836244583,0.014004720374941826,-0.04399615153670311,0.005845807492733002,0.019809896126389503,-0.029094785451889038,-0.05212733894586563,0.06819595396518707,-0.024097254499793053,0.02567715384066105,0.005347355268895626,-0.018299398943781853,0.0038788665551692247,-0.012813237495720387,-0.039807479828596115,0.05347485467791557,-0.0015227163676172495,-0.0454506054520607,-2.9753102353424765e-05,0.04940948635339737,-0.016565952450037003,-0.04160682484507561,0.06949770450592041,0.03681574761867523,0.04357510060071945,-0.06734085828065872,-0.030104491859674454,0.005241177044808865,0.04567357897758484,-0.026273688301444054,0.05584622547030449,-0.0682840347290039,-0.006417231168597937,-0.0038651898503303528,-0.03208012878894806,0.06658466905355453,-0.003918328322470188,-0.05223563313484192,-0.011713987216353416,0.017182329669594765,-0.037726711481809616,0.01255149208009243,-0.07434869557619095,-0.05097289755940437,-0.051005490124225616,-0.015953291207551956,-0.011121770367026329,-0.053050678223371506,-0.009677313268184662,0.016888191923499107,-0.024531768634915352,-0.03539567068219185,0.027326297014951706,-0.01370077021420002,-0.005980570334941149,-0.005576436407864094,0.037043727934360504,-0.04547316953539848,-0.006997250951826572,0.009921302087605,0.06405437737703323,0.06922532618045807,0.0411391519010067,-0.0584537573158741,-0.03314962983131409,0.058352284133434296,-0.06672284007072449,-0.03765155002474785,0.011782927438616753,-0.05548860505223274,-0.029115399345755577,-0.08742999285459518,-0.07124539464712143,-0.045627810060977936,-0.02166072092950344,-0.036198098212480545,0.0006265129195526242,-0.025337308645248413,0.008574245497584343,-0.06995157897472382,0.024364281445741653,0.015045817010104656,0.019491611048579216,0.07679784297943115,0.015585321001708508,-0.05644598603248596,0.047723688185214996,0.04077152907848358,-0.05672207474708557,0.06232937425374985,-0.009270159527659416,0.018899010494351387,-0.002330463845282793,-0.032868169248104095,-0.020814159885048866,-0.010755735449492931,0.019885901361703873,-0.020607393234968185,-0.017860274761915207,-0.014511463232338428,-0.004686503671109676,-0.07351650297641754,0.005727765616029501,-0.004499115981161594,0.015094196423888206,-0.03742501884698868,-0.02421608753502369,0.04361007362604141,-0.014255417510867119,-0.05226748436689377,-0.0075537702068686485,-0.07325603812932968,0.0010571170132607222,0.04788295924663544,-0.0060633206740021706,0.020352311432361603,0.04024161025881767,0.04515617713332176,0.07046465575695038,0.026197459548711777,0.08346925675868988,0.05839885026216507,0.011595663614571095,-0.04963138699531555,-0.007123717572540045,-0.04839210584759712,-0.012968969531357288,-0.02045990340411663,0.06339941918849945,0.056274496018886566,-0.02579500898718834,-0.03143436461687088,0.03072803094983101,-0.01437096856534481,0.005272182635962963,0.00727461650967598,0.026819920167326927,-0.01302790641784668,0.049461085349321365,-0.044106513261795044,0.0677010715007782,-0.08811668306589127,-0.008010300807654858,0.0050097880885005,-0.048556484282016754,-0.06050637364387512,0.016040850430727005,0.05382729321718216,-0.025084828957915306,-0.00148581073153764,0.006682276725769043,-0.023768644779920578,0.010942291468381882,0.054927390068769455,-0.07537118345499039,-0.03693804889917374,-0.0394345186650753,-0.03875727578997612,-0.032145947217941284,-0.028212908655405045,0.016861261799931526,0.044831808656454086,0.07934463024139404,-0.07634808868169785,-0.04352130740880966,-0.03337956219911575,-0.0323348268866539,-0.020041462033987045,0.011606345884501934,0.0106063112616539,-0.041737113147974014,0.042340777814388275,0.02891789935529232,-0.054220665246248245,0.08230087906122208,-0.014373980462551117,0.03635220602154732,0.026044923812150955,-0.052839189767837524,-0.05660507082939148,0.042373914271593094,-0.06216258928179741,0.010276583954691887,-0.05132686346769333,-0.042288102209568024,0.02868063375353813,0.052841730415821075,-0.03371275216341019,-0.045946236699819565,0.010573603212833405,0.02779409848153591,0.006546751596033573,0.06303255259990692,0.006532563827931881,0.07906872779130936,0.08483799546957016,-0.004360089544206858,0.05259736254811287,-0.03307757526636124,0.010784948244690895,-0.08334703743457794,-0.008763657882809639,0.011117122136056423,-0.01740207150578499,-0.048924170434474945,0.026709094643592834,0.02501516044139862,-0.010821834206581116,0.026933705434203148,0.015542328357696533,-0.005778007674962282,0.06703562289476395,0.046197421848773956,0.0008542450377717614,0.02966407872736454,0.020751584321260452,-0.059400152415037155,-0.05276720970869064,0.02631443180143833,-0.054861314594745636,-0.0009674636530689895,-0.036984458565711975,0.08821957558393478,0.029174115508794785,-0.025030409917235374,-0.010586680844426155,-0.057716112583875656,-0.01900729164481163,0.009342705830931664,-0.031359609216451645,-0.03613597899675369,0.009054395370185375,0.0033782999962568283,0.0200045183300972,-0.006906401365995407,-0.004561864770948887,-0.0465114526450634,-0.06220554560422897,0.01770726591348648,0.0768275335431099,-0.03842033073306084,-0.0375237837433815,-0.015064463019371033,-0.07054207473993301,0.04732034355401993,-0.0018014631932601333,0.08244504034519196,0.011553616262972355,0.047748107463121414,0.07739165425300598,-0.005630605388432741,0.008844787254929543,-0.06477020680904388,-0.049106307327747345,-0.0018169371178373694,0.05786159634590149,0.021223148331046104,0.008123510517179966,-0.06922881305217743,-0.046409472823143005,0.04361401125788689,0.0007784712361171842,-0.004092959221452475,-0.031107818707823753,0.009827929548919201,0.00867348164319992,0.021569520235061646,-0.017606306821107864,0.037594158202409744,-0.017480332404375076,-0.029453909024596214,0.09716390818357468,-0.005484730936586857,0.011299790814518929,0.007447985466569662,0.012988990172743797,0.06507973372936249,0.004464884288609028,-0.03158343583345413,-0.04328848794102669,-0.009082527831196785,-0.01670418307185173,0.04074797406792641,-0.05522409826517105,0.04087411239743233,-0.06010732054710388,-0.028473487123847008,0.02826356329023838,-0.04355733096599579,-0.04927545040845871,-0.0034004095941781998,0.05050778388977051,-0.09441497176885605,0.022068195044994354,0.01728849485516548,0.02565370500087738,0.0022762841545045376,0.013307176530361176,0.06788478791713715,0.018642080947756767,0.014540915377438068,-0.007317488081753254,0.0087836142629385,-0.03847131505608559,-0.03383905068039894,-0.020667653530836105,-0.014735785312950611,-0.005698511376976967,0.06743152439594269,-0.01096629910171032,0.0006080335006117821,0.0210671778768301,-0.019268780946731567,0.06064128875732422,-0.03642896190285683,-0.010214854031801224,-0.04851912334561348,0.0041141025722026825,-0.017824243754148483,0.07343008369207382,0.015311500057578087,-0.015328903682529926,0.03134847432374954,0.01910974085330963,-0.07326134294271469,0.005252466071397066,0.021884530782699585,-0.00965797994285822,0.0035631447099149227,0.011625752784311771,0.031697485595941544,-0.05926069617271423,-0.06302941590547562,-0.05435175448656082,0.02269343100488186,0.04523236304521561,-0.009509934112429619,0.059459738433361053,0.036317795515060425,0.08397263288497925,-0.027019966393709183,0.037464700639247894,0.0321497842669487,0.04833477362990379,-0.003907328005880117,0.027621855959296227,0.020266959443688393,0.003968316130340099,0.06478339433670044,0.0774022787809372,-0.03766738623380661,0.07289741188287735,-0.022447053343057632,0.06548310816287994,-0.008843036368489265,-0.05333955958485603,-0.08355378359556198,-0.030134167522192,0.0019933569710701704,-0.05033884570002556,0.06275391578674316,0.018437135964632034,0.09036198258399963,0.04501260817050934,-0.025149688124656677,0.009331924840807915,0.018813613802194595,0.019181296229362488,-0.03683460131287575,0.015463831834495068,-0.029659664258360863,-0.010837288573384285,-0.004476815927773714,0.055076878517866135,-0.03490529954433441,0.03939232975244522,0.003574437228962779,0.044673096388578415,-0.0695662647485733,0.05299832671880722,0.021661195904016495,0.01953865960240364,-0.0012976044090464711,0.02156379446387291,0.028824398294091225,-0.048034485429525375,-0.0017275767168030143,-0.06100590154528618,-0.036803532391786575,-0.030013050884008408,-0.014816729351878166,-0.04048595950007439,-0.013707253150641918,-0.01984131708741188,-0.059625186026096344,-0.0682874247431755,0.0511050820350647,0.02193824201822281,-0.0748712569475174,0.01507398672401905,0.08879821747541428,0.026170512661337852,-5.067940946901217e-05,-0.037782248109579086,0.030467739328742027,0.01951286569237709,-0.06956256926059723,-0.000345389184076339,0.04798799008131027,-0.007858066819608212,-0.05986597016453743,0.07097458094358444,-0.025698762387037277,-0.024019470438361168,-0.061440713703632355,0.01093757338821888,-0.061053574085235596,0.005711404141038656,0.04443726688623428,-0.02749723196029663,-0.03363170847296715,0.003947575110942125,-0.0421905592083931,0.029829028993844986,0.030677620321512222,-0.03221192583441734,-0.06620700657367706,0.08334144204854965,-0.04286423325538635,0.048452503979206085,0.05949550122022629,-0.013873693533241749,0.0033590656239539385,-0.049629274755716324,0.042999882251024246,-0.011532275006175041,0.06060750037431717,0.04398209601640701,-0.013424279168248177,0.013455761596560478,0.055431198328733444,0.03386804461479187,-0.005940194241702557,0.084209144115448,-0.04127255827188492,-0.055809833109378815,-0.004074194468557835,0.0016132667660713196,0.030731474980711937,0.04181928187608719,0.01590430550277233,-0.01757747307419777,-0.06870491057634354,0.024390626698732376,-0.036130640655756,-0.012932944111526012,-0.0071131340228021145,-0.00630414392799139,0.044936276972293854,0.04841579496860504,0.05937696248292923,0.06337323039770126,0.025471409782767296,0.04943450912833214,0.002205690834671259,0.002837089356034994,0.025725549086928368,0.031839169561862946,-0.009800640866160393,-0.077472984790802,0.0013742928858846426,0.0640648752450943,-0.009028332307934761,-0.06908158212900162,-0.05247197300195694,-0.030524704605340958,-0.06588058918714523,-0.02982521988451481,-0.022799130529165268,0.03049299493432045,-0.02461673878133297,0.06689766049385071,-0.0783245712518692,-0.008547455072402954,-0.026687677949666977,0.05226336792111397,0.03220082446932793,0.027968984097242355,-0.04355139657855034,-0.061329107731580734,-0.06762612611055374,-0.0294471625238657,-0.0015550556126981974,0.03632712736725807,0.013394901528954506,-0.0579773411154747,0.022336341440677643,-0.02118954434990883,0.05137941241264343,-0.043647874146699905,-0.0074366359040141106,-0.04790975898504257,0.027945388108491898,0.02874748781323433,-0.028016382828354836,0.044778015464544296,0.01073944941163063,-0.058308374136686325,-0.08324111253023148,0.009223210625350475,0.037996288388967514,0.03306340426206589,-0.0029078787192702293,-0.029279980808496475,0.01657349430024624,0.034216172993183136,-0.0022500972263514996,-0.07491621375083923,0.012949096038937569,0.009017771109938622,-0.048738908022642136,-0.016616713255643845,-0.0002517402172088623,-0.03185240179300308,0.025372903794050217,0.05609513074159622,-0.004171378444880247,-0.03422509506344795,-0.018319441005587578,0.0008131187641993165,0.017103735357522964,-0.04801994189620018,-0.0031110658310353756,-0.05205318331718445,-0.003346165642142296,-0.047144815325737,-0.00934943463653326,0.06104692816734314,-0.04756760597229004,0.008791263215243816,0.042540982365608215,0.020443227142095566,0.09151678532361984,0.0008782973745837808,-0.06014350801706314,0.008438969030976295,-0.04161267727613449,-0.047775570303201675,-0.00847617443650961,-0.008158036507666111,-0.04383685067296028,-0.015063178725540638,-0.017911411821842194,0.04073311388492584,0.030342046171426773,0.058224696666002274,-0.025181487202644348,0.05531671643257141,0.055821605026721954,0.0181786697357893,-0.018160326406359673,-0.02014707587659359,0.004704216029495001,-0.040842123329639435,-0.024413475766777992,-0.025858070701360703,0.01408387441188097,0.013046923093497753,0.033461056649684906,-0.007470236625522375,0.06375142931938171,0.07356272637844086,-0.012677527964115143,-0.005794020369648933,0.010619902983307838,0.05613818019628525,0.04083170369267464,-0.06607265770435333,0.025093961507081985,0.058645498007535934,0.006977299693971872,-0.07595010101795197,0.02520633116364479,0.0039939614944159985,0.014908604323863983,-0.006911169737577438,0.01779109612107277,0.07120440900325775,-0.08688730746507645,0.01989571936428547,0.005493725184351206,-0.028956109657883644,-0.03892892599105835,-0.036408163607120514,-0.02218412235379219,-0.05038924142718315,-0.046803634613752365,0.007993367500603199,0.004175261594355106,0.04015932232141495,-0.020657973363995552,-0.003676876425743103,-0.0003743706620298326,0.017015628516674042,0.01390815805643797,-0.041272662580013275,0.06432299315929413,0.03519871085882187,-0.033869802951812744,0.004199102986603975,0.032380618155002594,-0.015531499870121479,0.022109556943178177,0.03394092991948128,-0.0014755666488781571,-0.039198484271764755,-0.005093077663332224,-0.03126756474375725,-0.057992834597826004,-0.007432017475366592,-0.06208962947130203,-0.04304387420415878,0.004392474424093962,0.07301438599824905,0.06912563741207123,0.013530014082789421,0.09045097231864929,-0.000500819063745439,-0.023776428773999214,0.010420991107821465,0.013407446444034576,0.00774068757891655,-0.018083075061440468,0.03499438613653183,0.045058198273181915,0.06965398043394089,0.03765862435102463,-0.01078092958778143,-0.04990794137120247,-0.0391211099922657,-0.03317331522703171,0.05333756282925606,0.04102347791194916,-0.05857397988438606,0.016273926943540573,-0.05501553416252136,-0.0463641993701458,-0.03145826235413551,0.0327267050743103,0.037526603788137436,0.061656929552555084,0.028216149657964706,-0.020106885582208633,0.004254246596246958,-0.0881570428609848,0.045678604394197464,0.07511957734823227,0.05940546840429306,-0.0460958294570446,0.06516505032777786,0.040487803518772125,-0.07825621962547302,-0.04364024102687836,-0.026868248358368874,-0.03699503839015961,0.0003597378672566265,-0.0012224775273352861,-0.08329419046640396,-0.045155759900808334,0.02324429526925087,0.014707332476973534,-0.024044819176197052,-0.012723760679364204,-0.05606639385223389,-0.06490851938724518,0.043872423470020294,-0.006071686744689941,-0.028893712908029556,0.029409881681203842,0.07143685966730118,0.00798984058201313,-0.016494324430823326,-0.030399460345506668,0.0007711675716564059,0.010084642097353935,0.053503282368183136,0.07419382035732269,0.05424613505601883,0.01023609098047018,0.036198921501636505,0.06467118114233017,0.00804901123046875,0.05455867573618889,-0.06900925934314728,0.0425751693546772,-0.03548448905348778,-0.01129281148314476,-0.012750277295708656,-0.018598174676299095,-0.005142517387866974,0.034098077565431595,-0.06057066470384598,-0.032653145492076874,0.019985921680927277,-0.03122604265809059,0.08129537105560303,-0.07366547733545303,0.015138385817408562,-0.04059659317135811,0.004093371331691742,-0.018129976466298103,0.05056264251470566,-0.0474165603518486,-0.03525448590517044,-0.07973463088274002,-0.010105914436280727,0.0214059017598629,-0.04165039211511612,0.04127173125743866,0.012024782598018646,-0.08286848664283752,-0.051102764904499054,-0.006962911691516638,-0.011562502942979336,0.04181854799389839,-0.008097528479993343,-0.022709358483552933,0.003594564273953438,-0.06251771003007889,0.0037175894249230623,-0.035854287445545197,0.003082758979871869,0.034564726054668427,-0.031869299709796906,0.050624627619981766,-0.0026326992083340883,-0.011704741045832634,0.02457367442548275,-0.0165387112647295,0.037605397403240204,-0.03113161027431488,-0.01618560217320919,0.03058744966983795,0.0035281989257782698,-0.015494942665100098,-0.00936182402074337,-0.0363231897354126,-0.029813608154654503,0.0780353769659996,0.04277154058218002,-0.01348268985748291,-0.069134920835495,-0.062490444630384445,-0.01936543919146061,0.03036319650709629,0.02227030135691166,0.008798638358712196,-0.05238334462046623,-0.005560845136642456,-0.014671690762043,0.09103746712207794,-0.07240693271160126,-0.011998031288385391,-0.08029499650001526,-0.02987425960600376,-0.016344131901860237,-0.01242514792829752,0.03425626456737518,0.03674808889627457,-0.0336601659655571,-0.013070596382021904,0.039833880960941315,0.055310118943452835,-0.01300603337585926,0.014527065679430962,0.010929941199719906,-0.08195166289806366,-0.02757701836526394,0.0004951287992298603,0.07369676232337952,0.052652835845947266,-0.036133039742708206,-0.027299663051962852,-0.020565155893564224,0.07494009286165237,0.013348625972867012,-0.06726811081171036,-0.044743698090314865,0.05565435811877251,0.0009572674753144383,-0.057758528739213943,0.00840297993272543,0.018462345004081726,-0.04281368851661682,-0.018310660496354103,-0.0370207354426384,0.000677623029332608,-0.03877639025449753,0.04564382880926132,0.025852706283330917,0.04611817002296448,-0.07413190603256226,-0.08241108804941177,-0.006690131034702063,0.01803835853934288,-0.007739437278360128,0.015701929107308388,-0.07032842189073563,-0.047941338270902634,-0.04819332808256149,-0.021130425855517387,0.022632326930761337,0.08269267529249191,-0.008965624496340752,-0.020528437569737434,-0.05190442129969597,-0.0492570623755455,0.034031402319669724,0.037866659462451935,0.08523368835449219,0.0035516161005944014,-0.0021013119257986546,-0.024659303948283195,-0.06358517706394196,0.021948736160993576,-0.011447353288531303,0.04866668954491615,0.0051183318719267845,-0.03359873592853546,-0.03479941934347153,-0.021645132452249527,0.05273893475532532,0.03005669079720974,0.007720971945673227,-0.030578812584280968,-0.05092483013868332,0.009085596539080143,0.028858110308647156,-0.05657229945063591,-0.0008916165679693222,0.025387978181242943,0.026522746309638023,-0.04586590453982353,0.026848401874303818,0.04630834981799126,-0.01130438782274723,0.0292501300573349,0.03729090839624405,0.04911881685256958,-0.06310132890939713,0.0620722770690918,-0.014646734111011028,0.006058569066226482,-0.06116453930735588,-0.018025483936071396,0.003998176660388708,-0.044558338820934296,-0.034164972603321075,-0.021602727472782135,0.029440388083457947,-0.03613961860537529,-0.046226222068071365,0.021262628957629204,0.01043556910008192,-0.015086427330970764,-0.0636691227555275,-0.0386815145611763,-0.04132572561502457,-0.037947047501802444,-0.09299798309803009,-0.02457619272172451,-0.014765659347176552,-0.006467981729656458,0.025978121906518936,-0.04055720567703247,-0.07457172125577927,-0.003996949642896652,-0.01938539743423462,0.0013866877416148782,0.037615176290273666,0.0895637571811676,-0.03995872661471367,-0.0014520774129778147,-0.037467535585165024,-0.06687483936548233,0.03992452844977379,0.03908516839146614,-0.08353841304779053,-0.013965304009616375,-0.08786454796791077,0.005100702866911888,-0.0243818461894989,0.03254313766956329,-0.00869547575712204,0.08345927298069,0.013224652037024498,-0.0663091391324997,0.03706781566143036,0.05013022944331169,-0.06566708534955978,-0.09079103916883469,-0.037556253373622894,0.02373255044221878,0.02583136036992073,0.03850792720913887,-0.030226364731788635,0.025789931416511536,0.037755317986011505,-0.0275154747068882,-0.04701470583677292,-0.09335743635892868,0.02399319037795067,0.0593484528362751,0.08660449087619781,0.016043437644839287,-0.02007177844643593,-0.06923822313547134,-0.007966922596096992,0.008235643617808819,0.0018776303622871637,0.010515940375626087,0.021816816180944443,-0.07032819092273712,-0.013485422357916832,-0.05728990584611893,-0.08143322914838791,0.04619506001472473,0.0010335559491068125,-0.018984291702508926,-0.0024424847215414047,0.029194271191954613,0.07458601146936417,0.0041289618238806725,0.03825574740767479,-0.052114952355623245,0.05061538890004158,-0.008609389886260033,-0.0942329689860344,0.02220427244901657,-0.003914045635610819,0.09390881657600403,0.011401635594666004,0.051885612308979034,-0.00441318703815341,-0.009844232350587845,-0.0285579152405262,0.0045170858502388,0.026098107919096947,0.05931796506047249,0.010150047019124031,-0.017351699993014336,0.00288829836063087,0.016095954924821854,-0.013189713470637798,0.00886420626193285,-0.009751510806381702,-0.03470536321401596,-0.019912105053663254,0.025051135569810867,0.03699865564703941,-0.02466585300862789,0.01960812136530876,0.020946767181158066,-0.04311738163232803,0.023106679320335388,0.02225251868367195,-0.032134562730789185,-0.012380281463265419,-0.03260389715433121,0.012956419959664345,0.02663296088576317,-0.015118400566279888,0.04342319816350937,0.055338304489851,-0.010762551799416542,-0.04367705062031746,0.03469846770167351,0.00214707781560719,0.018279526382684708,-0.06299231946468353,0.055094778537750244,0.024108130484819412,-0.03124244511127472,0.012812642380595207,0.002898807404562831,0.0303120668977499,0.06070883199572563,-0.08074300736188889,0.03019433654844761,0.07890289276838303,-0.009572780691087246,-0.001088827382773161,0.041228704154491425,0.030483439564704895,-0.022911205887794495,-0.04713890701532364,0.03939263895153999,0.05210251361131668,0.010434725321829319,-0.020443500950932503,-0.05198612064123154,-0.0015915163094177842,-0.041904743760824203,0.0017709903186187148,-0.029345009475946426,0.01898878999054432,0.041576847434043884,0.047113023698329926,-0.013463248498737812,0.030081937089562416,-0.06003118306398392,0.01658295840024948,-0.055627405643463135,-0.013504629954695702,0.06428946554660797,-0.011001339182257652,-0.05445638298988342,0.008977186866104603,-0.012164623476564884,-0.04320639744400978,-0.0035581972915679216,0.020180344581604004,-0.09407071769237518,-0.027100130915641785,-0.03869679942727089,-0.04924846813082695,0.07168186455965042,0.04212217777967453,0.008501000702381134,-0.04953794553875923,-0.007133852690458298,0.054853279143571854,-0.006342398934066296,0.01107962615787983,-0.017699314281344414,-0.016446979716420174,0.04150446131825447,-0.03194386139512062,0.048124946653842926,0.04780355840921402,0.054962147027254105,-0.009865600615739822,-0.03399863839149475,0.00658231507986784,0.033799681812524796,0.03722251579165459,-0.07415501773357391,-0.0052199349738657475,-0.02592996135354042,0.06962935626506805,-0.05556228756904602,-0.07592271268367767,0.03361257538199425,0.0014929968165233731,0.012058586813509464,0.021238766610622406,-0.08647099137306213,-0.05476825684309006,-0.04139422997832298,0.0175044946372509,-0.010415135882794857,-0.06304533779621124,-0.0037465698551386595,-0.02567676268517971,-0.020417576655745506,-0.06772737205028534,0.017684826627373695,-0.010191572830080986,-0.05717543512582779,0.0017977015813812613,0.0644175335764885,-0.05738503485918045,0.001468431088142097,0.07795003801584244,0.08094127476215363,0.06042565777897835,0.06499969214200974,0.004546965006738901,-0.04421282187104225,0.041939783841371536,-0.055347759276628494,0.011897547170519829,0.007619595620781183,-0.038304053246974945,0.058672528713941574,-0.007974850945174694,-0.006899092346429825,0.0017208777135238051,-0.02442781627178192,-0.005043483339250088,0.06326957792043686,-0.055544741451740265,-0.07170262187719345,0.026787232607603073,-0.06005729362368584,-0.017245206981897354,0.04280683770775795,-0.052868157625198364,0.06051034480333328,-0.002130000153556466,0.06504755467176437,0.00018996637663803995,0.02818869985640049,0.011647844687104225,-0.04159928858280182,-0.07536430656909943,0.048458535224199295,-0.02269536815583706,0.04583955556154251,0.05996439978480339,-0.021411951631307602,0.0605689100921154,0.02897973358631134,0.04617943987250328,-0.042977575212717056,-0.07283011823892593,-0.08216299116611481,-0.016411326825618744,0.04626677185297012,-0.03293671831488609,0.007435753010213375,-0.02713581919670105,0.04318196699023247,-0.008557818830013275,0.03714268282055855,0.011347348801791668,0.024139054119586945,0.04133903235197067,0.04847927391529083,0.05710100010037422,0.01926746405661106,0.037304896861314774,0.045422930270433426,-0.03817209228873253,0.026562806218862534,-0.042306624352931976,0.03285609930753708,-0.04233760014176369,0.04703303053975105,-0.048922184854745865,0.010208836756646633,-0.01692895218729973,-0.05411718040704727,0.06457702070474625,0.004918507765978575,-0.011109053157269955,-0.0036804606206715107,0.016740938648581505,0.02625352144241333,-0.059812963008880615,-0.05698670819401741,-0.05239681154489517,0.03483116999268532,-0.05608413368463516,-0.010751353576779366,-0.039332903921604156,-0.025193149223923683,-0.08285608142614365,0.05798675864934921,-0.04819454252719879,-0.037805818021297455,-0.07951949536800385,-0.0660610944032669,-0.03836975619196892,-0.03728508949279785,0.06741373240947723,0.06708303838968277,-0.07229754328727722,-0.053700245916843414,-0.060368798673152924,0.07009696960449219,-0.0663382038474083,-0.016664041206240654,-0.02144542895257473,0.031142065301537514,0.06319940835237503,-0.059208281338214874,0.06964126229286194,-0.03862002119421959,0.007352924905717373,-0.0016252672066912055,-0.03399655222892761,0.017108382657170296,-0.05711526796221733,0.07727037370204926,0.06409269571304321,-0.03810286521911621,0.015712890774011612,0.03504420444369316,0.003007841994985938,-0.05535845085978508,-0.07911752909421921,-0.0556546151638031,0.06996244937181473,0.01844647526741028,0.00884132832288742,0.049531929194927216,0.02840839885175228,0.049336452037096024,-0.04730923846364021,-0.03907003253698349,0.01898651011288166,0.00319429743103683,-0.007981652393937111,-0.02079729363322258,0.04353009909391403,-0.04250849038362503,-0.05717863887548447,0.007760105188935995,0.0372929647564888,0.01750798150897026,0.008715996518731117,0.07284365594387054,-0.01811927929520607,-0.01662234216928482,0.008311362937092781,-0.06062297895550728,-0.056971658021211624,0.05566881224513054,-0.004748149774968624,0.04015953093767166,0.09303022921085358,-0.029081013053655624,-0.040447067469358444,-0.041392914950847626,-0.06875292211771011,0.007351721171289682,0.010904958471655846,-0.025216370820999146,-0.010422619059681892,0.05061563104391098,0.014712661504745483,0.025372961536049843,0.027179395779967308,0.08107765018939972,-0.07335787266492844,0.03905621916055679,0.02347176894545555,0.07442494481801987,-0.061554115265607834,-0.02446267008781433,-0.03146805986762047,-0.02009052038192749,0.07603654265403748,-0.00685474369674921,-0.02022194117307663,-0.03923298418521881,-0.04211070388555527,-0.010552555322647095,-0.024782631546258926,0.02337283454835415,-0.07177303731441498,0.0380437895655632,-0.02146836183965206,0.06610791385173798,-0.013260534033179283,-0.00192937848623842,-0.05955518037080765,-0.014754039235413074,0.08964046090841293,0.05980309098958969,0.006511476822197437,-0.0019363285973668098,0.06756414473056793,-0.03017272986471653,0.08240020275115967,-0.010035467334091663,-0.0021766568534076214,-0.07950323075056076,-0.028815463185310364,-0.019033411517739296,-0.011480007320642471,-0.042766354978084564,-0.04378514736890793,0.033053360879421234,0.05130196362733841,-0.07445047795772552,0.00011827769048977643,0.04852266237139702,0.008102583698928356,0.007181891705840826,0.03424638509750366,-0.06057354062795639,0.026228824630379677,-0.030609790235757828,-0.002597818383947015,-0.03155689314007759,0.009769247844815254,-0.003940974827855825,-0.03922529146075249,0.02976938523352146,0.0763479694724083,0.05318515747785568,-0.03673885017633438,0.04701143875718117,-0.06459303200244904,-0.0010485260281711817,-0.00024160118482541293,0.047649651765823364,0.06428943574428558,0.00992873590439558,0.062040962278842926,-0.010691793635487556,0.01035410538315773,0.0632677674293518,-0.08045019209384918,0.030654359608888626,0.06754559278488159,0.05302345007658005,-0.010185284540057182,-0.024386558681726456,-0.0012030373327434063,-0.010712648741900921,0.0571538582444191,0.04988221824169159,0.09417286515235901,0.0026590332854539156,-0.009635848924517632,-0.06489717960357666,-0.02876928448677063,0.05576478689908981,-0.01186269149184227,-0.03277990221977234,0.03758826106786728,0.08979819715023041,-0.05426018312573433,-0.005891209468245506,-0.05697657912969589,0.051458556205034256,-0.07530605047941208,0.03075890615582466,-0.07681768387556076,-0.03688471019268036,0.0065144626423716545,-0.049999214708805084,0.005128808785229921,-0.06349770724773407,-0.03492731600999832,-0.04587604105472565,-0.08046082407236099,0.008673526346683502,0.02097383327782154,0.049616869539022446,0.025342624634504318,-0.005532965995371342,0.00412469869479537,0.025746937841176987,-0.002297184430062771,-0.09401227533817291,0.033740125596523285,0.007476397790014744,0.010278603062033653,-0.0325617752969265,0.029940035194158554,-0.021861383691430092,0.011147726327180862,-0.05625196546316147,-0.03077073022723198,-0.004382997751235962,0.0003389907069504261,-0.035520292818546295,-0.010975462384521961,0.08541863411664963,-0.052067648619413376,-0.001047674915753305,-0.05594976618885994,0.04909515753388405,0.067121222615242,0.011402629315853119,0.04242519289255142,0.02011832222342491,-0.004098480101674795,0.052258897572755814,-0.016297444701194763,-0.06754513084888458,0.023457523435354233,0.05841477960348129,-0.026846040040254593,-0.035667501389980316,0.010123753920197487,0.0069099003449082375,-0.029674440622329712,0.014593968167901039,0.07165151834487915,0.025835206732153893,-0.011803893372416496,-0.012498232536017895,0.05983291193842888,0.06274180114269257,-0.06721752882003784,-0.010548987425863743,-0.013017448596656322,0.034876205027103424,0.02873416244983673,-0.02516097202897072,-0.0014304544311016798,0.056899506598711014,-0.009347980841994286,0.036542076617479324,0.016536472365260124,-0.015380826778709888,-0.03021790087223053,0.03130219504237175,-0.035151418298482895,-0.0654471218585968,-0.04050343483686447,-0.020665938034653664,-0.03277066349983215,0.07369273155927658,0.08488552272319794,0.023032117635011673,0.00757940486073494,0.002601627493277192,0.035372454673051834,-0.029473567381501198,-0.02761208452284336,-0.042505670338869095,-0.047083862125873566,-0.012523749843239784,-0.056818388402462006,-0.08521527051925659,0.004005389753729105,-0.060056477785110474,0.03197687864303589,-0.03592272102832794,-0.0007816387224011123,-0.02912224270403385,0.05513034015893936,-0.04669923335313797,-0.03711932525038719,0.011661117896437645,-0.044330764561891556,-0.029388492926955223,-0.008580941706895828,0.011350098066031933,0.03564431518316269,-0.016597818583250046,0.004215057473629713,-0.036834459751844406,0.08435559272766113,0.0042327577248215675,0.02192428521811962,-0.037508152425289154,-0.09036993235349655,-0.036804042756557465,0.032685212790966034,-0.058550525456666946,-0.08918490260839462,-0.06844539195299149,0.010464591905474663,-0.06064264848828316,-0.04443079233169556,0.06467925012111664,-0.05098845437169075,0.007776207290589809,-0.0170863289386034,0.004083509556949139,0.09140977263450623,-0.028327662497758865,-0.07538287341594696,0.014213179238140583,0.05596836656332016,0.011812997981905937,0.061857230961322784,-0.005378378555178642,-0.03287465125322342,-0.043888021260499954,0.02087577059864998,-0.0835483968257904,0.06473991274833679,-0.013715587556362152,-0.03351328894495964,0.07504716515541077,-0.008031479083001614,-0.04755360260605812,0.039198555052280426,-0.030158769339323044,-0.02639126405119896,-0.016098735854029655,0.029725223779678345,0.06068120524287224,-0.013175073079764843,0.02658991515636444,-0.05812617018818855,-0.061317287385463715,-0.06554119288921356,-0.04980670288205147,0.04177933931350708,0.0032579549588263035,-0.025568515062332153,0.02411748841404915,-0.0017535684164613485,0.06336157023906708,-0.020081518217921257,0.05148838087916374,0.022697683423757553,0.006226695142686367,-0.0773644968867302,0.05441291257739067,0.017135657370090485,-0.007556232623755932,0.033733807504177094,-0.05437687039375305,-0.02504010871052742,0.07089444994926453,0.05829750373959541,-0.0076222531497478485,0.03216250613331795,-0.058514367789030075,0.021494338288903236,0.03895822539925575,-0.052240900695323944,0.02901795133948326,-0.015422575175762177,0.006819483824074268,-0.013761693611741066,0.05917868763208389,-0.019993670284748077,0.022993508726358414,-0.020795298740267754,0.056578267365694046,0.027519632130861282,0.07108168303966522,0.02167927473783493,0.09114327281713486,0.05330450087785721,0.033099785447120667,0.004122377838939428,0.001315730856731534,0.013065489009022713,0.061562709510326385,0.004813117440789938,-0.012620612978935242,0.03037753328680992,0.02740618586540222,-0.02235495112836361,-0.0020802186336368322,0.07730991393327713,0.03907452151179314,-0.00407789321616292,0.029810506850481033,0.05427480489015579,0.058908700942993164,-0.020838066935539246,-0.047193121165037155,-0.04020451754331589,0.01506447046995163,-0.05021398141980171,0.02608345076441765,0.03789808973670006,0.04593539610505104,-0.06329730898141861,0.08017909526824951,0.041018854826688766,0.035958945751190186,0.009474771097302437,-0.031129667535424232,-0.018322495743632317,0.01624678447842598,0.05384780094027519,0.06383757293224335,0.007005183957517147,-0.0048244115896523,0.06637749820947647,0.04319215565919876,-0.03847639635205269,0.009789414703845978,-0.000941229984164238,-0.002595365745946765,-0.08136449009180069,0.0588519461452961,0.0003504791238810867,0.01957676373422146,-0.023576755076646805,0.09173990786075592,0.06118880957365036,-0.036302872002124786,0.08206804096698761,-0.006034316960722208,-0.021146336570382118,-0.027033785358071327,-0.0596185103058815,0.042615994811058044,0.06797861307859421,0.010065170004963875,0.005552561022341251,0.009408519603312016,-0.012371938675642014,-0.06027805060148239,-0.051686398684978485,0.000588930502999574,-0.0507376492023468,0.014489087276160717,-0.043439920991659164,0.04073692485690117,0.05736250802874565,-0.08001196384429932,0.01908869668841362,6.51920709060505e-05,0.005171571392565966,-0.08805643022060394,0.0880369246006012,0.01398493628948927,-0.07747748494148254,0.061451543122529984,0.0678844153881073,0.029452964663505554,-0.009743447415530682,-0.03205358609557152,0.011854281648993492,-0.008639532141387463,-0.05372897535562515,-0.04309209808707237,-0.002407145919278264,-0.00027515258989296854,-0.009527213871479034,0.022961828857660294,-0.023196157068014145,0.055854618549346924,-0.04094250127673149,-0.04508292302489281,-0.040802277624607086,0.03313494846224785,-0.08826296776533127,-0.09382843971252441,0.017362717539072037,0.03081408701837063,-0.007727602031081915,-0.021487314254045486,0.025636544451117516,-0.0038652874063700438,-0.011889034882187843,0.0048310295678675175,0.0838252380490303,0.04049297794699669,0.04787492752075195,0.03578571230173111,-0.02496848627924919,-0.04769182577729225,0.06602805852890015,-0.005311802960932255,0.0024267579428851604,-0.029882479459047318,-0.011955641210079193,0.05461842939257622,0.07399870455265045,-0.0008534166845493019,-0.010905999690294266,-0.022218896076083183,-0.061952877789735794,-0.015046988613903522,-0.04617859050631523,0.03593164682388306,-0.07917268574237823,-0.021995991468429565,-0.009594963863492012,-0.04305237904191017,-0.02646610699594021,-0.008983679115772247,0.008239640854299068,-0.048153914511203766,-0.0051175691187381744,-0.0010075962636619806,-0.026397768408060074,-0.07839163392782211,0.004418018274009228,-0.008012861013412476,-0.010468214750289917,-0.043248992413282394,0.0006383643485605717,-0.05594456195831299,-0.04108108952641487,0.046782415360212326,-0.014103500172495842,-0.0046403491869568825,0.03464394062757492,0.03299723193049431,0.020540231838822365,-0.027845000848174095,0.0234609916806221,-0.0170122180134058,0.04524112865328789,0.046226441860198975,-0.02631528303027153,0.024097848683595657,-0.013660827651619911,0.03371977433562279,0.006700512021780014,0.0013358378782868385,0.0767727941274643,0.07191251218318939,0.020247256383299828,0.05574972555041313,-0.011387698352336884,0.029730122536420822,-0.000776877801399678,-0.05431152507662773,0.05760945752263069,0.02212427370250225,0.05955181643366814,-0.04336812347173691,-0.04447229951620102,-0.043582603335380554,-0.02461427077651024,0.02501104772090912,-0.01149641815572977,-0.01426369696855545,-0.034187931567430496,-0.013153878971934319,-0.06815832108259201,0.027227964252233505,-0.0764271691441536,-0.004653959069401026,-0.003142834408208728,-0.035735517740249634,-0.034573301672935486,-0.05681722238659859,-0.026498109102249146,-0.0728045254945755,0.03745449706912041,-0.013184579089283943,0.0012320458190515637,0.018709544092416763,0.006022469140589237,-0.027825552970170975,0.09056057780981064,0.040923476219177246,-0.026119399815797806,-0.057905904948711395,0.010429026558995247,-0.0009082397446036339,0.07354345917701721,-0.013287904672324657,-0.05988239496946335,0.0754726380109787,0.010769153945147991,-0.023807110264897346,0.01905994862318039,0.034956157207489014,0.031993381679058075,-0.04340701922774315,-0.02005697414278984,0.005111075006425381,0.041122712194919586,-0.04090560972690582,0.0234486423432827,-0.046020787209272385,-0.05814697593450546,-0.021707620471715927,-0.020482579246163368,0.036980610340833664,0.003919320181012154,0.066433385014534,0.051609765738248825,0.05550074577331543,0.034350909292697906,0.0011899909004569054,-0.040048182010650635,-0.046907395124435425,0.01752081885933876,0.03962697461247444,-0.07236263900995255,0.08036952465772629,0.0022493083961308002,0.0647227019071579,0.008407844230532646,0.020252469927072525,-0.05135288089513779,0.006758877541869879,-0.03304634988307953,-0.005306708160787821,0.011985236778855324,0.04489394277334213,0.048024967312812805,-0.023380905389785767,-0.07365718483924866,-0.03100287914276123,0.04324189946055412,0.03063681162893772,-0.03203410282731056,0.005985957570374012,-0.03705192357301712,-0.0447036474943161,-0.061236001551151276,0.007396835833787918,0.054495036602020264,0.016954878345131874,-0.01283175963908434,0.04870310053229332,-0.03463895991444588,0.010142331942915916,0.032857734709978104,-0.026770662516355515,-0.03240280598402023,0.01574852131307125,-0.022407907992601395,0.03207394480705261,-0.02502875030040741,-0.03295779228210449,-0.007341776974499226,0.011080204509198666,-0.013546401634812355,0.017917579039931297,-0.004406081046909094,0.009093438275158405,-0.05520964786410332,0.04679524153470993,-0.08405956625938416,-0.010333923622965813,0.017157675698399544,-0.01219388097524643,0.0015354009810835123,-0.05884547159075737,-0.010187391191720963,-0.01247185654938221,-0.03921004757285118,0.007625791244208813,-0.002481254981830716,-0.054249055683612823,-0.03705037385225296,0.019006580114364624,-0.011740349233150482,-0.02588941715657711,-0.00617075664922595,0.07857602089643478,-0.055359531193971634,0.005147873889654875,0.0020453627221286297,-0.027931641787290573,-0.011657794937491417,-0.028649359941482544,0.0037380922585725784,-0.013015933334827423,-0.03552233800292015,-0.05654655769467354,0.006930886767804623,-0.036130692809820175,-0.0008736198651604354,0.004483822267502546,0.031499892473220825,0.0374797098338604,0.02418634109199047,0.02209874801337719,-0.008016861043870449,0.005653629545122385,0.007722880691289902,-0.028459960594773293,-0.08409088104963303,0.029135465621948242,0.005793717689812183,0.014792648144066334,0.033016711473464966,-0.07452782988548279,0.020360611379146576,-0.020421404391527176,-0.022885704413056374,-0.012348107993602753,-0.03476759418845177,0.000823486247099936,0.07978589832782745,-0.03888893872499466,-0.019064702093601227,-0.02133738249540329,0.08272112160921097,0.03887263685464859,0.014851902611553669,0.024116596207022667,-0.003977207001298666,0.06497915089130402,0.004451323300600052,0.014581042341887951,-0.057753074914216995,-0.06989087164402008,0.00913209281861782,-0.0011321178171783686,0.04625365138053894,-0.047197937965393066,0.04659202694892883,0.0002323432854609564,-0.011887412518262863,0.028100525960326195,-0.01948714628815651,0.035741016268730164,0.090498186647892,-0.00015253588207997382,-0.030843492597341537,-0.06228543072938919,-0.005695775151252747,0.04918011650443077,0.03354855626821518,0.007708120159804821,-0.0762191191315651,-0.04130230098962784,-0.03725532442331314,-0.006713300012052059,0.0015256196493282914,0.015372069552540779,0.03141205757856369,0.08888930082321167,0.07362297922372818,0.013353493995964527,-0.06140381842851639,0.018022408708930016,0.04592737928032875,-0.00944991409778595,-0.07484553009271622,0.025175875052809715,0.0038006207905709743,0.07020984590053558,0.05727091431617737,0.053230054676532745,0.028435830026865005,0.05994810536503792,0.09526611864566803,-0.020512212067842484,-0.016061794012784958,-0.024874037131667137,-0.03173317387700081,-0.026288708671927452,0.0044376784935593605,0.07302980870008469,-0.02210945263504982,-0.05152762681245804,-0.03644293174147606,-0.09598696231842041,-0.039299774914979935,0.04071388021111488,-0.07188046723604202,-0.049070876091718674,-0.03227788582444191,0.04752451926469803,-0.046931371092796326,0.0118964072316885,-0.03783697634935379,0.026167038828134537,0.05933287739753723,0.09649490565061569,-0.006632748991250992,-0.03775971010327339,0.016814760863780975,0.03875134512782097,0.04051726683974266,0.05456702038645744,0.0751412957906723,-0.02678104303777218,0.08449876308441162,-0.05109408497810364,0.029782146215438843,0.08729308843612671,0.006397535093128681,-0.02031007781624794,0.006213460583239794,-0.07081739604473114,0.029129421338438988,0.07342513650655746,0.04368900880217552,-0.026229780167341232,-0.008449981920421124,0.02611643448472023,-0.06350867450237274,-0.047237806022167206,0.07260550558567047,-0.005713272374123335,0.01818472519516945,-0.06433191150426865,0.004922095686197281,0.017590418457984924,0.01684364303946495,-0.012658973224461079,0.010370846837759018,0.012757840566337109,0.008306894451379776,-0.010605414398014545,-0.06006863713264465,0.01301419734954834,0.07849748432636261,0.034483544528484344,-0.04880520701408386,-0.07662375271320343,0.04135125130414963,-0.0006424016901291907,-0.03179682418704033,0.05827407166361809,-0.005348862614482641,-0.056158922612667084,-8.714637078810483e-05,0.0220190342515707,0.007127740420401096,-0.010226679965853691,-0.01414843462407589,-0.02623686194419861,-0.0056340666487813,-0.011265665292739868,0.07952792942523956,-0.08308202028274536,-0.01945779286324978,-0.03839405998587608,0.02763487957417965,-0.06718642264604568,-0.036171942949295044,-0.07262836396694183,0.03603033348917961,0.019112447276711464,-0.04250101372599602,0.029651204124093056,-0.008417620323598385,0.007910637184977531,0.007057008799165487,0.05446816608309746,0.063902847468853,-0.0690511018037796,-0.027896443381905556,-0.04111103340983391,0.054003141820430756,-0.01984061859548092,0.003862197743728757,-0.049164582043886185,0.0047580464743077755,0.03489037603139877,0.029280681163072586,0.030576398596167564,-0.016027813777327538,-0.06497528403997421,0.0171063169836998,0.04033965244889259,0.00019749677448999137,-0.019907498732209206,-0.06839841604232788,-0.03834397345781326,0.060854338109493256,-0.06359081715345383,-0.0008670237148180604,-0.00485277222469449,0.028963694348931313,-0.020429078489542007,0.011846761219203472,-0.002932694274932146,-0.02701680362224579,-0.07347942143678665,-0.016765478998422623,-0.04079725593328476,0.03014085814356804,0.005819321144372225,0.012384931556880474,-0.04663221538066864,0.0071386536583304405,-0.0673675686120987,0.017002049833536148,0.07031121850013733,-0.06250076740980148,-0.056629568338394165,-0.07505907863378525,0.011617820709943771,0.03922540321946144,-0.0008710299734957516,0.0619591549038887,0.009500859305262566,-0.037936944514513016,-0.06169135496020317,0.007468873169273138,0.08880603313446045,-0.04938593879342079,-0.021023984998464584,0.0060628121718764305,0.021645065397024155,0.04924891144037247,-0.07099856436252594,-0.004240872338414192,-0.04260822385549545,-0.05199870467185974,-0.07446329295635223,-0.06502941250801086,0.022233663126826286,0.006488995160907507,-0.0008093452779576182,0.06585543602705002,-0.09676334261894226,-0.026749592274427414,0.017489789053797722,0.018994715064764023,-0.05547617748379707,-0.006202187389135361,-0.0235920287668705,-0.022217385470867157,-0.0652763620018959,-0.04382162541151047,-0.07125009596347809,-0.05816138908267021,0.016368040814995766,-0.015689872205257416,-0.0591483935713768,-0.030656764283776283,-0.06878288835287094,0.07194094359874725,0.037067972123622894,0.02514440380036831,0.027384068816900253,-0.06083355471491814,0.007953128777444363,-0.05119343847036362,0.03072807565331459,-0.026034420356154442,0.01925581321120262,-0.0015877647092565894,-0.032726746052503586,0.062113285064697266,0.028300413861870766,0.03495616093277931,0.009012578055262566,0.04528246074914932,-0.06689327210187912,-0.038714054971933365,0.0034595984034240246,0.0236591175198555,-0.009745008312165737,-0.030033746734261513,-0.026643017306923866,0.01734333299100399,-0.01937970332801342,0.014262872748076916,-0.011962431482970715,-0.0166944433003664,0.030736839398741722,0.020012395456433296,-0.028553610667586327,0.07331237941980362,-0.017449703067541122,0.01978522166609764,-0.09406305849552155,-0.015261168591678143,0.05525904893875122,0.007436234503984451,-0.018060149624943733,0.028610926121473312,0.017185453325510025,0.016597943380475044,-0.03137087821960449,0.07068880647420883,0.055762987583875656,-0.04563364014029503,0.029973044991493225,0.08163782954216003,-0.030767163261771202,0.06799950450658798,-0.04026317223906517,0.033892106264829636,0.00619337847456336,0.018859300762414932,0.03185661882162094,-0.07153473794460297,0.024232475087046623,-0.05610175058245659,-0.030616268515586853,0.0012978086015209556,-0.035217832773923874,-0.019139036536216736,-0.0018715914338827133,0.04994982108473778,0.014619043096899986,0.06223567575216293,0.017577972263097763,0.029184812679886818,-0.015119309537112713,0.008027395233511925,-0.06939999759197235,-0.04520334675908089,-0.020507104694843292,-0.008809026330709457,-0.07778636366128922,-0.03819163516163826,-0.05417262762784958,0.03463379293680191,-0.013879651203751564,-0.0342814065515995,-0.04208812862634659,-0.06809122860431671,-0.05386875197291374,0.028996113687753677,0.00577211519703269,-0.03927771747112274,0.0007113144965842366,0.030352283269166946,0.01727079227566719,0.018436189740896225,0.023968810215592384,-0.06516098976135254,0.05260130763053894,0.006057941820472479,-0.015367865562438965,0.008909625932574272,0.006831297185271978,0.0776420384645462,-0.009328866377472878,-0.06726178526878357,0.011126771569252014,0.024348152801394463,-0.022607529535889626,0.048698361963033676,-0.0052941907197237015,0.01706560328602791,0.026353854686021805,-0.04331936687231064,-0.06488749384880066,-0.013609342277050018,0.010340414941310883,0.05712791159749031,-0.04436207190155983,-0.09362544119358063,0.047702569514513016,0.0008143007871694863,0.03247029706835747,0.029230186715722084,0.04693184047937393,-0.010866569355130196,0.021254466846585274,-0.025729214772582054,0.04304204881191254,0.043862663209438324,-0.004535585176199675,-0.05882099270820618,0.04680221155285835,-0.044040292501449585,-0.026145121082663536,0.006455141119658947,-0.011127500794827938,0.03220466524362564,-0.02847984991967678,0.041091300547122955,-0.054965607821941376,0.036441028118133545,-0.02300427481532097,-0.06420069932937622,0.041536908596754074,-0.037926651537418365,0.0576435811817646,0.01632595807313919,-0.045645322650671005,0.026012355461716652,0.01341524999588728,-0.035461001098155975,0.0310682263225317,-0.0477600060403347,0.003295574802905321,0.06427444517612457,0.04580281302332878,0.06531453877687454,0.04601026698946953,-0.016269272193312645,-0.007315716240555048,-0.004016797989606857,-0.02539879083633423,0.08407259732484818,-0.018762152642011642,0.03716165944933891,0.03153873607516289,0.029060179367661476,-0.022074125707149506,-0.045449331402778625,-0.034936439245939255,0.011458820663392544,0.03838885575532913,-0.01930076628923416,-0.06684626638889313,0.03508465737104416,0.00520465848967433,0.010303775779902935,-0.01710696332156658,-0.004104744177311659,0.05543794110417366,0.09864344447851181,0.045286573469638824,-0.027223344892263412,0.036093927919864655,0.07928363978862762,0.016017410904169083,-0.0055368030443787575,0.020201511681079865,0.07048668712377548,-0.0019495345186442137,-0.003081031609326601,0.05357249826192856,0.014951382763683796,0.07755162566900253,0.024411261081695557,0.025062914937734604,-0.05250983312726021,0.059123385697603226,0.04043213278055191,-0.050319600850343704,0.08133582025766373,0.013821592554450035,0.015513521619141102,0.052901484072208405,-0.030239414423704147,-0.008061491884291172,0.05684138089418411,-0.029987331479787827,-0.057406555861234665,-0.04291486367583275,0.053972672671079636,-0.07043219357728958,-0.017984943464398384,0.08870796859264374,0.016033420339226723,-0.03269370645284653,0.008201289921998978,-0.0809343010187149,-0.06050081178545952,0.04239002242684364,0.06947974860668182,0.04089022055268288,0.014257371425628662,0.03512974828481674,0.017909256741404533,-0.025812223553657532,0.0068567609414458275,-0.020579222589731216,-0.01479225791990757,0.06786181032657623,0.0021691923029720783,-0.006764558609575033,-0.024586427956819534,0.05055791139602661,-0.07364065945148468,0.0016622201073914766,-0.07757449895143509,0.01710490509867668,0.047251131385564804,0.0212135948240757,0.0077247098088264465,-0.004699846729636192,-0.0756431370973587,-0.006505941040813923,-0.0508054718375206,-0.03115404210984707,0.017992090433835983,-0.04185601323843002,-0.04651728644967079,0.04847332090139389,-0.04604918509721756,0.06895414739847183,0.08265794068574905,0.0025176783092319965,-0.02168985828757286,-0.030417555943131447,-0.0174789447337389,0.06875057518482208,0.016183163970708847,0.005926619749516249,0.006848279386758804,-0.0461391881108284,-0.03374100103974342,-0.009081186726689339,-0.024383343756198883,0.002967625856399536,-0.0007578229415230453,0.05493995547294617,0.07636906206607819,-0.03921091929078102,-0.03695680573582649,0.05233318358659744,0.00458186212927103,-0.013545853085815907,-0.046103641390800476,-0.009771527722477913,-0.07135245203971863,0.02242978848516941,0.012942497618496418,-0.023806415498256683,-0.004449102096259594,0.010467879474163055,0.046633265912532806,-0.048281289637088776,-0.04284573346376419,0.011908339336514473,-0.0539742186665535,0.009027872234582901,0.024691415950655937,-0.041276462376117706,0.05647817254066467,-0.0556618869304657,0.059689961373806,0.007016160525381565,0.06037250906229019,0.044667214155197144,-0.08636081218719482,0.04426070675253868,0.0373447984457016,-0.030792299658060074,-0.035604070872068405,0.09046142548322678,0.01029908750206232,0.010571877472102642,-0.05541074275970459,0.0026971101760864258,-0.050764746963977814,-0.005780008155852556,0.03696371242403984,-0.017369594424962997,-0.047256916761398315,0.0053109340369701385,-0.012424894608557224,0.06600964069366455,-0.04675808921456337,0.0642634704709053,0.0038221064023673534,0.04512129724025726,0.015882564708590508,-0.006492836866527796,-0.0656372681260109,0.03720264509320259,0.038135528564453125,-0.06713687628507614,0.08733363449573517,0.003546096384525299,0.00638154149055481,-0.035418346524238586,-0.0602375864982605,0.06358884274959564,0.001644792384468019,0.07277056574821472,-0.06026977300643921,0.07650716602802277,-0.05742830038070679,-0.04397042840719223,0.0773218646645546,0.023428723216056824,0.06340838968753815,-0.006622180342674255,-0.010076400823891163,-0.029873782768845558,0.032279130071401596,-0.03694605082273483,-0.056576378643512726,-0.05388082191348076,-0.002257966436445713,-0.006542331073433161,0.027458300814032555,0.010319981724023819,0.016388453543186188,-0.01696515455842018,-0.008874929510056973,-0.013009168207645416,-0.025488168001174927,0.05276637151837349,0.011905877850949764,0.07361380010843277,0.051424600183963776,0.015452764928340912,0.04984908923506737,0.009888607077300549,0.05127082020044327,0.0008432645117864013,-0.04060627520084381,-0.034107767045497894,0.006194305140525103,0.047868870198726654,-0.03686805069446564,0.024595243856310844,-0.018939504399895668,0.022001879289746284,0.007204419933259487,0.038240645080804825,-0.015757400542497635,-0.0052216434851288795,-0.007714244071394205,-0.06838858872652054,0.06259500235319138,-0.06089070439338684,-0.013430523686110973,0.05974843353033066,-0.015660006552934647,0.049287449568510056,-0.08539392799139023,0.017978964373469353,0.08310510963201523,-0.008761911652982235,0.021613946184515953,0.022446446120738983,-0.04938305914402008,0.0374964140355587,0.014419359154999256,-0.042776886373758316,0.06093083694577217,0.07217966020107269,0.05181659385561943,-0.04715832695364952,-0.0374564528465271,0.06609098613262177,0.04612116515636444,0.009184075519442558,-0.011616152711212635,-0.043372742831707,-0.044602520763874054,-0.07792839407920837,-0.028024226427078247,-0.08157746493816376,-0.03684478625655174,-0.03383138030767441,-0.08907147496938705,0.05718003958463669,0.010695764794945717,-0.07305330038070679,0.045733340084552765,-0.03320234641432762,-0.056562554091215134,-0.015081463381648064,-0.022722261026501656,0.014098900370299816,-0.024415822699666023,0.0017585551831871271,-0.06358413398265839,-0.002629020484164357,0.003941772505640984,0.021684961393475533,-0.026013385504484177,-0.05401923507452011,0.001284439000301063,0.025646790862083435,0.06063202768564224,0.049376003444194794,0.05013202875852585,-0.014603274874389172,-0.004235776606947184,0.04926132410764694,0.044730912894010544,-0.028655514121055603,-0.04024399071931839,-0.016788801178336143,-0.021806079894304276,0.008648610673844814,-0.024180805310606956,0.0737098753452301,-0.040018800646066666,0.03612709790468216,-0.06706278771162033,0.0012982622720301151,0.044254034757614136,0.011520459316670895,0.0031270019244402647,-0.0003099616733379662,-0.034518301486968994,-0.05765469744801521,-0.019676342606544495,0.0031452197581529617,-0.017635855823755264,-0.08160881698131561,-0.023320375010371208,-0.04349089041352272,-0.061872631311416626,0.06912045180797577,-0.0782480463385582,0.0027246209792792797,-0.01921631209552288,-0.01560143195092678,0.03732382506132126,0.0058761658146977425,0.018176332116127014,0.014310881495475769,0.0029689776711165905,-0.03582732751965523,-0.01951003447175026,0.07609148323535919,-0.013678628019988537,0.0730600506067276,-0.03953211009502411,-0.032335881143808365,-0.02726786769926548,-0.05815517157316208,0.02007199265062809,-0.051299236714839935,0.021331142634153366,0.007518319878727198,0.021892135962843895,-0.0631231814622879,0.00031213415786623955,-0.008473185822367668,0.004340010695159435,-0.0010386212961748242,0.005496281664818525,-0.011187675409018993,-0.029200339689850807,0.004544795490801334,-0.06526541709899902,0.007508169859647751,0.044550102204084396,-0.04475901648402214,0.06818784773349762,0.03953903913497925,0.003177531063556671,-0.036713697016239166,-0.025098193436861038,0.006657445337623358,-0.00412397226318717,0.010182113386690617,-0.037398215383291245,-0.026355048641562462,0.03998103737831116,-0.021719129756093025,0.0812550038099289,0.0027747941203415394,0.001402924070134759,-0.013472301885485649,0.07849996536970139,0.021053675562143326,-0.047362420707941055,0.04845481738448143,0.0018500527366995811,0.07668647915124893,-0.007754139602184296,-0.015550173819065094,0.035064857453107834,-0.032765574753284454,-0.00020832922018598765,0.0803472027182579,-0.023436851799488068,0.021534277126193047,0.010536237619817257,0.01283459085971117,0.07235545665025711,0.023953737691044807,-0.008299179375171661,0.04347372427582741,-0.06742726266384125,0.016154352575540543,0.08184715360403061,0.04880346730351448,-0.04854732006788254,-0.004666829947382212,0.045545194298028946,0.04001399129629135,-0.008774664252996445,0.013566898182034492,-0.02665548585355282,0.01227260660380125,-0.04036540538072586,0.028782550245523453,-0.02570880390703678,-0.0238813366740942,0.07310952246189117,-0.0007531453156843781,-0.07189828902482986,0.05930338427424431,0.07819832861423492,-0.01484891027212143,-0.03923454135656357,-0.037845559418201447,0.007246845401823521,-0.09379918873310089,-0.07245984673500061,-0.03209928423166275,0.0031974785961210728,-0.03956236690282822,0.03274454176425934,0.030096113681793213,-0.03199860081076622,0.02323739230632782,-0.007277062628418207,0.033441755920648575,-0.05536419898271561,0.012242958880960941,0.03425202891230583,-0.08225977420806885,-0.04024386778473854,0.059383444488048553,0.0028283209539949894,0.02056756429374218,-0.023029310628771782,0.06924498826265335,-0.0419902428984642,-0.034059882164001465,0.054075103253126144,-0.00034906380460597575,0.023561369627714157,0.00897486787289381,-0.023712098598480225,-0.045578695833683014,0.0747448205947876,0.01059219054877758,0.07425940036773682,-0.018114296719431877,0.022662479430437088,0.006898301653563976,-0.0022176436614245176,-0.01462562382221222,-0.03799958527088165,0.02422678843140602,0.019983230158686638,-0.05654112622141838,0.022378021851181984,-0.044666923582553864,-0.0057939449325203896,-0.004450163803994656,0.011657090857625008,0.002573310863226652,0.00592933502048254,-0.09248276054859161,-0.06617249548435211,0.004875083453953266,0.07879352569580078,0.07369876652956009,-0.08398742228746414,-0.0423574335873127,-0.011886977590620518,-0.01607382856309414,0.09139756858348846,0.05123782157897949,0.0002166069607483223,0.016263514757156372,0.033256493508815765,0.08657671511173248,0.04120098054409027,-0.042401447892189026,0.011671582236886024,-0.04407171159982681,0.03055081143975258,0.006130450405180454,-0.010774954222142696,-0.05001574009656906,-0.06700450927019119,0.03077663853764534,-0.02415451593697071,0.03386219963431358,-0.03944190591573715,-0.025083456188440323,-0.013041479513049126,-0.016148772090673447,0.009942581877112389,-0.0029143074061721563,-0.013623727485537529,0.07481467723846436,0.016722742468118668,-0.013667305931448936,0.003327463287860155,-0.01392415165901184,-0.010344786569476128,0.00999478343874216,0.009089259430766106,-0.0066690086387097836,-0.03667592257261276,-0.0458955392241478,0.01614239625632763,-0.06431086361408234,-0.0011205226182937622,-0.024198904633522034,0.028917113319039345,-0.01735825464129448,0.025363367050886154,-0.041773002594709396,0.06037651374936104,-0.008563866838812828,0.008569877594709396,-0.07005737721920013,0.004539099521934986,-0.05730074644088745,-0.012035397812724113,0.06794698536396027,-0.0022571166045963764,-0.008383465930819511,0.04258042201399803,0.011275896802544594,-0.08220282196998596,0.0004908483242616057,-0.04552675783634186,0.07233230769634247,0.02105308510363102,0.005153552629053593,0.052183281630277634,-0.025512024760246277,0.0068945870734751225,-0.01834407076239586,0.02615266479551792,0.04698517918586731,0.04012200981378555,0.01268679928034544,-0.07352197170257568,0.01116279698908329,-0.00834152102470398,0.05070924758911133,0.0314377062022686,0.02008422091603279,-0.0369604118168354,0.013698920607566833,0.018728507682681084,0.02137262001633644,0.02419600822031498,0.002253633690997958,0.04042930528521538,0.03973216563463211,0.037908267229795456,-0.0033202103804796934,0.015618177130818367,0.04466141387820244,-0.01945045217871666,-0.023179326206445694,0.03656398504972458,0.05560215562582016,0.01763218268752098,0.031245296820998192,-0.05589386075735092,-0.02913200855255127,-0.0030128161888569593,0.030746232718229294,-0.05779148265719414,0.05930362269282341,0.017722997814416885,-0.012849573977291584,0.0033960859291255474,-0.03088480606675148,-0.011414727196097374,-0.02424202673137188,-0.07006122171878815,-0.04074760898947716,0.020858515053987503,-0.04152754694223404,-0.010835627093911171,0.011481055058538914,0.032200735062360764,0.06623267382383347,-0.031427253037691116,-0.06576023250818253,-0.0415709987282753,-0.037092335522174835,0.04998040571808815,-0.041302137076854706,-0.05344660207629204,0.04805770516395569,0.0043624951504170895,0.023775598034262657,-0.005990239791572094,-0.05527008697390556,0.015623274259269238,-0.04837659001350403,0.057485006749629974,0.027331838384270668,-0.03188944607973099,-0.0003699589578900486,0.017093472182750702,-0.009183632209897041,-0.017201293259859085,0.0162868183106184,-0.08609181642532349,0.03226413577795029,0.027962451800704002,0.012549283914268017,-0.02532261610031128,0.02162192203104496,0.025944415479898453,-0.001062482362613082,0.020218556746840477,-0.0022987830452620983,0.069235660135746,-0.08095042407512665,0.025868777185678482,0.032591838389635086,0.052918367087841034,0.014902462251484394,-0.07899142056703568,-0.032797545194625854,0.07689317315816879,0.024516519159078598,0.025787334889173508,0.0454477034509182,-0.03841712325811386,0.016877029091119766,0.017293045297265053,0.020540691912174225,0.002924812026321888,0.01487741619348526,0.04335473105311394,0.027857020497322083,0.02642330899834633,0.023640751838684082,-0.009490132331848145,-0.046538323163986206,0.01794041320681572,-0.008238320238888264,-0.000890238385181874,-0.02669062279164791,0.006803532596677542,0.019555408507585526,-0.02703123725950718,0.041764996945858,-0.028895923867821693,-0.01867477409541607,0.014332125894725323,0.01869017630815506,0.0037986841052770615,-0.03386764973402023,0.04838044196367264,-0.02511787973344326,0.04827796667814255,-0.08228309452533722,0.0174336526542902,0.07421828806400299,-0.06423981487751007,-0.05651587247848511,-0.009002173319458961,0.04858783632516861,0.01928480714559555,-0.059227317571640015,0.034770600497722626,0.0029635836835950613,-0.006959178484976292,0.035795487463474274,-0.04014737904071808,-0.014603803865611553,-0.04273068532347679,-0.06174777075648308,0.014706691727042198,0.030539128929376602,0.006656480021774769,-0.00032902657403610647,-0.0526370033621788,0.05398108810186386,0.024803930893540382,0.03242848813533783,0.056375473737716675,-0.040727175772190094,-0.03862067312002182,-0.05779578536748886,0.0004825809446629137,0.04483657330274582,0.026303524151444435,-0.060036011040210724,-0.011747458018362522,0.0009123878553509712,0.09701983630657196,0.04465549811720848,-0.023198893293738365,-0.012721782550215721,0.06206577271223068,0.04741900414228439,0.03456004336476326,-0.0033855452202260494,-0.0161940548568964,0.04450676590204239,0.013088551349937916,-0.017438650131225586,0.07404105365276337,-0.06613502651453018,0.05018714815378189,0.007208232767879963,0.0009515272686257958,-0.008372703567147255,-0.06260541081428528,-0.016463367268443108,-0.08601637184619904,0.03680998086929321,-0.0026357383467257023,0.0816195160150528,-0.0453365258872509,0.03153779357671738,-0.058041125535964966,-0.03213968127965927,-0.0025899827014654875,-0.0324259027838707,-0.014874711632728577,0.030320629477500916,0.0801578015089035,-0.051461488008499146,-0.003500394057482481,-0.0028205332346260548,0.02840367890894413,0.08035191148519516,0.024935318157076836,-0.021051524206995964,0.041075851768255234,-0.02150629833340645,0.006889131851494312,0.08784391731023788,-0.021586459130048752,-0.013559075072407722,0.04512469470500946,0.06961798667907715,0.07566890120506287,-0.021594950929284096,-0.0022535123862326145,0.044285356998443604,0.032544564455747604,-0.0009244264801964164,-0.03138386458158493,0.0496935099363327,0.007237270474433899,-0.006219910457730293,-0.04797333851456642,0.04495751112699509,0.024271581321954727,-0.026621827855706215,-0.008437303826212883,-0.0010962431551888585,0.03602008894085884,0.029893090948462486,0.026146847754716873,-0.016877982765436172,-0.019957471638917923,-0.0007093291496858001,-0.030215924605727196,-0.030496230348944664,0.017286673188209534,0.03263681381940842,0.0038661458529531956,-0.014762419275939465,-0.028248200193047523,0.026854973286390305,0.017819344997406006,-0.014817625284194946,0.06576093286275864,0.030793175101280212,-0.023064497858285904,0.00534797552973032,0.012445082888007164,-0.028135646134614944,-0.04872480779886246,0.002804828342050314,-0.00722100306302309,0.03943917155265808,-0.02362298220396042,-0.01248327735811472,-0.03474370017647743,0.08088290691375732,0.01569238491356373,0.025590786710381508,-0.010444019921123981,-0.09576602280139923,0.0164300799369812,-0.06477395445108414,0.0010262837167829275,0.053892940282821655,0.004068511538207531,0.012446490116417408,-0.0687137022614479,0.009995188564062119,-0.04452434927225113,0.035525575280189514,-0.060636043548583984,0.010114985518157482,-0.01844685710966587,0.05763369798660278,0.05002123862504959,0.03587669879198074,0.08201444149017334,0.005478552542626858,-0.06437760591506958,-0.004195967689156532,0.018315033987164497,0.03295731544494629,-0.016314199194312096,0.027466464787721634,0.04218744486570358,-0.025901813060045242,-0.022227693349123,0.044809918850660324,-0.06935638934373856,-0.05731447786092758,-0.025988558307290077,-0.044751860201358795,0.03398701921105385,0.044384635984897614,-0.03879409283399582,0.053646862506866455,0.036412112414836884,-0.02462838590145111,-0.005117946770042181,0.026661399751901627,-0.0011510641779750586,-0.034969765692949295,0.06129167601466179,0.04642590880393982,0.031171277165412903,0.028697963804006577,-0.03064718283712864,0.011896568350493908,-0.02382272109389305,-0.060272686183452606,-0.04092663899064064,0.00890326127409935,-0.049592290073633194,-0.021541103720664978,0.07849541306495667,-0.08316762745380402,-0.08276207000017166,0.09113704413175583,0.06549161672592163,-0.036665499210357666,0.05009733512997627,-0.06873208284378052,-0.06160355731844902,0.01363952923566103,0.015402262099087238,0.058139510452747345,0.0004168643499724567,-0.021256322041153908,-0.033782392740249634,-0.07203800231218338,-0.0004499723145272583,-0.030891355127096176,-0.00423935241997242,-0.024530932307243347,0.022681759670376778,-6.581074558198452e-05,-0.09089745581150055,0.05139599367976189,0.02584691345691681,0.009776895865797997,0.06324924528598785,-0.046481046825647354,-0.005783005617558956,-0.025173107162117958,0.07068367302417755,-0.04456968605518341,0.014599405229091644,-0.06370025128126144,0.009603186510503292,0.00589271355420351,-0.0573904924094677,-0.014508391730487347,-0.030240222811698914,-0.04362531751394272,-0.0012839422561228275,-0.00286349980160594,-0.06031740829348564,0.0010716579854488373,-0.02900613285601139,0.022155089303851128,0.08353443443775177,0.01573789492249489,-0.0017880403902381659,0.002343003638088703,-0.04842989891767502,0.031250979751348495,0.06053075194358826,0.008662587963044643,0.0326346792280674,0.02917858585715294,0.05967327207326889,-0.040526390075683594,-0.019268807023763657,-0.0444101057946682,-0.02152830734848976,-0.024151945486664772,-0.012950236909091473,-0.039194993674755096,-0.04266241937875748,0.07246051728725433,-0.03794213384389877,-0.058068253099918365,-0.017653774470090866,-0.06423823535442352,-0.05339610576629639,0.011574465781450272,-0.009176949970424175,0.03272281587123871,0.013430858962237835,-0.07773544639348984,-0.03773485869169235,0.027274837717413902,-0.027300462126731873,0.04803686589002609,0.054914046078920364,0.026759710162878036,0.0018065894255414605,-0.012501657009124756,0.010797145776450634,0.02801445685327053,-0.027323300018906593,0.07295741140842438,0.04130792245268822,-0.03820011392235756,-0.010061787441372871,0.06563819944858551,0.020569389685988426,-0.023272128775715828,0.062424056231975555,-0.05695250630378723,0.014989602379500866,0.032837189733982086,0.016792912036180496,0.012225529178977013,-0.056170374155044556,-0.049872562289237976,-0.05786348134279251,9.227995906258002e-05,0.0064911143854260445,-0.01866411231458187,-0.03423645347356796,-0.002085136715322733,0.02456333488225937,-0.0036203130148351192,-0.007769818417727947,0.008080931380391121,0.006160121411085129,0.08044491708278656,-0.03898681700229645,0.01780763268470764,-0.08013100922107697,-0.03790032118558884,-0.05284082144498825,0.03571811318397522,0.04645567387342453,0.06541329622268677,0.03141995891928673,-0.08556485176086426,-0.009190991520881653,0.08831693232059479,-0.07052229344844818,-0.0034487091470509768,-0.029102977365255356,0.07608076184988022,-0.036843087524175644,-0.037346482276916504,0.040936004370450974,0.01401297003030777,-0.029223281890153885,0.008739439770579338,0.06224624067544937,0.049225691705942154,-0.05079575255513191,-0.010435154661536217,-0.008688243106007576,-0.013183568604290485,-0.03163878619670868,-0.030264273285865784,0.069663405418396,-0.04284023493528366,-0.007304195314645767,0.0050244503654539585,-0.028491314500570297,-0.016239788383245468,0.030246812850236893,0.014911234378814697,0.00472676707431674,0.010014951229095459,0.006876637693494558,-0.01839628256857395,0.015428116545081139,0.027524147182703018,-0.009499787352979183,0.01358808297663927,0.00230057118460536,0.007327665574848652,0.04170741140842438,0.08522511273622513,-0.04230868071317673,-0.015191475860774517,-0.03580109402537346,-0.0884610190987587,-0.03689177706837654,0.02904398739337921,0.022343644872307777,0.05434614419937134,-0.04697578027844429,-0.04078194499015808,0.0015981646720319986,-0.024543942883610725,0.0302850604057312,-0.04890308529138565,-0.03771480917930603,-0.052150748670101166,-0.041584402322769165,0.012809758074581623,-0.0397760309278965,-0.0009598971228115261,0.0812707245349884,0.005388037301599979,0.011938189156353474,0.03331553190946579,0.06714679300785065,-0.005153150297701359,-0.07217811048030853,0.055734556168317795,-0.04358790069818497,-0.01480343472212553,-0.06221117451786995,-0.01528576947748661,0.01563270390033722,-0.002474631182849407,-0.007381937000900507,0.05719147250056267,-0.029399890452623367,-0.04694931209087372,-0.03936342895030975,0.01825847290456295,-0.03407076746225357,-0.043140530586242676,-0.008827020414173603,0.0004851791600231081,-0.00044876764877699316,0.00488397479057312,-0.011607721447944641,0.0061583323404192924,0.008205289952456951,-0.049123071134090424,0.03049573302268982,0.043478306382894516,-0.06896628439426422,0.009748833253979683,-0.012157703749835491,-0.027088969945907593,0.02252477966248989,0.01714027300477028,0.01349369715899229,-0.06758516281843185,-0.070794977247715,-0.07380657643079758,0.01502178143709898,0.015763262286782265,0.02386452443897724,0.03787503391504288,0.04483016952872276,-0.06261639297008514,-0.06139775365591049,0.025106068700551987,-0.04764379933476448,-0.07136451452970505,-0.06689193844795227,-0.030468950048089027,0.03000462055206299,0.007200679276138544,-0.041464436799287796,0.03465523570775986,0.0022964715026319027,-0.011813080869615078,0.008632643148303032,-0.009187759831547737,-0.051656998693943024,0.0037376810796558857,-0.09038160741329193,-0.04349851608276367,-0.002390824258327484,-0.048457399010658264,0.032799262553453445,0.03300230950117111,-0.05964469909667969,-0.013543689623475075,-0.023194734007120132,-0.003095866646617651,0.007506655063480139,0.015367744490504265,0.028775105252861977,-0.01889350451529026,0.011027325876057148,-0.011442999355494976,0.0326799675822258,-0.04974395036697388,0.0024512209929525852,-0.05467958375811577,-0.05485641211271286,-0.01071456354111433,-0.003783945459872484,-0.029213186353445053,-0.031416039913892746,-0.006149968598037958,-0.04276273772120476,0.04928804561495781,-0.0018148630624637008,0.032524723559617996,-0.05756913870573044,-0.023272676393389702,0.024256980046629906,-0.058197349309921265,0.022891808301210403,-0.0612979419529438,-0.006974720861762762,0.0647570937871933,-0.009445318020880222,-0.023648370057344437,0.035812024027109146,-0.06881139427423477,-0.017107633873820305,-0.03442004323005676,0.010279359295964241,-0.0072010839357972145,0.0091800382360816,-0.04644869267940521,-0.039744436740875244,0.0034532335121184587,-0.05177069455385208,-0.012127123773097992,0.05370115116238594,0.024791814386844635,0.019808784127235413,0.0337725393474102,-0.02503201924264431,0.006494240369647741,0.08175097405910492,-0.060120631009340286,-0.008752929046750069,-0.06568409502506256,-0.014624090865254402,0.03226787969470024,0.07685216516256332,-0.030689438804984093,-0.0021562918554991484,-0.057588882744312286,0.02604362741112709,0.017668448388576508,0.017225831747055054,0.012348558753728867,0.058788251131772995,0.05354193598031998,0.020149758085608482,-0.00842750258743763,-0.010849079117178917,0.04472074285149574,-0.009338177740573883,0.02761017344892025,0.024990379810333252,0.09051810950040817,-0.019015943631529808,-0.06061866134405136,0.012326148338615894,-0.044381242245435715,0.016197530552744865,-0.014111815020442009,-0.026601970195770264,0.016476286575198174,0.011680509895086288,-0.03276922553777695,0.0007468648254871368,-0.0036095150280743837,-0.002499984111636877,0.024046417325735092,0.010643224231898785,-0.0007840521866455674,0.029223257675766945,0.005353883840143681,0.011555987410247326,0.06442174315452576,-0.025664489716291428,-0.023702051490545273,-0.019719712436199188,-0.009275639429688454,-0.07731376588344574,-0.02234809286892414,-0.0019273657817393541,0.009979134425520897,-0.042504068464040756,-0.017445186153054237,-0.011802072636783123,-0.017898576334118843,0.08568109571933746,0.034674473106861115,-0.07559014856815338,0.08449523150920868,-0.035663288086652756,0.07100063562393188,-0.022352170199155807,0.03720361739397049,-0.07958121597766876,-0.021660085767507553,0.005822922568768263,-0.07863162457942963,-0.00016072559810709208,0.08539541065692902,-0.026372915133833885,0.04825599119067192,-0.0069953217171132565,0.0099514564499259,-0.002276042941957712,0.0001890787825686857,-0.012486082501709461,0.025201037526130676,-0.0028914380818605423,0.08687306940555573,0.022405218333005905,-0.043248362839221954,0.0058800592087209225,-0.02358626015484333,-0.011838464066386223,0.0431416817009449,0.014475082978606224,-0.012997515499591827,-0.006382946856319904,0.06489653140306473,-0.03294302523136139,-0.02451542764902115,-0.03331520035862923,0.07475356757640839,1.7333590221824124e-05,0.018745331093668938,0.003596799448132515,0.04830837994813919,-0.03302426636219025,-0.014286126010119915,0.054832808673381805,0.0201552826911211,-0.03019317053258419,0.03657834604382515,0.05862470716238022,0.01962699368596077,-0.06575661897659302,0.0016671543708071113,0.02086496166884899,-0.05016655847430229,0.08485477417707443,-0.037858135998249054,0.04968016967177391,-0.014203605242073536,0.07561006397008896,-0.04569218307733536,-0.013766273856163025,0.03345201537013054,-0.06465916335582733,-0.0443832166492939,0.04053649306297302,-0.06860748678445816,0.028857285156846046,-0.05879282206296921,0.0040232231840491295,0.04637162387371063,0.05707141011953354,-0.06014246866106987,0.02314467914402485,-0.025457099080085754,-0.010787048377096653,0.0073474072851240635,-0.06900898367166519,-0.008770017884671688,0.014213730581104755,0.02385413460433483,0.012347305193543434,0.0033801868557929993,0.006116206757724285,0.057148974388837814,-0.05652870982885361,0.07641700655221939,-0.01625385880470276,0.02881588600575924,0.015435786917805672,-0.07527045905590057,0.0003785591688938439,-0.01940814033150673,-0.008945200592279434,0.042290735989809036,-0.08565834164619446,0.08912022411823273,-0.028009984642267227,-0.012655396945774555,5.4767075198469684e-05,-0.007557228207588196,-0.01764310523867607,0.03547031804919243,-0.051618605852127075,0.06324923783540726,0.025152191519737244,0.041778020560741425,-0.0820501521229744,-0.0194361824542284,0.023916607722640038,0.08076542615890503,-0.006327715702354908,0.05615037679672241,0.013743485324084759,-0.04505402222275734,-0.0288278516381979,-0.03228528052568436,0.029348503798246384,-0.07350830733776093,0.00853124912828207,0.04361145198345184,0.0071071176789700985,0.07843103259801865,-0.011659620329737663,0.0025690309703350067,-0.003286027116701007,0.07555403560400009,-0.03127313032746315,-0.04010903090238571,0.07604686915874481,-0.08766360580921173,-0.017119618132710457,0.01765541546046734,0.00795395951718092,-0.04192124307155609,0.018414026126265526,0.030313899740576744,-0.06492259353399277,0.05644689127802849,0.013706604950129986,0.01526265125721693,-0.02526332065463066,0.0525844506919384,-0.016072627156972885,0.011436576023697853,0.033600907772779465,-0.001807336462661624,-0.05467241257429123,0.018144723027944565,-0.01937491074204445,-0.010556889697909355,-0.03725627809762955,-0.05521765351295471,-0.024443937465548515,-0.042139604687690735,0.04633346572518349,0.08674698323011398,-0.008609922602772713,-0.006381570361554623,0.013110168278217316,-0.02890937402844429,0.05164625123143196,0.04998106509447098,-0.01617782935500145,0.056860875338315964,-0.05440698191523552,-0.0399789959192276,0.037911560386419296,-0.005532450508326292,0.01262723933905363,-0.003394228173419833,0.059592582285404205,0.054348237812519073,-0.03804788738489151,0.006620462983846664,-0.02270388789474964,-0.04404280334711075,0.024487771093845367,0.0304269976913929,-0.03370717912912369,-0.016493450850248337,0.012991811148822308,0.012625157833099365,-0.07240919023752213,-0.04271330311894417,0.026695692911744118,0.052790023386478424,0.007404054049402475,0.02072202041745186,-0.03290635347366333,0.006124021951109171,0.02897055447101593,-0.011429940350353718,-0.013328062370419502,0.021419266238808632,0.03874645754694939,0.07726196944713593,0.059290070086717606,0.003796512959524989,-0.013440513983368874,-0.06556826084852219,0.02134200558066368,-0.03864448517560959,-0.01045848336070776,0.022869836539030075,-0.011784670874476433,0.0038304757326841354,-0.03463596850633621,-0.004698115400969982,-0.004897403996437788,0.00210370821878314,0.031212735921144485,-0.0022010779939591885,-0.00577775202691555,-0.021029505878686905,-0.061187468469142914,0.03842100128531456,-0.007838704623281956,-0.016835855320096016,-0.01944088004529476,0.01616482064127922,-0.03395871818065643,0.0857544019818306,-0.014360876753926277,0.07037419080734253,0.0066411495208740234,-0.06592957675457001,0.0010812730761244893,0.052116625010967255,-0.037963397800922394,-0.015149985440075397,0.016701268032193184,0.06696160137653351,-0.046751536428928375,-0.0011394976172596216,-0.040157005190849304,-0.057032860815525055,-0.04110937565565109,0.008904844522476196,-0.013958592899143696,0.06042690947651863,0.055634915828704834,-0.029687095433473587,0.049691639840602875,-0.018392395228147507,-0.022506004199385643,0.05656905099749565,0.002372644143179059,0.053496986627578735,-0.03731226548552513,-0.011335095390677452,-0.08945532143115997,0.026287313550710678,0.07283951342105865,-0.008833619765937328,-0.02466529607772827,0.026783790439367294,0.05982062965631485,-0.05593568831682205,0.07828408479690552,0.0665769875049591,-0.0056894454173743725,-0.0025441194884479046,-0.06679822504520416,0.025853093713521957,0.01456994004547596,0.03887604922056198,0.020096490159630775,-0.004057389684021473,-0.05506080389022827,-0.0011456127976998687,0.04049846529960632,0.03282603994011879,-0.06439465284347534,0.052826814353466034,0.01846020296216011,-0.03226473182439804,0.06326272338628769,0.005142732989042997,0.0915050059556961,-0.01042290311306715,0.010215391404926777,-0.0057931761257350445,0.016524020582437515,-0.013053481467068195,0.09107702225446701,-0.021310482174158096,-0.06980185210704803,-0.03572152182459831,-0.003906549420207739,-0.04980962350964546,0.006024806760251522,-0.0216356310993433,0.020525753498077393,-0.06979289650917053,0.037221141159534454,-0.0046619875356554985,0.06910621374845505,0.08014629781246185,0.07136844843626022,-0.0001748729555401951,0.08653952181339264,-0.04113876819610596,-0.025800492614507675,0.04663623496890068,-0.04663911089301109,-0.061657797545194626,-0.009086535312235355,0.0005913294153288007,0.007116140332072973,0.002203823532909155,-0.05463014915585518,-0.06594979017972946,0.008788622915744781,-0.005685096140950918,0.022615553811192513,0.0460754819214344,-0.001498848432675004,0.03777154162526131,-0.022237587720155716,0.0074165137484669685,0.037335172295570374,-0.010702569037675858,-0.028522849082946777,0.031323306262493134,0.003515157150104642,0.01708797737956047,0.044891051948070526,-0.022665392607450485,-0.004687257576733828,0.042195457965135574,-0.02265406772494316,-0.015975598245859146,0.038952410221099854,-0.05276893451809883,-0.033047862350940704,0.015135852620005608,-0.0273833516985178,0.06594016402959824,-0.07946784794330597,-0.06144295260310173,0.07903008908033371,-0.07025083899497986,0.026309898123145103,0.0724523589015007,0.04426475241780281,0.03347444534301758,0.014161495491862297,-0.02662089467048645,0.01036539115011692,-0.006825056858360767,0.0669155940413475,-0.03714387118816376,0.09363450855016708,0.03161057084798813,0.011739351786673069,-0.057176701724529266,0.029505986720323563,0.05535699799656868,-0.011875256896018982,-0.02592950500547886,-0.03046957589685917,-0.03716832399368286,0.03316124901175499,-0.06009696051478386,0.02929983101785183,-0.06819835305213928,-0.05912303924560547,-0.04067040979862213,-0.03073880448937416,0.061728335916996,0.0079478295519948,-0.014087794348597527,0.04073376581072807,-0.02619117870926857,0.06123190000653267,-0.027472084388136864,-0.02625316008925438,0.005190049763768911,0.004593805409967899,-0.05624601989984512,-0.013587525114417076,0.09831150621175766,0.005223682615906,0.06409446150064468,-0.02142263576388359,0.02701270952820778,-0.05518040060997009,0.012915266677737236,-0.036543287336826324,0.030254270881414413,-0.0860397070646286,0.037720661610364914,-0.08944429457187653,0.03780039772391319,-0.01394657976925373,-0.02364051528275013,0.026785647496581078,-0.007621268276125193,0.008770190179347992,-0.04384209215641022,0.041728921234607697,0.0004272693186067045,0.03828549012541771,0.013820563443005085,-0.004740449134260416,0.04758242517709732,0.06351810693740845,0.010344342328608036,-0.02326861210167408,-0.04294942319393158,0.08003920316696167,0.07440762966871262,-0.047011639922857285,-0.00944109819829464,0.058717548847198486,-0.018071170896291733,-0.03248526528477669,0.00047305645421147346,0.012748787179589272,-0.011650490574538708,0.028721923008561134,-0.05355433374643326,0.06997822225093842,0.07507913559675217,-0.09210502356290817,-0.002358215395361185,0.07577540725469589,0.00699904840439558,-0.02613038755953312,-0.0670766681432724,-0.06254284828901291,-0.02622993290424347,-0.00697059091180563,0.06809578090906143,0.021113405004143715,0.0008885645074769855,0.07243795692920685,0.06212053447961807,0.04265665262937546,-0.032904252409935,-0.05608348920941353,-0.042284876108169556,0.032153017818927765,-0.04570871219038963,-0.08594802021980286,-0.05228673666715622,-0.0708824172616005,-0.032794587314128876,0.009465400129556656,-0.017233645543456078,0.023889385163784027,-0.012556232511997223,-0.01304636336863041,0.06040875241160393,0.02364993467926979,0.05321348458528519,-0.018500711768865585,-0.046299275010824203,-0.05331839248538017,-0.07725279033184052,0.012250484898686409,-0.02471885271370411,0.009636977687478065,-0.013629617169499397,-0.05811084434390068,-0.021688422188162804,0.002040468156337738,0.016031548380851746,-0.0014962829882279038,0.037836626172065735,-0.031358204782009125,0.025418654084205627,-0.035625796765089035,0.004424639046192169,-0.03363322466611862,-0.015581329353153706,0.04885607957839966,-0.03714437782764435,0.03632492199540138,-0.016220226883888245,0.0742216631770134,0.009892414323985577,0.06648299843072891,0.05565901845693588,-0.053822845220565796,0.0013216393999755383,0.002989361761137843,-0.04032919555902481,-0.03150074928998947,0.021086780354380608,-8.735885057831183e-05,-0.03349883109331131,0.08018209040164948,0.006303688045591116,-0.024384837597608566,0.06527755409479141,-0.0007733790553174913,-0.008577214553952217,0.05622284859418869,-0.07164843380451202,-0.04769578576087952,-0.017962483689188957,-0.0710490345954895,0.020306039601564407,0.03901750594377518,-0.008047658018767834,-0.046620551496744156,-0.0014675285201519728,-0.03605128079652786,-0.0046743955463171005,-0.046376146376132965,-0.06925375014543533,0.00864430796355009,0.023433582857251167,0.022921988740563393,0.07210101187229156,-0.003323617158457637,-0.09826909750699997,-0.015667369589209557,0.009540376253426075,-0.03504343703389168,-0.009987651370465755,-0.03832664340734482,0.048495326191186905,0.03790639340877533,0.08934514969587326,-0.049600113183259964,-0.01469908095896244,0.013031454756855965,-0.007342626340687275,-0.04259365051984787,-0.006544732954353094,-0.0190874133259058,-0.029513690620660782,0.004258321598172188,-0.010373944416642189,-0.0637853592634201,-0.03069172240793705,-0.03549228608608246,0.003632286097854376,0.08622078597545624,-0.03046773374080658,0.04336030036211014,-0.0300882700830698,0.005228785797953606,-0.039876021444797516,0.0030606884974986315,0.021015843376517296,0.07956165075302124,-0.04252474755048752,-0.006583573762327433,-0.04305173456668854,0.02181236445903778,0.058291852474212646,-0.027444884181022644,-6.038486026227474e-05,-0.05758827179670334,0.06462843716144562,0.0026326137594878674,-0.058169178664684296,-0.004128395579755306,-0.004816094413399696,-0.025136485695838928,-0.06274650990962982,0.051699865609407425,-0.030871186405420303,-0.05039343237876892,-0.0018699455540627241,0.06033217906951904,-0.017474908381700516,-0.03601081669330597,0.06784268468618393,-0.046866945922374725,0.023405950516462326,0.010317827574908733,-0.005835116840898991,0.05019339174032211,0.03764713928103447,0.07796362042427063,-0.029569203034043312,-0.006006706040352583,0.03858957067131996,-0.03660556674003601,-0.007763529662042856,0.00845041312277317,-0.06846746057271957,0.0407039150595665,0.07071729004383087,0.019635191187262535,0.00810693483799696,0.06353084743022919,0.08228205889463425,0.0313439816236496,-0.02564172074198723,0.05856684595346451,0.043101899325847626,-0.06864447146654129,-0.023593371734023094,0.0041648587211966515,-0.0014378555351868272,0.04492828994989395,-0.006252815015614033,0.05971762537956238,-0.010195386596024036,0.08976577967405319,-0.008719975128769875,-0.035824473947286606,-0.05796550586819649,-0.06535463035106659,0.004447417799383402,-0.03163415938615799,0.012881049886345863,0.0018999766325578094,0.047455281019210815,-0.010084738954901695,0.06530125439167023,-0.01014744583517313,0.00571944285184145,-0.05431786924600601,-0.024156533181667328,-0.04332053288817406,-0.008780197240412235,0.01403987966477871,-0.010509316809475422,0.028482267633080482,-0.004395653493702412,-0.007144746370613575,0.021579619497060776,-0.024709518998861313,0.051473069936037064,0.006764434278011322,0.033606912940740585,-0.04953126981854439,-0.006131317000836134,-0.022940756753087044,0.06499116122722626,0.013147512450814247,0.051432203501462936,0.02696554735302925,0.022316129878163338,-0.01700463518500328,-0.052257247269153595,-0.030399203300476074,0.003535626921802759,-0.010399055667221546,-0.0507255494594574,-0.03981863707304001,-0.0026291452813893557,-0.06113586947321892,0.08196005970239639,-0.015847107395529747,0.040753792971372604,-0.02668423391878605,0.0732610896229744,-0.03489867225289345,0.03172207251191139,0.01299547404050827,-0.085699662566185,0.022654376924037933,-0.013178428635001183,-0.026494691148400307,0.02946537733078003,0.004467422608286142,0.038086630403995514,-0.05997108295559883,0.0383695587515831,0.04110673815011978,-0.01036523375660181,0.02753598615527153,0.05308975651860237,-0.042865779250860214,0.07464946806430817,-0.03933602571487427,-0.015949256718158722,-0.003064207499846816,-0.03501921519637108,0.007817219011485577,0.05376538634300232,0.03602275997400284,0.034339599311351776,-0.0006515661953017116,0.0881585031747818,-0.06866185367107391,-0.0060629271902143955,-0.027822796255350113,-0.05154799297451973,0.080095075070858,0.022952180355787277,-0.00408655870705843,0.04965630918741226,-0.010169089771807194,0.0078015802428126335,0.03303781896829605,-0.0008282548515126109,-0.005580929107964039,-0.05592743307352066,-0.013273889198899269,-0.02684812620282173,0.017055608332157135,0.06865877658128738,-0.014092793688178062,-0.0007193393539637327,0.03304485231637955,-0.03717624023556709,-0.00849414337426424,0.020592380315065384,0.007032155990600586,-0.015239322558045387,-0.026191625744104385,-0.0022379164583981037,0.01351892203092575,-0.07234969735145569,0.05634424090385437,-0.05241890624165535,-0.02210567146539688,0.01628239080309868,0.04973456263542175,0.07532821595668793,0.03176812827587128,0.021657392382621765,-0.04329703748226166,-0.003894255729392171,0.029650907963514328,0.0063143507577478886,-0.0017531495541334152,-0.07411937415599823,0.03906429558992386,0.00288180960342288,-0.06493037939071655,0.04066992551088333,0.006372340023517609,0.03609413653612137,0.052750103175640106,0.012409869581460953,0.0028005666099488735,0.056491799652576447,-0.017979301512241364,-0.011980165727436543,0.06834235042333603,-0.00426439568400383,-0.021045560017228127,-0.06289426237344742,-0.044360242784023285,-0.037511225789785385,-0.08035661280155182,0.005500722676515579,0.022559309378266335,0.012743021361529827,0.030352016910910606,-0.07038526982069016,-0.011393934488296509,0.031000008806586266,-0.01140720583498478,0.0450785793364048,-0.07080034911632538,0.03665895760059357,-0.050410281866788864,0.011521795764565468,-0.016194593161344528,0.03965014964342117,-0.04267658665776253,-0.011897970922291279,0.0023917064536362886,0.021535176783800125,0.0435841903090477,-0.00409091729670763,0.02623104117810726,-0.005466184578835964,0.02335367351770401,-0.08439290523529053,-0.018938492983579636,-0.00011874195479322225,-0.015288022346794605,0.028468381613492966,-0.058935899287462234,-0.03362765163183212,-0.04704917222261429,0.01284356601536274,-0.0018535234266892076,0.07634619623422623,-0.006020457483828068,0.08218076080083847,0.056766949594020844,-0.05558621883392334,-0.02460305020213127,0.051680147647857666,-0.021849095821380615,-0.01418369822204113,0.01149459183216095,-0.024883147329092026,0.044904015958309174,-0.019565949216485023,-0.0030455398373305798,-0.043824438005685806,-0.05327411741018295,-0.011560585349798203,-0.08506909012794495,-0.002636142773553729,-0.05756611377000809,0.03964000940322876,-0.005496981553733349,0.03359625115990639,-0.03416847065091133,0.022509437054395676,0.07079774886369705,0.06163221597671509,-0.021527528762817383,0.007130754180252552,0.008300418965518475,0.04933001846075058,0.012274486944079399,-0.04029620811343193,-0.0750804916024208,0.07179107517004013,-0.006383654661476612,-0.05781861022114754,-0.04810692369937897,-0.020909516140818596,-0.046828433871269226,0.03436257690191269,-0.033166345208883286,-0.0073121078312397,-0.0477696992456913,0.026131317019462585,-0.00014947517774999142,0.023984568193554878,0.03759824112057686,0.027695421129465103,-0.027924727648496628,0.022823529317975044,0.006470202002674341,-0.017460644245147705,0.03643973171710968,0.04717802628874779,-0.011238018050789833,0.027716487646102905,0.01108583714812994,0.07170120626688004,0.07640384137630463,0.048166900873184204,-0.01605072245001793,0.002457985421642661,0.027160044759511948,0.010378869250416756,-0.008253747597336769,-0.038230981677770615,0.0037421577144414186,-0.04407045990228653,-0.010275205597281456,0.006674066185951233,-0.04824869707226753,-0.06146283075213432,0.05826690047979355,-0.01608280837535858,0.049433719366788864,-0.018987443298101425,0.0008490890031680465,-0.00538437208160758,0.043463803827762604,-0.020388605073094368,-0.02045155130326748,0.05509078502655029,0.024327734485268593,0.0038133696652948856,0.050155241042375565,0.015801241621375084,0.026949787512421608,-0.01736660674214363,0.01314767636358738,0.02731526829302311,0.051635295152664185,-0.0037967879325151443,-0.03188673406839371,-0.02672012522816658,0.026457831263542175,-0.0279174093157053,-0.0325869619846344,0.023580946028232574,-0.0023262754548341036,-0.01527667511254549,0.04277833178639412,0.06168045848608017,0.024088438600301743,0.0024853318464010954,-0.08445979654788971,0.0077422247268259525,-0.04948838800191879,-0.01708080992102623,-0.015036322176456451,-0.006643024738878012,0.08694766461849213,-0.014108158648014069,-0.052976012229919434,0.008678541518747807,0.055099356919527054,-0.0009049681248143315,-0.05421770364046097,0.05911429971456528,0.0029221135191619396,0.01676204986870289,0.02791081741452217,-0.04932644963264465,0.004957460332661867,-0.027542108669877052,-0.00937418919056654,0.02816808596253395,0.06280995905399323,-0.023972755298018456,0.03852328285574913,-0.025243321433663368,0.04561550170183182,0.02963912859559059,-0.004914429038763046,0.017267493531107903,0.044592760503292084,-0.08997630327939987,-0.04019424691796303,0.050439734011888504,-0.01968691684305668,-0.042966146022081375,0.03252563998103142,0.06077290698885918,0.026109550148248672,0.04629098251461983,0.003413926111534238,0.03771420568227768,0.03481428325176239,-0.012122668325901031,0.016215059906244278,-0.02809419110417366,-0.0007628888124600053,0.0180974118411541,0.02378075197339058,0.005018928553909063,0.00627646129578352,0.015590597875416279,0.008127301931381226,0.08667449653148651,0.060521114617586136,-0.04255605861544609,0.014502954669296741,-0.03699144348502159,0.014978257939219475,0.06807294487953186,0.003780205501243472,0.007759550120681524,-0.021145079284906387,0.027559062466025352,-0.09642841666936874,0.032042376697063446,-0.09651990979909897,-0.02712281420826912,0.009244248270988464,0.03865417465567589,0.043808769434690475,-0.009651048108935356,-0.04870254546403885,-0.04311921074986458,0.07806836813688278,0.004099573940038681,0.07319803535938263,0.019719306379556656,-0.00899455975741148,-0.009368859231472015,-0.03517044708132744,0.02419149875640869,-0.04901539906859398,-0.004297459032386541,-0.031956735998392105,0.023545531556010246,-0.02298569865524769,-0.04033356159925461,-0.048891257494688034,-0.048821549862623215,-0.014595377258956432,-0.030606457963585854,-0.023093396797776222,0.03145533800125122,-0.052291590720415115,-0.01620783470571041,-0.014836711809039116,0.06693423539400101,-0.0802527591586113,-0.03371293097734451,-0.07202275097370148,-0.06030748039484024,0.06290082633495331,-0.03117285668849945,-0.07956574112176895,0.00716432835906744,0.006213774438947439,-0.006746403872966766,-0.07319580763578415,0.036830849945545197,-0.06329219043254852,0.02061264030635357,0.0062761628068983555,-0.025954434648156166,0.008107250556349754,-0.08115110546350479,-0.0202143844217062,-0.06745327264070511,-0.042973972856998444,0.044706251472234726,-0.04265234246850014,-0.031100913882255554,-0.014195610769093037,0.04800962656736374,0.0175717081874609,0.04878474026918411,-0.061030954122543335,-0.028869137167930603,0.007112187333405018,-0.050131432712078094,0.0029756142757833004,-0.016177065670490265,-0.022582706063985825,-0.034553103148937225,0.07369221746921539,0.018274543806910515,-0.07676469534635544,-0.002021764637902379,-0.000317761383485049,-0.047753673046827316,0.013469576835632324,-0.0010798521107062697,0.05770890787243843,0.03860503062605858,0.02680298313498497,-0.0002709201071411371,-0.0044145225547254086,-0.06116596609354019,-0.06466759741306305,-0.041352659463882446,-0.04409501329064369,0.026382196694612503,0.07876826077699661,0.016158221289515495,0.07893668115139008,-0.055914800614118576,-0.05138802528381348,-0.0003685746341943741,-0.003911172039806843,0.008838186040520668,0.0586918480694294,-0.015520085580646992,0.09426407516002655,0.0006286228308454156,0.03738202154636383,0.08345679938793182,0.08774641156196594,0.05844489857554436,0.003498869715258479,0.019705764949321747,-0.035806622356176376,-0.08009468019008636,-0.018708566203713417,-0.0828135684132576,0.027082357555627823,0.016057763248682022,-0.04191311448812485,0.041617728769779205,0.017973169684410095,0.021083002910017967,-0.004696647636592388,0.06123121827840805,0.019922569394111633,-0.05409138649702072,0.0685863122344017,0.017259445041418076,-0.03824297711253166,-0.010919446125626564,0.008395454846322536,0.07528914511203766,-0.01647234335541725,0.03672517091035843,0.04611503705382347,-0.052783071994781494,0.03778226301074028,0.04857725277543068,0.06003892421722412,0.017604410648345947,-0.021618010476231575,-0.017290864139795303,-0.005557001568377018,0.006325057707726955,0.05385376885533333,-0.06909054517745972,-0.014144998975098133,0.006471667438745499,0.017117708921432495,-0.05465569347143173,-0.07304077595472336,0.05807875469326973,-0.022471847012639046,0.08833978325128555,0.0677020400762558,0.00747957918792963,0.012511027045547962,-0.06381208449602127,0.0051352595910429955,0.005709427874535322,0.0529114194214344,0.04150256887078285,-0.057193536311388016,0.056345779448747635,-0.022699445486068726,0.017929771915078163,0.0012583775678649545,0.0031051423866301775,-0.01645214483141899,0.07721777260303497,0.07417003810405731,-0.058635540306568146,0.07280115783214569,-0.01652362570166588,-0.009963917545974255,-0.006841660942882299,0.0012985887005925179,-0.08011356741189957,0.03635237738490105,0.05080246925354004,0.070367231965065,0.007178174797445536,0.05876203626394272,0.011219075880944729,0.022190023213624954,0.00033164271735586226,0.021819334477186203,-0.02125035785138607,0.018364977091550827,0.03783593326807022,-0.012847398407757282,0.04889616742730141,0.07231609523296356,-0.0712866559624672,0.016867995262145996,0.03703027218580246,0.009420180693268776,0.07301973551511765,0.044046659022569656,-0.020910000428557396,-0.0871727466583252,-0.009100609458982944,-0.06762761622667313,-0.05002005770802498,0.05493512749671936,0.02777022123336792,-0.026880746707320213,-0.06436233222484589,-0.009371770545840263,-0.012871081940829754,0.03702175244688988,0.0501311793923378,0.006462795194238424,-0.04762686416506767,0.0517338290810585,-0.006084532011300325,-0.047587353736162186,-0.00024763625697232783,-0.017456170171499252,-0.037119705229997635,-0.0009721094975247979,0.006475056055933237,-0.004834575112909079,0.05095118284225464,0.030269408598542213,-0.02026296779513359,-0.03090151585638523,-0.009671075269579887,-0.016833659261465073,-0.0007257614633999765,-0.04879295825958252,-0.01587473787367344,-0.0027770590968430042,0.003579357173293829,-0.046506308019161224,0.006422866135835648,0.021410342305898666,-0.03947758302092552,0.02020161598920822,0.02559385634958744,0.019359394907951355,0.023148182779550552,0.03887185454368591,-0.007898403331637383,0.07398145645856857,-0.05160979554057121,-0.002529185963794589,0.021024776622653008,-0.02820722386240959,0.020517226308584213,0.022480804473161697,0.013453042134642601,0.03764478489756584,-0.043466296046972275,-0.003801171900704503,-0.06013371795415878,0.007668129168450832,-0.016855940222740173,-0.03871503472328186,-0.037165842950344086,-0.031104162335395813,