{"data":[-0.15755774080753326,-0.33690810203552246,0.5674598217010498,0.37189340591430664,-0.9382380247116089,0.5610216856002808,-0.09320556372404099,-0.5788248181343079,0.15470731258392334,0.07271028310060501,0.21794764697551727,0.2827094495296478,0.05930066108703613,0.41268235445022583,0.14661239087581635,-0.36368876695632935,-0.04606524109840393,-0.04025604575872421,0.039759330451488495,-0.3163279592990875,0.0793302059173584,-0.9106199741363525,-0.224528968334198,0.3197314441204071,0.2708916962146759,-0.08785094320774078,0.1996263563632965,-0.5222776532173157,0.6260018944740295,0.4829366207122803,0.2251967191696167,0.2606729567050934,-0.11122278869152069,-0.203587144613266,0.2993782162666321,-0.2898939251899719,-0.2413492202758789,-0.7676869630813599,0.46493884921073914,-0.2964138090610504,-0.2142983078956604,-0.04445706680417061,-0.3244265019893646,-0.41709744930267334,-0.32952308654785156,-0.15115603804588318,0.42589902877807617,-0.17620307207107544,-0.29899537563323975,-0.3799422085285187,-0.17834213376045227,-0.2454269677400589,0.04570789262652397,-0.23464170098304749,-0.1420324444770813,-0.36329835653305054,-0.6822389364242554,-0.41635751724243164,-0.39126116037368774,-0.3672540485858917,-0.1491352766752243,-0.5262356996536255,0.031016111373901367,-0.5253008008003235,-0.6128856539726257,0.20573262870311737,0.044502142816782,-0.5387598276138306,-0.03107079304754734,0.10371207445859909,-0.40164926648139954,-0.0546715185046196,0.3785100281238556,-0.4253840446472168,-0.2565995454788208,-0.5110681056976318,-0.1819247454404831,-0.6611323356628418,-0.7448427081108093,0.2824665606021881,0.09430694580078125,-0.26727166771888733,0.3440738916397095,-0.3605038821697235,-0.07243508100509644,-0.09989175200462341,-0.2687055766582489,-0.4918518364429474,0.6461691856384277,0.3095576763153076,-0.26806941628456116,-0.36995869874954224,-0.07663896679878235,-0.7163670063018799,-0.014308764599263668,0.3080070912837982,0.024072889238595963,-0.16206730902194977,-0.21287448704242706,0.30728697776794434,-0.41814833879470825,0.17354366183280945,0.7212671637535095,-0.3573795557022095,0.7067253589630127,-0.15439000725746155,-0.6792573928833008,-0.36080464720726013,-0.5593481063842773,0.44691312313079834,0.7096787095069885,-0.6758794188499451,-0.4190915524959564,-0.7857746481895447,-0.4348267912864685,-0.37939149141311646,0.2765825092792511,-0.07147229462862015,-0.5717097520828247,0.1376407891511917,0.042948514223098755,0.28177979588508606,0.300248384475708,0.586732804775238,-0.6143045425415039,0.32912448048591614,0.42568692564964294,-0.1917184293270111,0.1503302901983261,-0.8381433486938477,-0.7022187113761902,-0.021017596125602722,-0.24307677149772644,-0.12612400949001312,-0.31350550055503845,0.09022534638643265,-0.8156283497810364,-0.08626388013362885,0.3877825140953064,-0.5384656190872192,-0.16578730940818787,0.10704956203699112,0.08668161183595657,-0.09449136257171631,-0.6749089956283569,-0.024754365906119347,-0.17781397700309753,-0.11993561685085297,-0.02047467604279518,0.5576031804084778,-0.10583717375993729,-0.11032259464263916,-0.2978421747684479,-0.594425618648529,0.5298681259155273,-0.43574661016464233,-0.6117943525314331,-0.18497709929943085,-0.41456329822540283,0.13992632925510406,-0.34804025292396545,0.31551793217658997,0.844944417476654,0.11085473001003265,0.8808209896087646,-0.1702335923910141,0.19813941419124603,0.34878191351890564,-0.6751921772956848,0.3259800374507904,-0.13738566637039185,-0.044150520116090775,0.5751240849494934,0.04217449203133583,-0.1737702339887619,0.07527041435241699,0.24886006116867065,-0.2983156740665436,-0.1442338228225708,0.086579330265522,-0.31409329175949097,-0.16898736357688904,0.39879053831100464,0.6786512732505798,-0.05510381609201431,0.5706505179405212,-0.04621822014451027,-0.1607714146375656,0.3227165639400482,-0.4133007228374481,-0.09323577582836151,0.2419765293598175,0.24349193274974823,-0.10352713614702225,-0.6161686182022095,-0.26774871349334717,-0.8844754099845886,-0.8475794792175293,0.22144003212451935,-0.19879050552845,0.38282665610313416,0.6343358159065247,-0.035177964717149734,0.28316399455070496,-0.6961351633071899,0.5755736827850342,-0.20908208191394806,-0.04876506328582764,-0.04434914514422417,0.06587958335876465,0.0844457820057869,0.10135176032781601,0.26463091373443604,0.5865757465362549,-0.2782801389694214,0.356467604637146,-0.577875554561615,0.2827737033367157,-0.20157229900360107,0.08019155263900757,0.03330722823739052,0.7236397862434387,0.08962041884660721,0.17193041741847992,0.7044306993484497,-0.39804545044898987,0.46736040711402893,-0.24428211152553558,-0.4084893763065338,-0.323251336812973,-0.10822537541389465,-0.13795433938503265,-0.32914504408836365,0.5618007183074951,0.1582373082637787,0.3794892430305481,-0.014666642993688583,0.5595073699951172,0.15975047647953033,-0.017320793122053146,0.22475367784500122,-0.5459296107292175,0.3666597604751587,-0.3758770823478699,-0.3254484534263611,0.05923151224851608,0.21228602528572083,0.49447396397590637,0.5081606507301331,0.6759506464004517,0.4080471098423004,-0.625100314617157,-0.10139526426792145,-0.9474458694458008,-0.8489213585853577,-0.3737224340438843,0.11616276949644089,0.2222747504711151,0.412137508392334,-0.5336863994598389,0.2799051105976105,0.17049746215343475,0.43920382857322693,-0.6705230474472046,-0.48096993565559387,0.16356776654720306,0.5796962976455688,0.49013301730155945,-0.10815012454986572,0.150468647480011,-0.7863929867744446,-0.40622422099113464,0.2581340968608856,-0.823615550994873,0.40661144256591797,-0.828255295753479,-0.044964928179979324,0.48408472537994385,0.13917423784732819,0.2114056497812271,0.5327156782150269,0.31295907497406006,-0.42867910861968994,0.08967355638742447,-0.02706185355782509,0.003202464897185564,0.06177150458097458,0.015981778502464294,-0.6206632852554321,0.287102073431015,0.5519973039627075,0.042024269700050354,0.2658800184726715,-0.06444744765758514,0.8136405348777771,0.10693835467100143,0.4856194853782654,0.42399290204048157,0.13885235786437988,-0.6937676668167114,-0.07531489431858063,0.3195078670978546,-0.3056028187274933,0.2137947976589203,-0.10172472149133682,0.36106982827186584,0.257833331823349,0.5649133324623108,-0.11083973944187164,-0.5124646425247192,-0.0629730373620987,-0.815121591091156,-0.6388012170791626,-0.320930540561676,-0.13353998959064484,-0.5750559568405151,-0.4418962597846985,-0.17555774748325348,-0.033849362283945084,0.6894468069076538,0.1536581665277481,-0.7223162055015564,-0.6520012021064758,0.5683340430259705,-0.16068628430366516,-0.46237993240356445,0.5491365194320679,0.2654043138027191,-0.042889270931482315,0.6860904097557068,-0.02989845536649227,-0.39561331272125244,0.750404417514801,0.01407622266560793,0.363485723733902,0.1646527498960495,-0.15641069412231445,0.2820221483707428,0.33693355321884155,0.5386171936988831,-0.18819579482078552,-0.5910851359367371,-0.04217277839779854,0.424839586019516,-0.21350601315498352,-0.24186763167381287,-0.2591966390609741,-0.222953200340271,-0.5447829365730286,-0.058774564415216446,0.10749707370996475,-0.18465091288089752,0.06104053929448128,0.1183730810880661,-0.3177357614040375,-0.009865468367934227,-0.4260901212692261,0.4808659255504608,-0.12507416307926178,-0.11635704338550568,-0.758789598941803,0.31393393874168396,-0.40021055936813354,-0.547997772693634,0.5002756118774414,0.6473262310028076,-0.3159068524837494,-0.7458818554878235,0.0440465547144413,0.4924926459789276,0.031427010893821716,0.131095752120018,0.1593775451183319,0.15646517276763916,-0.06979392468929291,0.07282564043998718,-0.029617726802825928,-0.44476211071014404,-0.5529831647872925,0.06695397943258286,0.5968134999275208,-0.08188293129205704,-0.8223035335540771,-0.33802205324172974,0.018899541348218918,0.7282499670982361,-0.23507170379161835,0.13181287050247192,-0.7807106971740723,-0.7892300486564636,0.26813310384750366,0.32041457295417786,-0.48732051253318787,0.4067159593105316,-0.24872760474681854,-0.006706652697175741,0.30143487453460693,-0.2727130353450775,-0.22792775928974152,0.46361809968948364,0.5756617188453674,-0.009019991382956505,-0.49949103593826294,-0.7959653735160828,-0.554747998714447,0.4766252934932709,0.2074013203382492,-0.7961724400520325,0.3054632544517517,0.20118790864944458,-0.3081646263599396,0.5600013136863708,0.019756363704800606,-0.048388708382844925,-0.22557879984378815,0.23380731046199799,-0.5595567226409912,-0.0465521439909935,0.020634539425373077,-0.07952737808227539,0.2450251281261444,0.044231340289115906,-0.27813559770584106,0.4525311589241028,0.09702811390161514,-0.030312176793813705,-0.6921331286430359,0.006805247627198696,0.5541175603866577,-0.22088810801506042,-0.4415842592716217,-0.6721373200416565,0.2973167896270752,0.8008942008018494,-0.8231027722358704,0.11083996295928955,-0.11141309887170792,0.3701484203338623,0.22309237718582153,-0.07430334389209747,-0.09920210391283035,-0.11409752815961838,-0.3175041377544403,0.12318693846464157,-0.540721595287323,-0.3939342498779297,0.36863312125205994,0.17135322093963623,0.5873743891716003,0.44145792722702026,0.621985673904419,-0.5114678144454956,-0.6426616311073303,0.22643712162971497,-0.5263317227363586,0.47228938341140747,-0.08097722381353378,0.3004320561885834,0.1660817414522171,-0.4721193313598633,0.03551553189754486,0.7602164149284363,0.5217074155807495,0.6338911056518555,0.13496166467666626,-0.8381960391998291,-0.5605607628822327,-0.140138640999794,-0.14993570744991302,-0.26516956090927124,-0.14801456034183502,-0.47586220502853394,-0.36486536264419556,0.1518106758594513,0.39123937487602234,0.5145303606987,-0.23807543516159058,0.33523374795913696,-0.38401901721954346,0.4761074185371399,-0.20713450014591217,0.018018489703536034,0.02663128823041916,0.3576325476169586,-0.2936609089374542,0.08190573751926422,0.3998804986476898,0.10659706592559814,-0.5200899243354797,-0.7086855173110962,0.04725337028503418,-0.560538649559021,0.32946157455444336,-0.3673034906387329,0.019774794578552246,-0.9289706349372864,-0.31288883090019226,0.03317023068666458,-0.21783579885959625,-0.3131081163883209,0.6887489557266235,-0.346505343914032,-0.8878360390663147,0.5501214861869812,-0.6948825120925903,-0.2774643003940582,0.4776912033557892,0.3300698399543762,-0.2573815882205963,0.25245851278305054,0.7830120921134949,0.3767068684101105,0.6677130460739136,0.12207916378974915,-0.08882938325405121,-0.29112812876701355,-0.524188220500946,0.783238410949707,-0.26261377334594727,-0.03762418031692505,-0.2228558212518692,0.1864342838525772,-0.20336434245109558,0.33487996459007263,-0.02645231783390045,-0.6722179055213928,-0.04881849139928818,0.07790824770927429,-0.32360661029815674,-0.6679571270942688,-0.23667755722999573,0.38672778010368347,-0.20257547497749329,-0.21909107267856598,-0.4225580394268036,0.5597983002662659,-0.7035226821899414,-0.5834313035011292,0.27625516057014465,0.3603011667728424,-0.06639977544546127,-0.22953970730304718,0.34946173429489136,-0.3597497045993805,-0.21624146401882172,-0.21140602231025696,-0.5463783144950867,0.7040942311286926,0.7644892334938049,0.23459342122077942,0.24764896929264069,-0.14640416204929352,0.42110931873321533,0.5428156852722168,0.9542232155799866,-0.19116275012493134,0.1560632437467575,0.33884626626968384,-0.023149020969867706,-0.562943160533905,0.09552168101072311,-0.14056698977947235,-0.14654415845870972,-0.44194889068603516,-0.27399834990501404,0.3456454575061798,0.07660157233476639,-0.7924054265022278,0.6128053665161133,-0.24686941504478455,-0.10148750245571136,0.3173428773880005,-0.2049652636051178,0.4396345615386963,0.5587771534919739,0.634233832359314,0.14475996792316437,-0.2466910481452942,0.17887958884239197,-0.4086605906486511,-0.23305965960025787,0.1910397708415985,-0.18834105134010315,-0.8304873108863831,-0.07712288945913315,-0.17243196070194244,0.7595933675765991,0.1147412359714508,0.07545994222164154,-0.2328685224056244,-0.054485075175762177,-0.23312263190746307,0.29632142186164856,-0.39905571937561035,-0.3967950642108917,-0.47558099031448364,0.33091336488723755,-0.286272257566452,-0.6801304817199707,-0.3932814300060272,0.22676058113574982,-0.6170777082443237,0.4183633327484131,-0.15473303198814392,-0.030790502205491066,-0.5805332064628601,0.34664633870124817,-0.7716280221939087,-0.7868894338607788,0.5907720923423767,0.578948974609375,0.027987686917185783,0.814487099647522,-0.6814566254615784,0.3160500228404999,0.011110350489616394,-0.5111868381500244,-0.33851563930511475,0.42980432510375977,0.4374619722366333,0.6834650039672852,0.17409206926822662,0.49991941452026367,-0.5086148381233215,0.30567359924316406,-0.09747672826051712,-0.3209016025066376,-0.05653885751962662,-0.6476643681526184,-0.3728625476360321,-0.14719969034194946,-0.340003103017807,-0.07264819741249084,-0.3777546286582947,0.05086812376976013,0.41407710313796997,-0.251929372549057,-0.273261159658432,0.2723926901817322,-0.09656379371881485,-0.42197558283805847,-0.3218069076538086,0.14071235060691833,-0.08969368785619736,0.6953732371330261,-0.3028619885444641,-0.20688068866729736,-0.026156816631555557,-0.3850999176502228,-0.2250928431749344,0.4031766653060913,-0.2439873218536377,-0.23001867532730103,0.7994703650474548,0.5947768092155457,-0.5293177962303162,-0.7713165283203125,0.4019540846347809,0.8216127753257751,0.02427748031914234,0.2834080159664154,-0.36282017827033997,0.09274522960186005,-0.13894031941890717,-0.2854008674621582,0.6038975119590759,-0.08029551804065704,0.19202835857868195,0.33224040269851685,-0.14647744596004486,-0.8699261546134949,-0.18964113295078278,-0.474804162979126,0.03907153755426407,-0.7170831561088562,-0.40154173970222473,-0.16153335571289063,-0.30748215317726135,0.1849423050880432,-0.20353183150291443,-0.33928126096725464,-0.8755983710289001,-0.5996087789535522,0.051331695169210434,0.7484790682792664,0.3648339807987213,-0.6036837100982666,0.08969540894031525,-0.5779178738594055,0.5211798548698425,0.2468634843826294,0.18316832184791565,-0.41433724761009216,-0.4581463634967804,-0.21634963154792786,-0.13957452774047852,0.6875641345977783,-0.14395298063755035,0.24437564611434937,0.8001222014427185,0.012843731790781021,0.17668426036834717,-0.9084489941596985,0.34383344650268555,-0.07999838888645172,0.46371182799339294,-0.17715923488140106,0.7012814283370972,-0.43667876720428467,0.061349447816610336,0.15023134648799896,0.41718462109565735,-0.4268105924129486,-0.4737527072429657,0.17067860066890717,0.1600959450006485,0.24034073948860168,0.28435218334198,0.4728301465511322,-0.4330108165740967,0.6568973660469055,0.10860446095466614,-0.4814750552177429,0.03563611954450607,0.9573296904563904,-0.03905216604471207,-0.1311907172203064,-0.019399572163820267,0.7716707587242126,0.5528583526611328,0.4411146342754364,0.06574270874261856,0.3552338182926178,0.6216292977333069,-0.35054096579551697,0.1869555562734604,-0.4372774660587311,-0.07425349205732346,0.3274204730987549,0.1700987070798874,0.07814035564661026,-0.1623184084892273,0.10138451308012009,-0.6576195955276489,0.8764052987098694,0.2557276785373688,-0.10563645511865616,0.21301494538784027,-0.21187332272529602,-0.4489738941192627,0.30964305996894836,0.25913694500923157,0.4492228627204895,0.6959614157676697,-0.3033558130264282,0.34122753143310547,-0.31746619939804077,-0.6561512351036072,0.5332295298576355,0.7642583250999451,-0.3546512722969055,0.5103274583816528,-0.25162169337272644,0.5191057324409485,0.12301567196846008,-0.2053464651107788,-0.09422263503074646,0.026653781533241272,-0.2965984642505646,0.788160502910614,0.616610050201416,-0.08048176020383835,-0.26929521560668945,0.2505250573158264,0.7575508952140808,0.07028014212846756,0.47047433257102966,0.7810919284820557,-0.0475270077586174,-0.6537079811096191,0.005002600606530905,-0.12254504859447479,0.08418848365545273,-0.5321197509765625,-0.09865434467792511,-0.14940020442008972,-0.6722379922866821,-0.16793106496334076,-0.15706585347652435,0.31784218549728394,0.09105966985225677,0.562461793422699,-0.24766762554645538,0.6006826162338257,0.23564651608467102,0.799081563949585,-0.5398240089416504,0.6127510666847229,-0.3317020833492279,-0.9113664627075195,0.018748175352811813,0.009200191125273705,-0.4312014579772949,0.29170629382133484,0.1697029173374176,-0.140061616897583,0.16264979541301727,0.599403977394104,0.741998016834259,-0.013363691046833992,0.35356152057647705,-0.14877009391784668,0.4216853082180023,-0.7690621018409729,0.29522475600242615,-0.599891722202301,-0.5659463405609131,0.8023169636726379,-0.26128512620925903,0.04942697659134865,0.09115832298994064,0.9231323003768921,0.491385817527771,0.0332757867872715,0.0983201190829277,0.28262442350387573,-0.00433000223711133,0.4959486722946167,-0.13061100244522095,-0.5548842549324036,-0.06882026046514511,0.41509753465652466,0.33514636754989624,-0.24710510671138763,-0.20061995089054108,-0.12011581659317017,0.10409432649612427,-0.18109287321567535,-0.10297244042158127,0.05897242948412895,0.46800076961517334,-0.16883398592472076,0.3947896659374237,-0.28640016913414,0.7328178286552429,0.7050110101699829,-0.046690598130226135,-0.447056382894516,0.7302033305168152,-0.3049923777580261,0.4985876977443695,-0.09571667015552521,0.13357006013393402,0.3158654272556305,0.18698237836360931,0.2161410003900528,-0.7340914011001587,0.02289593406021595,-0.2908352315425873,0.18270500004291534,-0.02761203609406948,-0.16376978158950806,0.08051395416259766,-0.06471187621355057,0.4787931740283966,0.6245860457420349,-0.03569194674491882,0.040685150772333145,0.13068947196006775,0.13989458978176117,-0.6807798147201538,0.22151514887809753,-0.2066098004579544,0.6301721930503845,0.27883630990982056,-0.15542878210544586,0.1598082333803177,0.004742414224892855,0.3872009813785553,-0.1762351095676422,0.6501271724700928,0.32143792510032654,-0.160536527633667,-0.4851865768432617,0.48931077122688293,0.13427132368087769,-0.304216593503952,0.04600860923528671,0.7129454016685486,0.13032127916812897,0.3443247079849243,-0.41048529744148254,0.4505673944950104,-0.13286632299423218,-0.3432713449001312,-0.16192227602005005,0.2531876862049103,0.0619034469127655,-0.07637007534503937,0.26649433374404907,-0.35919034481048584,-0.05479394271969795,-0.02530224807560444,0.25168126821517944,0.5591872930526733,-0.18530794978141785,-0.5698831081390381,-0.8546678423881531,-0.6579640507698059,-0.10144723951816559,0.13392099738121033,0.08822693675756454,-0.05416261777281761,-0.7553697824478149,0.10313578695058823,-0.6032797694206238,-0.18286174535751343,0.1403944492340088,-0.11549853533506393,0.09745840728282928,-0.17768462002277374,0.149717777967453,0.4993484616279602,0.2740570604801178,-0.3736054599285126,-0.2297516018152237,0.10095003247261047,-0.9399441480636597,-0.17831715941429138,-0.6729145646095276,-0.7745342254638672,-0.39050334692001343,-0.5019415020942688,-0.22016169130802155,-0.1724516749382019,-0.8096281290054321,-0.09483809769153595,-0.7391155958175659,0.2903011739253998,0.18195539712905884,-0.1279037892818451,-0.8859289288520813,-0.04405617713928223,-0.0697302371263504,-0.6093737483024597,-0.26387712359428406,-0.44976678490638733,-0.03821443393826485,0.3421066105365753,-0.947838544845581,0.5754058361053467,0.311031311750412,-0.13775676488876343,0.5957539677619934,-0.4255700409412384,-0.13732123374938965,0.9259061813354492,-0.16689695417881012,-0.24471744894981384,-0.41090911626815796,-0.17548154294490814,0.242519810795784,-0.2816253900527954,0.5881723165512085,0.43762287497520447,0.11828938126564026,0.3724117875099182,-0.6070171594619751,0.04410712420940399,0.6080770492553711,0.14751695096492767,0.2759556770324707,-0.37748751044273376,0.6740484833717346,0.5368906855583191,0.5189342498779297,-0.7132664918899536,0.7817384600639343,-0.379523366689682,0.7714985013008118,0.0079402606934309,-0.46683868765830994,-0.22574034333229065,0.2513887882232666,-0.16145393252372742,0.40941014885902405,-0.09155528247356415,0.9173799753189087,-0.05269179120659828,0.27685895562171936,0.44447875022888184,0.39246582984924316,-0.16164273023605347,-0.09146015346050262,-0.31608885526657104,0.6526476144790649,-0.4919567108154297,0.1790383756160736,0.3252565860748291,0.4483795464038849,-0.3593294024467468,-0.14216962456703186,0.3223916292190552,-0.22904735803604126,0.18651296198368073,-0.3488789200782776,-0.14637814462184906,-0.20776863396167755,-0.31933557987213135,-0.16846013069152832,-0.7750027775764465,0.4096820056438446,0.04987427964806557,0.600971519947052,-0.3011024594306946,-0.012120258994400501,0.10189617425203323,-0.08475358039140701,0.7562812566757202,0.2715877294540405,-0.15580758452415466,-0.5756540298461914,-0.11628498882055283,-0.5099937319755554,-0.05845073238015175,-0.5630258917808533,-0.5482243895530701,0.5975746512413025,0.33884197473526,0.6639276146888733,0.32788991928100586,-0.26463839411735535,0.5121217370033264,-0.4063588082790375,0.2369486689567566,-0.7376784682273865,0.4689926505088806,0.7865526080131531,-0.4452640414237976,-0.41124701499938965,-0.6959221363067627,-0.07026554644107819,0.20608453452587128,-0.2044343203306198,0.6334696412086487,-0.2719459533691406,0.2179155945777893,-0.1195145770907402,-0.1667967289686203,-0.4451507031917572,0.49572548270225525,-0.400034636259079,-0.8472545742988586,-0.5356777906417847,0.23717908561229706,-0.7537434101104736,0.1661141812801361,-0.7997158169746399,0.5855531096458435,-0.08677954226732254,0.24076680839061737,0.4663574695587158,0.3868393898010254,-0.12856970727443695,0.3708334267139435,0.15252485871315002,-0.20912371575832367,0.3856620192527771,-0.3352949917316437,-0.11170181632041931,0.15386199951171875,-0.42009860277175903,-0.44928234815597534,-0.30609089136123657,0.3044261932373047,0.37170901894569397,-0.31063640117645264,0.5567514896392822,-0.4163118302822113,0.2743418514728546,0.9535552859306335,0.5688220858573914,0.1610528528690338,0.21305027604103088,0.3676301836967468,-0.271159827709198,-0.13107991218566895,0.5965635776519775,0.0021603750064969063,-0.0054441713728010654,0.6206187605857849,-0.5005911588668823,0.123745396733284,-0.6130873560905457,0.6680796146392822,0.2579982876777649,0.32274752855300903,0.2821054756641388,0.13648338615894318,0.3466966152191162,0.171510711312294,0.6778454780578613,0.2480146586894989,-0.3341626822948456,-0.05704563483595848,-0.38057103753089905,-0.4114484488964081,0.06330853700637817,-0.28961920738220215,0.09739255905151367,0.15664224326610565,0.10521449893712997,-0.7520344257354736,0.7358337044715881,0.1697298139333725,0.6096090078353882,0.7049859762191772,0.3352372944355011,0.3041125535964966,-0.012735618278384209,0.20703735947608948,0.33384719491004944,0.3696262538433075,-0.22282840311527252,-0.9036808609962463,-0.37108996510505676,-0.23131702840328217,-0.6031120419502258,-0.729637861251831,-0.24055345356464386,0.16381478309631348,0.3857055902481079,0.08371298760175705,0.5871214270591736,-0.08043768256902695,-0.2175600826740265,-0.38533931970596313,0.13300764560699463,0.3759271502494812,-0.7875337600708008,0.12004298716783524,-0.04434908926486969,-0.7915155291557312,0.6544118523597717,-0.48523077368736267,0.4990837275981903,-0.07179392129182816,-0.2528549134731293,0.9216465353965759,-0.8507084250450134,0.3664303421974182,0.39736443758010864,0.07319021970033646,-0.4259535074234009,-0.5529875159263611,-0.5674020051956177,-0.38157546520233154,0.04921695217490196,-0.8817131519317627,-0.3145522475242615,-0.16899874806404114,-0.24070654809474945,-0.42013055086135864,-0.12370938062667847,0.5455231666564941,0.04503258317708969,-0.5048133730888367,-0.1608060896396637,-0.5216105580329895,0.17216259241104126,-0.23725302517414093,0.41290950775146484,0.4354223608970642,-0.5151910185813904,-0.08763308078050613,0.36645859479904175,0.18709935247898102,0.6469693183898926,0.261794775724411,-0.21850524842739105,-0.22149071097373962,0.16102047264575958,-0.04516636207699776,0.08230312168598175,-0.1729029417037964,0.13917505741119385,-0.3141293525695801,-0.23552148044109344,-0.27434349060058594,0.19018235802650452,0.43272340297698975,-0.043016064912080765,0.34199270606040955,-0.2684498429298401,0.4840579926967621,-0.31471744179725647,-0.782884955406189,-0.4470997750759125,0.7307528853416443,0.7084490656852722,-0.26084187626838684,0.017498502507805824,-0.034122951328754425,-0.27057430148124695,-0.7688575387001038,-0.26776427030563354,-0.5315218567848206,-0.4505932629108429,0.32377609610557556,-0.10084916651248932,0.5944794416427612,-0.8412284851074219,0.1672939509153366,-0.7151121497154236,-0.2261527180671692,0.20296022295951843,-0.033523038029670715,0.3956451117992401,-0.02103598415851593,-0.5546593070030212,0.7033126354217529,0.2171912044286728,0.14400045573711395,-0.15438327193260193,-0.23198342323303223,0.025912385433912277,-0.09570298343896866,-0.4318743348121643,0.38389623165130615,0.26008665561676025,-0.37523582577705383,-0.13725309073925018,-0.4515429735183716,-0.23163537681102753,0.18660104274749756,-0.426360160112381,-0.778030276298523,-0.055052515119314194,-0.027942460030317307,0.2709343135356903,0.007053104229271412,-0.19726680219173431,0.30368921160697937,0.8058834671974182,0.005846984218806028,0.7970490455627441,-0.21668808162212372,0.05332860350608826,-0.2968287765979767,-0.4997534453868866,0.44623780250549316,-0.059636086225509644,-0.02589953877031803,-0.38344624638557434,-0.8521662950515747,0.433734267950058,0.009234027937054634,-0.3482423424720764,-0.054274555295705795,0.13219624757766724,-0.019150836393237114,0.2939397990703583,0.5088898539543152,-0.00037828274071216583,0.5994417071342468,0.415978342294693,0.05877729505300522,0.4610336124897003,-0.20855370163917542,-0.030531572178006172,-0.8336660265922546,0.8108450174331665,-0.3080422878265381,-0.026676230132579803,-0.21464383602142334,-0.5749175548553467,0.4795598089694977,-0.6548188328742981,-0.08872190117835999,-0.08977527171373367,-0.11294656991958618,-0.5220134258270264,-0.07473156601190567,0.4847240746021271,0.5170193314552307,0.32226747274398804,0.20793883502483368,-0.003965104464441538,0.27754324674606323,0.6426042318344116,-0.8389958143234253,0.3709048628807068,0.26025381684303284,-0.022270798683166504,-0.31249433755874634,0.1188972070813179,-0.15334419906139374,0.527416467666626,0.44084107875823975,0.29923689365386963,0.042836908251047134,0.17509500682353973,0.6555187702178955,-0.1653084009885788,-0.760340690612793,-0.3116590678691864,-0.10764941573143005,0.024808481335639954,0.5789003372192383,-0.2573354244232178,0.40198081731796265,-0.08998619765043259,0.453533411026001,0.6742035746574402,-0.10812196880578995,-0.3706972599029541,-0.24777711927890778,0.5542857646942139,0.18040111660957336,0.10306282341480255,-0.7382014989852905,-0.25669100880622864,-0.11877025663852692,0.3149203360080719,-0.732171356678009,-0.02449391782283783,-0.3156281113624573,0.34460529685020447,-0.33726802468299866,0.22043144702911377,-0.12804438173770905,0.02553110010921955,0.28126829862594604,-0.39335164427757263,0.3663586378097534,-0.6557871699333191,-0.6701732873916626,-0.7459795475006104,0.04693330079317093,0.531714916229248,-0.44493576884269714,0.7696554064750671,-0.05058295279741287,0.1732545644044876,-0.082484170794487,0.7094772458076477,-0.572376549243927,-0.5143105983734131,-0.038927529007196426,0.5969223976135254,0.5998130440711975,-0.1737801730632782,0.2186017781496048,-0.2664766311645508,0.1557350605726242,0.10492534190416336,-0.11198034137487411,-0.2669556140899658,-0.7860865592956543,0.09499309957027435,-0.46942073106765747,-0.2221439927816391,0.632544994354248,-0.06639444828033447,-0.2263534963130951,-0.14928849041461945,-0.6340757012367249,-0.5315371155738831,0.43921300768852234,0.07196317613124847,0.11556199193000793,0.27803561091423035,0.16471536457538605,0.4449238181114197,0.010278385132551193,0.4204091429710388,0.18007993698120117,-0.20163145661354065,-0.12853355705738068,0.3577287495136261,-0.1668347418308258,0.09080925583839417,0.9193865656852722,-0.6974239945411682,0.511618435382843,-0.37003329396247864,0.42304110527038574,-0.2952302396297455,0.16909155249595642,0.08317378908395767,-0.1230081245303154,-0.014140353538095951,0.0017357496544718742,0.6984196901321411,-0.24332107603549957,0.24029740691184998,0.4693124294281006,0.6261741518974304,0.15440243482589722,-0.35271647572517395,-0.08410212397575378,-0.06306266784667969,-0.14845669269561768,0.2560209035873413,0.3905659317970276,0.7406364679336548,-0.24814938008785248,-0.2428605854511261,0.7316713333129883,0.09431888163089752,0.577110230922699,-0.10521324723958969,-0.18448077142238617,0.21394240856170654,-0.011130965314805508,0.022046158090233803,-0.7672198414802551,-0.23315604031085968,-0.0993594378232956,-0.019288640469312668,-0.28808948397636414,0.23682934045791626,0.8176093101501465,-0.7735142707824707,0.2685886323451996,-0.7156690955162048,-0.7021067142486572,0.6333663463592529,0.07489902526140213,0.12353777885437012,0.8778496980667114,0.8239468336105347,-0.28053879737854004,-0.6031449437141418,-0.2176496833562851,0.2639816701412201,0.23439984023571014,-0.17496123909950256,-0.0033916798420250416,-0.11395926773548126,-0.5696315169334412,0.48942115902900696,-0.5090159177780151,0.28401586413383484,0.4686611592769623,-0.06597932428121567,-0.06291355937719345,0.4573412239551544,0.4640079438686371,-0.8237062692642212,-0.10718435794115067,-0.07790215313434601,-0.3139643371105194,-0.26590731739997864,0.4820520877838135,-0.8503361344337463,-0.3140659034252167,0.34402117133140564,-0.45880991220474243,0.7339948415756226,-0.48055627942085266,-0.24265733361244202,-0.6324296593666077,-0.2993544340133667,0.7818595767021179,0.732011079788208,0.028496885672211647,-0.0004324032925069332,-0.1685952991247177,-0.19273138046264648,0.5568309426307678,0.5927077531814575,0.24319200217723846,0.06518461555242538,-0.44289571046829224,-0.07980740815401077,-0.6864476799964905,0.24858519434928894,-0.47150129079818726,0.7849257588386536,-0.30313852429389954,-0.09308025985956192,-0.14101079106330872,-0.5339012145996094,-0.017890753224492073,0.20887520909309387,0.2446863353252411,0.1623874306678772,0.48305028676986694,-0.09878549724817276,0.4871918261051178,0.05487344041466713,-0.1774798482656479,-0.29711925983428955,0.3242969214916229,0.6765318512916565,0.5052366256713867,0.4375695288181305,0.6499400734901428,-0.16522932052612305,-0.011303186416625977,-0.4545702636241913,-0.2725302577018738,0.013946104794740677,0.22507981956005096,0.22607481479644775,0.02733364887535572,-0.603199303150177,0.4445849061012268,0.167069673538208,-0.09138239920139313,0.53496253490448,-0.056087616831064224,-0.6716504693031311,0.04525109380483627,-0.2502536177635193,0.3259204924106598,-0.16014060378074646,0.400221586227417,-0.3187743127346039,-0.2942550778388977,-0.5230549573898315,0.23456713557243347,-0.4748986065387726,0.42071306705474854,-0.4545198678970337,0.536925733089447,0.6312878131866455,-0.23827125132083893,0.06460502743721008,-0.27025067806243896,0.545570969581604,-0.1855129897594452,-0.5048187971115112,-0.3069617748260498,0.4780769348144531,-0.5219008922576904,-0.38812020421028137,0.6914187669754028,0.2443348914384842,0.7458826303482056,-0.6557538509368896,-0.3033040463924408,0.14303132891654968,0.5699578523635864,0.5875157117843628,0.17992039024829865,-0.2868506908416748,-0.12994714081287384,-0.4927065670490265,0.24829277396202087,-0.6786074042320251,-0.17654694616794586,0.02169598639011383,-0.3498891294002533,0.029493635520339012,-0.4442141354084015,0.11060366034507751,0.1082218587398529,-0.27742046117782593,0.6243548393249512,-0.1982303410768509,0.2604716420173645,0.07783874124288559,-0.3560108244419098,-0.18166251480579376,-0.4713629484176636,-0.008178471587598324,0.6123871207237244,-0.4105181396007538,0.47378087043762207,-0.17817524075508118,0.5446107983589172,0.1615309864282608,0.22198739647865295,-0.25969433784484863,-0.6506412029266357,-0.557351291179657,-0.546254575252533,0.28880774974823,-0.04879077151417732,-0.5731674432754517,0.09463860094547272,0.4231565594673157,-0.4753985106945038,-0.07581837475299835,-0.095220647752285,0.5253365635871887,0.31186869740486145,-0.5684778690338135,-0.7600801587104797,-0.24965262413024902,0.3205641806125641,0.09571532905101776,0.07497784495353699,0.3223972022533417,-0.7741036415100098,-0.4032023549079895,0.5279951691627502,-0.6562329530715942,0.6191991567611694,-0.6675565838813782,0.3725365698337555,-0.27670955657958984,0.6649513840675354,0.013315098360180855,-0.2927326560020447,-0.3451298177242279,-0.3361857235431671,-0.2263111025094986,0.2772531509399414,-0.29012179374694824,0.11770323663949966,-0.5460271835327148,-0.07792439311742783,-0.0743609368801117,-0.6564481854438782,-0.5740209221839905,0.4202577769756317,-0.6700260639190674,-0.21057863533496857,-0.228111132979393,0.13857293128967285,-0.25750771164894104,-0.3397374153137207,0.036856867372989655,0.6843138337135315,-0.5189136862754822,-0.13525159657001495,-0.23590698838233948,0.14712072908878326,0.5978721380233765,0.41693952679634094,-0.31203892827033997,-0.005141993518918753,0.749314546585083,0.4507933557033539,-0.10783864557743073,-0.3044377565383911,0.041312918066978455,0.10881131142377853,0.006627329625189304,0.5402892827987671,-0.5069170594215393,0.46743354201316833,-0.5364720225334167,0.17065365612506866,0.16502739489078522,0.6828728914260864,-0.18815161287784576,0.6107544302940369,-0.6146713495254517,-0.09968844056129456,-0.07559475302696228,0.2935858964920044,-0.19409354031085968,0.16726450622081757,0.08121830224990845,-0.297960489988327,-0.2085886150598526,-0.34270966053009033,-0.09953612834215164,-0.38993164896965027,-0.4152678847312927,0.9081236124038696,-0.48295703530311584,-0.1735776960849762,0.21297891438007355,0.041527606546878815,0.35667023062705994,0.28419607877731323,-0.09553706645965576,-0.4993094503879547,0.01778888702392578,0.19558687508106232,0.8163060545921326,-0.4544968605041504,0.816584587097168,0.1281985491514206,-0.2411549985408783,0.1840694695711136,-0.17901842296123505,0.33606624603271484,-0.2011641412973404,-0.05017518997192383,-0.4640384912490845,0.3971777558326721,0.2512223720550537,-0.5832952857017517,-0.0010460242629051208,0.26874735951423645,0.4878707826137543,0.18011339008808136,-0.5260038375854492,-0.2166561633348465,0.666045069694519,-0.6320908665657043,-0.2698616683483124,0.0032740640453994274,0.23801402747631073,-0.31250786781311035,0.6339106559753418,0.2620915174484253,-0.4569730758666992,-2.900604158639908e-06,-0.6003524661064148,-0.29247796535491943,0.41231122612953186,-0.7594943642616272,-0.4660130441188812,-0.32772549986839294,-0.5372606515884399,0.09990565478801727,0.0502982959151268,-0.158856600522995,-0.3354089558124542,0.6517953872680664,-0.21236644685268402,-0.6825289726257324,-0.005029295105487108,-0.21421751379966736,-0.4136282205581665,-0.3858659863471985,-0.3996732532978058,-0.5029618740081787,-0.3166976571083069,0.06853604316711426,-0.08576865494251251,-0.04147300869226456,-0.6694088578224182,0.18154652416706085,-0.00475397938862443,0.2811431884765625,-0.5610730648040771,0.4848059117794037,0.08024682104587555,0.8271872997283936,0.3466673195362091,0.1208934560418129,0.1358608901500702,0.5128414034843445,0.41025564074516296,0.3387356400489807,0.3140464723110199,-0.6606446504592896,0.062234580516815186,0.3168027400970459,-0.19988587498664856,-0.08698748052120209,-0.0917205810546875,0.45853036642074585,-0.16373495757579803,0.36305999755859375,0.337518572807312,-0.4441469609737396,-0.2704828977584839,-0.514448881149292,0.6717677116394043,-0.289539635181427,-0.010918188840150833,0.04298821836709976,-0.11428448557853699,-0.7671478390693665,-0.4375157058238983,0.3316440284252167,-0.24630136787891388,-0.45556679368019104,0.4575571119785309,0.09217022359371185,0.46237775683403015,0.2677950859069824,0.5096357464790344,0.1429172307252884,0.48589539527893066,-0.04012993723154068,0.6495981812477112,0.4407161772251129,0.2752831280231476,0.1728152483701706,0.39820003509521484,0.1964963972568512,-0.270692378282547,-0.46468764543533325,-0.5189157128334045,0.1863841861486435,0.2270357757806778,-0.5801446437835693,0.5135170817375183,-0.11054542660713196,-0.18080930411815643,0.273034930229187,0.583161473274231,-0.35808631777763367,-0.2027968317270279,0.20300136506557465,-0.7066730856895447,0.41379112005233765,-0.4183797836303711,-0.07353778183460236,0.8387182950973511,0.5327187180519104,-0.4512978792190552,-0.1037113294005394,-0.019548611715435982,0.2514442503452301,0.8535314798355103,-0.35278359055519104,-0.006992247886955738,0.17432844638824463,-0.39888066053390503,0.0968264564871788,-0.3566855788230896,-0.03980448469519615,-0.20047710835933685,-0.42370668053627014,-0.5943397283554077,0.10593654960393906,0.07840536534786224,0.029379691928625107,-0.014397885650396347,-0.5111286640167236,-0.28968796133995056,-0.31385713815689087,-0.2562306225299835,0.22333595156669617,-0.6998661756515503,0.12082888931035995,-0.0724867507815361,0.2499275505542755,0.04088153317570686,-0.1693195104598999,0.5637676119804382,0.5079998970031738,0.15097452700138092,0.054299596697092056,0.3507554531097412,0.46099287271499634,0.35344380140304565,0.3181213140487671,0.04867897182703018,-0.014312243089079857,-0.20016618072986603,0.04770400747656822,-0.2746216058731079,0.18950708210468292,-0.41574156284332275,-0.14073458313941956,0.2246910035610199,0.299731582403183,0.17569585144519806,0.348882257938385,0.08744895458221436,0.15544991195201874,-0.23944860696792603,-0.42597976326942444,-0.4610450267791748,0.09946770966053009,0.08465506881475449,-0.389851450920105,0.13579437136650085,0.03759222850203514,0.04579012095928192,0.5318760871887207,0.4113900363445282,0.3895000219345093,0.21594101190567017,-0.5627439618110657,0.18504610657691956,-0.8399384021759033,-0.5092386603355408,-0.24615396559238434,0.40424439311027527,-0.1352560669183731,0.15163768827915192,-0.16176258027553558,-0.2567535936832428,0.20658063888549805,0.5721288323402405,0.4648631811141968,-0.19464324414730072,0.9623857140541077,-0.4333771765232086,0.5005449056625366,0.19698356091976166,-0.4557882845401764,-0.267511785030365,0.5250035524368286,0.005651890300214291,0.007629313040524721,0.4879053235054016,0.13989537954330444,0.21454602479934692,-0.16799567639827728,-0.3022642433643341,0.5596792101860046,0.4330032169818878,0.2760505974292755,0.15061788260936737,0.13975806534290314,-0.22200924158096313,0.11896679550409317,-0.02703733742237091,-0.5974892973899841,-0.11835543066263199,0.20444869995117188,-0.5114870667457581,0.11602350324392319,-0.17510876059532166,-0.6257297396659851,0.576038658618927,0.5132688879966736,0.3196885585784912,0.15245980024337769,-0.013540660962462425,0.027388660237193108,0.0747254267334938,0.21615560352802277,-0.24716776609420776,-0.3206786513328552,-0.19140146672725677,0.0014480547979474068,0.09599166363477707,0.36615774035453796,-0.4239369034767151,0.14472809433937073,0.10267528146505356,0.17203538119792938,0.09672199934720993,0.09543340653181076,-0.20368221402168274,-0.3233613669872284,0.31231796741485596,0.1980823427438736,0.09604793041944504,-0.13828401267528534,-0.08052202314138412,0.21342779695987701,-0.03132633864879608,-0.08320329338312149,-0.1003725454211235,0.1713717132806778,-0.36764299869537354,-0.7090906500816345,0.6456280946731567,-0.7050302028656006,0.4271405339241028,0.7428591847419739,0.05833866074681282,-0.12906716763973236,0.057748761028051376,-0.5337176322937012,0.3449792265892029,0.03423639014363289,0.08090123534202576,0.23260246217250824,0.7681739926338196,0.260488361120224,0.3165029287338257,0.09804839640855789,0.6841098070144653,-0.48791563510894775,0.36381834745407104,0.9414200782775879,-0.0941796824336052,0.6666873097419739,-0.4281728267669678,0.5671890377998352,0.4459817409515381,-0.38033315539360046,-0.8569840788841248,0.3510936200618744,0.03845026344060898,0.250767320394516,-0.46571093797683716,-0.18523558974266052,-0.6690418124198914,0.7317721843719482,-0.846223771572113,-0.2120765596628189,-0.5021121501922607,0.0790305957198143,-0.2519465684890747,-0.5654468536376953,0.37486693263053894,-0.7826719880104065,0.04115091264247894,0.14141026139259338,-0.27095741033554077,-0.3808247447013855,-0.05506766214966774,0.03288493677973747,0.35560524463653564,-0.31707555055618286,0.2669368088245392,-0.2701142728328705,-0.5160788297653198,-0.0757976621389389,-0.08093640208244324,-0.613743245601654,0.2722965478897095,0.2904558777809143,-0.2962940037250519,0.37694916129112244,0.0325225330889225,0.35220226645469666,0.5028642416000366,-0.3611800968647003,-0.14183056354522705,-0.3528640866279602,0.3193899691104889,0.2372933179140091,-0.09619350731372833,0.4899093806743622,-0.3509831428527832,-0.9359849095344543,0.21830032765865326,-0.16688401997089386,0.5636929273605347,-0.7723985910415649,0.06071097403764725,0.06872948259115219,-0.4075073301792145,0.1994582712650299,0.36465373635292053,-0.17989490926265717,-0.5099631547927856,-0.13331113755702972,0.3689902424812317,-0.5594069957733154,-0.47779205441474915,-0.45322462916374207,-0.7406785488128662,0.2025282233953476,-0.2996945083141327,0.27840304374694824,-0.5582655072212219,-0.5290495157241821,-0.3023318350315094,0.03176535665988922,-0.018836945295333862,-0.4614720344543457,0.1594940721988678,-0.1013580709695816,-0.36880791187286377,0.2729507088661194,0.32267719507217407,0.15367665886878967,0.3875388503074646,-0.7648307085037231,-0.3436661958694458,-0.2960911989212036,-0.4910145103931427,0.35925254225730896,-0.10645458102226257,0.7134547233581543,-0.32837769389152527,0.9303027391433716,0.22122183442115784,0.3320305645465851,-0.1146010234951973,0.3373766243457794,0.29565611481666565,-0.07699687033891678,-0.2807483971118927,-0.962704062461853,-0.1512165069580078,-0.45905473828315735,-0.36598578095436096,-0.0072854505851864815,0.19208578765392303,-0.41684162616729736,-0.003553146030753851,0.4289320111274719,-0.5579083561897278,0.5969529747962952,-0.2202066034078598,0.2948198616504669,-0.35549867153167725,0.22232556343078613,0.0547177717089653,0.5913951396942139,0.7576044201850891,-0.6040230989456177,-0.05860389769077301,0.37201789021492004,-0.35977140069007874,0.5291542410850525,0.8520252108573914,0.15377148985862732,-0.7646418213844299,-0.04085354506969452,-0.15229976177215576,0.5464866161346436,-0.2994915246963501,-0.09883008897304535,-0.25905245542526245,0.4610917866230011,0.04109976068139076,0.21389028429985046,-0.7917523384094238,-0.2804286479949951,0.9611397981643677,-0.5454444289207458,-0.03164542093873024,-0.8360748887062073,-0.2058088779449463,-0.31876128911972046,-0.830873966217041,0.10740812867879868,0.46019235253334045,0.7459187507629395,-0.19626477360725403,-0.47343379259109497,0.8620870113372803,-0.0007020500488579273,-0.4350375831127167,-0.8084145784378052,0.5530794262886047,-0.3468587100505829,-0.26463595032691956,-0.03148335590958595,0.5240089893341064,0.765457272529602,0.3347185254096985,-0.02130528911948204,0.08917145431041718,0.3860555589199066,0.014367376454174519,0.4634573459625244,0.22761398553848267,-0.01385900191962719,-0.833681583404541,-0.6115446090698242,0.393871545791626,-0.41775643825531006,0.25756916403770447,-0.1742277294397354,0.09538772702217102,0.5489938259124756,0.04065477102994919,-0.439053475856781,0.5239199995994568,-0.35051262378692627,-0.20326153934001923,0.3401850163936615,0.3546971082687378,-0.24306179583072662,-0.20583808422088623,0.0409357063472271,0.6920050978660583,0.7936816215515137,0.3054209053516388,-0.33907195925712585,0.3632734417915344,0.07061418145895004,-0.15972404181957245,0.225957453250885,0.6219397783279419,-0.27455317974090576,0.2774437367916107,0.1489911526441574,0.48331621289253235,-0.4119517505168915,0.4795092046260834,-0.6010533571243286,-0.2612754702568054,0.15681953728199005,0.31338798999786377,0.21912454068660736,-0.7460373640060425,0.14779362082481384,0.33334222435951233,0.2008809596300125,-0.18465189635753632,-0.4815691113471985,-0.09477926045656204,-0.438813179731369,0.21023662388324738,0.21946506202220917,0.5856776833534241,-0.877486526966095,0.33872294425964355,-0.2140018492937088,0.14652910828590393,-0.24937570095062256,0.06624932587146759,-0.09469601511955261,-0.44294875860214233,0.7391413450241089,0.6850824356079102,0.07200862467288971,-0.05087687075138092,-0.2218105047941208,-0.36644986271858215,-0.16652461886405945,-0.06418800354003906,-0.701167643070221,0.2556765079498291,0.10449937731027603,-0.49246934056282043,-0.43533846735954285,0.1746644824743271,0.3899393081665039,0.10296563059091568,-0.041559528559446335,-0.23258022964000702,-0.08039937913417816,-0.004572167061269283,0.017499364912509918,0.5016795992851257,-0.117420993745327,0.4061603546142578,-0.49157583713531494,0.5150408744812012,0.09006725251674652,0.0377776101231575,0.5929850339889526,0.4814869463443756,-0.5740382075309753,0.05914575979113579,-0.03151600435376167,0.5609115958213806,0.17862799763679504,0.626734733581543,0.8224560618400574,0.41622334718704224,-0.3028947412967682,0.48532959818840027,0.22324390709400177,0.08017335832118988,-0.08291544020175934,-0.03165013715624809,0.5808809995651245,0.4512633979320526,-0.5822028517723083,-0.5034343600273132,-0.2754042148590088,0.6377405524253845,-0.21840910613536835,-0.4975350797176361,0.16945317387580872,0.37564072012901306,0.13175223767757416,0.11175055801868439,-0.2956176996231079,-0.6436730027198792,0.2937987148761749,-0.02847331389784813,0.08811185508966446,-0.22730794548988342,-0.6597409248352051,-0.2859894633293152,0.31817880272865295,-0.0772089883685112,0.12848515808582306,-0.21165363490581512,0.6403576731681824,-0.5235008001327515,-0.3037378191947937,-0.5818473696708679,-0.13718362152576447,-0.9218381643295288,-0.8397698998451233,0.5825983285903931,0.3713701367378235,0.6119653582572937,0.08479578793048859,0.6971389055252075,0.2751753330230713,0.07258178293704987,-0.8786882162094116,0.1914178729057312,-0.5141246914863586,0.6805157661437988,0.8681999444961548,-0.3168609142303467,-0.42239826917648315,0.5402259826660156,0.6249473094940186,0.5129299163818359,0.16556906700134277,0.2217586636543274,0.030310027301311493,-0.40237054228782654,0.7456667423248291,0.09545629471540451,0.08141034841537476,-0.5494955778121948,0.07476957142353058,-0.7910319566726685,0.2246479094028473,0.46874862909317017,-0.6950385570526123,0.45000961422920227,-0.3416506052017212,-0.04546521231532097,0.6316016316413879,-0.47309941053390503,0.7291067242622375,-0.33203768730163574,0.41000959277153015,0.07681258767843246,-0.17795318365097046,0.22135639190673828,0.3652985692024231,0.18258409202098846,0.09073062241077423,-0.6505498290061951,-0.04780225455760956,-0.7776508927345276,0.1035497710108757,0.03121771290898323,-0.42676496505737305,0.3126572072505951,-0.07409906387329102,-0.32082822918891907,-0.2585490942001343,0.23042361438274384,-0.25714895129203796,0.4049134850502014,-0.8754108548164368,-0.787307620048523,0.10687284171581268,0.42112690210342407,-0.06890890002250671,-0.1998199075460434,0.24690333008766174,0.3759298622608185,0.0860820785164833,-0.2864190340042114,0.02939482219517231,0.5538323521614075,-0.0003831349313259125,0.25449138879776,-0.567624568939209,-0.3385401964187622,0.0012886677868664265,0.01163405366241932,0.0826587900519371,-0.018964897841215134,0.6387194991111755,0.2104680985212326,-0.2837858200073242,-0.4526306390762329,0.5290362238883972,-0.3438965380191803,-0.4459296762943268,-0.292959988117218,0.8580877184867859,0.08880716562271118,0.2322566658258438,0.49420100450515747,-0.3288177251815796,-0.8068639636039734,0.6442878842353821,-0.6675510406494141,0.35718879103660583,0.22118176519870758,0.20870251953601837,-0.5228036642074585,0.6196820139884949,-0.2596565783023834,-0.08787470310926437,-0.5994832515716553,-0.12933506071567535,-0.29363593459129333,-0.14518743753433228,0.10024036467075348,-0.38280346989631653,-0.08412433415651321,-0.4663706421852112,-0.06374802440404892,-0.20323443412780762,-0.9134013056755066,0.17162959277629852,-0.03822652995586395,0.09921443462371826,0.2630561888217926,-0.8935506939888,-0.5045451521873474,0.7322471737861633,-0.6810253262519836,-0.362673819065094,-0.18789120018482208,0.3642576038837433,0.4049716591835022,0.4687325954437256,-0.4262215197086334,0.5782706141471863,-0.8186488151550293,-0.2515348494052887,0.21938075125217438,0.548366129398346,-0.5975574851036072,0.020919304341077805,0.6161977648735046,0.061481744050979614,0.7469804286956787,0.23219729959964752,0.22088250517845154,0.49895331263542175,0.3947615325450897,-0.8354313373565674,0.5266773700714111,0.4734496772289276,-0.6654232740402222,0.6478114128112793,0.2856626808643341,-0.3078136742115021,-0.13811062276363373,-0.5069237947463989,-0.2650974690914154,0.3618806004524231,0.016571540385484695,0.9122127294540405,-0.18669931590557098,-0.07169406861066818,-0.37764763832092285,0.5743259191513062,-0.543758749961853,0.08747372031211853,0.5731286406517029,-0.28980541229248047,-0.686525821685791,0.44524863362312317,0.4239228665828705,0.28694161772727966,-0.6746078729629517,0.18258632719516754,-0.3577216863632202,0.14408394694328308,-0.19790689647197723,0.01873893477022648,0.20501387119293213,-0.09261234104633331,0.7515589594841003,0.44842028617858887,0.5020124316215515,0.2832825481891632,-0.09318121522665024,0.6600077152252197,0.3474668264389038,-0.5593948364257813,0.11392700672149658,0.393967866897583,-0.04471559822559357,0.025700271129608154,-0.3036273419857025,-0.16630493104457855,0.007426636293530464,-0.24184675514698029,0.3780952990055084,-0.18237872421741486,-0.8841661810874939,-0.7012842297554016,0.009867342188954353,-0.3414008915424347,0.37844887375831604,0.011555671691894531,-0.12911149859428406,-0.1755979061126709,-0.19218865036964417,-0.7796627879142761,0.05850604549050331,0.14263129234313965,0.09426843374967575,0.02623968943953514,0.5257633924484253,0.13882285356521606,0.35016459226608276,-0.07240281254053116,-0.2632558047771454,0.25219646096229553,-0.294189989566803,-0.22843584418296814,-0.4057369530200958,0.046643178910017014,0.14516524970531464,-0.14320486783981323,-0.09964381158351898,0.0774688795208931,-0.784061074256897,0.14041757583618164,-0.4032468795776367,0.16667430102825165,-0.15989606082439423,-0.21104586124420166,0.3077925145626068,-0.4946269690990448,-0.1720520555973053,0.17545871436595917,0.6619918346405029,-0.3219856321811676,-0.12277398258447647,0.8353834748268127,0.039572976529598236,-0.84760582447052,0.1821926087141037,0.7979841828346252,0.13619263470172882,-0.333187997341156,-0.05488259717822075,-0.47137385606765747,-0.41423556208610535,0.08230502903461456,0.5084207653999329,0.3125479817390442,0.09183596819639206,0.5267329812049866,0.13622935116291046,0.11226297169923782,-0.6660839319229126,-0.4472697973251343,0.7117189764976501,0.5133960843086243,-0.9088580012321472,0.45312291383743286,-0.12768596410751343,0.8289903998374939,0.5356630086898804,-0.5005859136581421,0.26468661427497864,-0.42131370306015015,-0.8255118131637573,-0.667798638343811,0.6558263301849365,0.13663989305496216,0.0897924154996872,0.39006155729293823,0.18241900205612183,-0.6722332835197449,0.50662761926651,0.3884686529636383,-0.06316769123077393,-0.21964499354362488,0.35922786593437195,-0.6990026831626892,-0.4936782121658325,0.34516432881355286,-0.5271287560462952,-0.02210807427763939,-0.04615628346800804,0.08947940170764923,-0.46272432804107666,-0.7167295217514038,0.13242557644844055,0.29439792037010193,-0.07397180795669556,-0.13885755836963654,-0.3111763596534729,0.4222041368484497,0.25947049260139465,-0.5508168935775757,-0.0434749461710453,-0.2462158054113388,0.2462472766637802,0.277883380651474,0.45264071226119995,-0.13441947102546692,0.5175456404685974,0.5822780728340149,-0.13964597880840302,0.012085072696208954,-0.5071848034858704,0.7284481525421143,-0.42961329221725464,0.29299330711364746,0.6189028024673462,0.2679060995578766,-0.28124508261680603,0.04229415953159332,0.08006167411804199,-0.6478633284568787,-0.19368217885494232,0.3589211702346802,-0.21310600638389587,0.10466131567955017,-0.2532291114330292,0.2927626967430115,0.47497764229774475,0.04250413924455643,0.41167932748794556,-0.6712768077850342,-0.8480449318885803,0.2922361493110657,0.5070717334747314,-0.056137122213840485,0.6890222430229187,0.47026029229164124,-0.11241739988327026,-0.02574869617819786,-0.12730145454406738,-0.42250460386276245,0.2966192066669464,0.029190346598625183,0.28387266397476196,0.6416831016540527,-0.333408921957016,-0.45104625821113586,-0.40760090947151184,0.7664016485214233,0.3798424005508423,0.43777891993522644,0.07891924679279327,0.39465591311454773,0.40347421169281006,-0.25215885043144226,-0.5315351486206055,-0.6191349625587463,0.33590319752693176,0.8424819707870483,0.5725981593132019,-0.02613196335732937,0.1415683776140213,-0.10828498005867004,0.10759692639112473,0.6519237756729126,0.693562388420105,-0.4702456593513489,0.13972830772399902,-0.4116919934749603,-0.2486719936132431,-0.33792778849601746,0.3698727786540985,-0.12041918933391571,0.9004094004631042,-0.3037515878677368,-0.6154883503913879,-0.07699228823184967,0.24468538165092468,0.32004180550575256,-0.7834476828575134,0.5281514525413513,-0.48927217721939087,-0.34330084919929504,-0.6149716973304749,-0.28153514862060547,-0.439190536737442,-0.06571303308010101,-0.701917290687561,0.8618829250335693,-0.08378055691719055,-0.23307718336582184,0.27989131212234497,0.3278077244758606,-0.26689180731773376,0.6061292886734009,-0.4258633852005005,0.21142493188381195,-0.1579292267560959,0.3625870645046234,0.7054524421691895,-0.7104411125183105,0.20411370694637299,0.440681129693985,0.8390589952468872,-0.08499812334775925,-0.008969821035861969,0.25146540999412537,-0.3279578685760498,0.23269127309322357,-0.08194200694561005,-0.02984473668038845,0.04107140377163887,0.38041776418685913,-0.5469470024108887,-0.16147401928901672,-0.3269958198070526,0.21785607933998108,-0.0023658620193600655,0.42952990531921387,-0.4946688711643219,-0.23973765969276428,-0.1350644826889038,-0.08422603458166122,-0.43411338329315186,0.7808261513710022,0.4766472280025482,-0.19385415315628052,-0.14392508566379547,0.46867984533309937,-0.8554199934005737,0.24635450541973114,-0.8523403406143188,0.7482471466064453,0.081383615732193,0.04861036315560341,0.4467880129814148,0.29322442412376404,-0.3381560444831848,0.4062530994415283,0.03767096996307373,-0.15932755172252655,-0.24057365953922272,0.09349040687084198,-0.16762033104896545,0.23015540838241577,-1.9441358745098114e-05,0.3069674074649811,-0.23929119110107422,0.36936286091804504,0.023487268015742302,-0.4383143484592438,0.2683357894420624,0.06686297059059143,-0.6721814274787903,-0.02761235274374485,-0.2131461650133133,-0.1979653537273407,0.009748664684593678,0.49541884660720825,0.09471333026885986,0.43049195408821106,0.0006228098645806313,0.6156461834907532,-0.5174494981765747,-0.5139262676239014,0.6677550077438354,-0.17446132004261017,-0.06052369624376297,-0.9306817054748535,0.6121917366981506,-0.3137235641479492,0.5405711531639099,0.23574413359165192,0.6488886475563049,0.20405685901641846,-0.03211110085248947,0.7277277112007141,0.4038807153701782,-0.02759886160492897,-0.6430485248565674,0.006433461792767048,0.25390928983688354,-0.19914986193180084,-0.04812481626868248,0.34431174397468567,0.058045461773872375,-0.42779386043548584,-0.10109303146600723,0.3832237124443054,-0.11138316988945007,-0.42016685009002686,0.3232250213623047,-0.04952293634414673,0.0298018641769886,-0.0308338962495327,-0.7752246856689453,-0.7585216164588928,-0.40727943181991577,0.49720498919487,0.006405008491128683,0.38228315114974976,-0.233766570687294,-0.21887527406215668,0.6065000891685486,0.0002981647849082947,-0.3198586106300354,0.0315093956887722,-0.1696740686893463,0.4454541504383087,-0.8074020743370056,0.19909870624542236,0.07771725952625275,-0.4311535060405731,-0.28342294692993164,-0.18578758835792542,-0.04397470876574516,0.12110189348459244,-0.11855141818523407,0.6285077333450317,0.2624984085559845,0.33312419056892395,-0.5906003713607788,0.21061967313289642,0.12433207035064697,-0.2844046950340271,-0.7190006375312805,0.687130331993103,-0.29235896468162537,-0.5044192671775818,0.32558512687683105,0.08738680183887482,-0.13342438638210297,0.2835313081741333,-0.027923859655857086,-0.5207933187484741,-0.2553480565547943,-0.5493268966674805,-0.5790088176727295,0.11357896775007248,0.028814811259508133,-0.5680713057518005,-0.712466835975647,-0.16806139051914215,0.20530648529529572,0.07718835026025772,-0.5207341909408569,0.07842230051755905,-0.6008915901184082,0.06247242912650108,-0.7308254241943359,-0.13700847327709198,0.3812192678451538,-0.08300160616636276,-0.016329193487763405,0.25422224402427673,0.483614057302475,0.5784323811531067,0.8077684044837952,0.2035529762506485,0.7527274489402771,-0.09672938287258148,-0.23948721587657928,0.2427724301815033,0.4186820089817047,0.4868724048137665,-0.424792617559433,-0.24069789052009583,-0.7347335815429688,0.5848745703697205,0.2458062469959259,0.10627501457929611,-0.05895771086215973,-0.3091805875301361,0.1990204006433487,0.30491358041763306,0.07067300379276276,0.7131335735321045,-0.5585212111473083,-0.052724141627550125,0.22622372210025787,-0.527311384677887,0.7479126453399658,0.43950366973876953,0.7689831256866455,-0.041940879076719284,0.8458630442619324,-0.16988806426525116,0.43056780099868774,0.19196192920207977,0.21176955103874207,-0.16525574028491974,0.26246827840805054,-0.013983193784952164,0.38661354780197144,-0.5947974324226379,0.18244537711143494,0.4784396290779114,-0.30193009972572327,0.7519711852073669,0.5842984318733215,-0.4237150251865387,0.27462857961654663,0.0469154417514801,-0.6248562335968018,-0.3126242160797119,0.5208415985107422,0.21799945831298828,0.4703245162963867,-0.8845773339271545,-0.09479852765798569,0.6007020473480225,0.17100970447063446,-0.5300130844116211,0.3927408456802368,-0.4285513162612915,-0.1403743177652359,0.21589568257331848,-0.47895577549934387,-0.14317716658115387,0.5896806716918945,-0.08688908815383911,-0.04029726982116699,-0.3777906894683838,-0.7016497254371643,-0.013495013117790222,-0.04721035808324814,0.5812414884567261,-0.32164502143859863,0.7975966334342957,-0.7473407983779907,0.40963780879974365,-0.2910481095314026,0.009737739339470863,-0.40172407031059265,0.17208535969257355,-0.1294887363910675,0.7396118640899658,-0.47266703844070435,-0.8278186917304993,-0.2690627872943878,0.17981360852718353,-0.3099108934402466,0.7009596228599548,0.4085856080055237,0.24330362677574158,0.37612515687942505,-0.3126191794872284,0.21264243125915527,0.4767179489135742,-0.2157444953918457,-0.6246291399002075,-0.10981882363557816,0.46980515122413635,0.08835460990667343,0.8244200348854065,0.1419791430234909,0.33529040217399597,-0.6449041962623596,-0.2932398021221161,0.3617396652698517,-0.4431641697883606,-0.6101481914520264,0.12711845338344574,0.1038258969783783,0.059673257172107697,-0.1597396284341812,-0.18634124100208282,-0.0030311793088912964,0.8204566240310669,0.46692904829978943,0.3409925401210785,0.11534371972084045,-0.3375397324562073,-0.1207231655716896,-0.22004587948322296,0.2944653034210205,-0.19056910276412964,-0.7178603410720825,-0.7677386999130249,-0.46157076954841614,0.3264532685279846,-0.0030877459794282913,0.020226944237947464,0.4889397621154785,0.056349772959947586,-0.7057892680168152,0.07395687699317932,-0.10427433252334595,-0.686250627040863,-0.3654859662055969,-0.08235824853181839,0.09300106763839722,-0.153667151927948,0.003444609697908163,0.4523961544036865,-0.7286355495452881,0.12402715533971786,0.8050429224967957,-0.4847763776779175,-0.17902840673923492,0.3426111042499542,0.5808296799659729,0.6288706660270691,-0.42435646057128906,0.6046374440193176,0.9725732803344727,-0.2708543837070465,-0.6789279580116272,-0.6170190572738647,-0.3206160366535187,-0.5597939491271973,0.1690818965435028,0.1581578254699707,-0.8000262379646301,-0.4122522175312042,0.1369619071483612,-0.6018094420433044,0.10097594559192657,0.6092487573623657,0.1309317946434021,-0.516141951084137,0.5141651034355164,0.09782037138938904,-0.11421224474906921,0.4778609871864319,-0.3363235592842102,-0.09380308538675308,-0.0641859695315361,0.34826892614364624,-0.7002125978469849,0.04268837347626686,0.08395081758499146,-0.10813336819410324,-0.24610471725463867,0.4886080324649811,0.08943013101816177,-0.10947687923908234,-0.32591795921325684,0.2823769152164459,0.23864491283893585,-0.44044703245162964,-0.2245672196149826,0.49362438917160034,-0.12647105753421783,0.18796400725841522,0.2238938957452774,0.3547140955924988,0.20275871455669403,-0.1307118535041809,-0.313618004322052,0.27333664894104004,-0.3817997872829437,0.31226831674575806,0.23435412347316742,0.3301377296447754,0.5647807121276855,-0.24791419506072998,0.022496402263641357,-0.00035107508301734924,0.6686713099479675,0.3099958002567291,0.7960683703422546,0.17335577309131622,-0.5682948231697083,-0.24444817006587982,0.20438478887081146,0.7979900240898132,0.6090958118438721,-0.07248303294181824,0.029561061412096024,-0.4239266812801361,0.3100464940071106,-0.23746679723262787,-0.6117140054702759,0.29466694593429565,-0.46365225315093994,-0.33854079246520996,0.5466676354408264,0.17093829810619354,-0.2593226134777069,0.38600224256515503,0.1871379017829895,-0.5889689326286316,-0.06923875957727432,-0.09725789725780487,-0.4518277943134308,0.03481700271368027,-0.6870419979095459,0.027132993564009666,-0.023608846589922905,0.22122561931610107,-0.2671254277229309,-0.5469856262207031,-0.09282344579696655,-0.1749943196773529,0.2938777804374695,-0.06557360291481018,-0.2748180627822876,0.3697457015514374,0.4479595720767975,-0.027074234560132027,0.37715965509414673,-0.061885297298431396,0.15392158925533295,-0.045349255204200745,0.1293012648820877,0.7030358910560608,-0.04906831681728363,-0.38059186935424805,0.006948068737983704,0.6615535020828247,-0.16613337397575378,-0.5207845568656921,0.23079070448875427,-0.4601675570011139,-0.601639986038208,-0.2147749960422516,-0.19241075217723846,0.29428011178970337,0.03182421252131462,-0.10093231499195099,-0.49332934617996216,-0.4451374411582947,0.0044719018042087555,0.17409951984882355,-0.3254987895488739,0.24778401851654053,-0.4410708546638489,0.09505616873502731,0.25087210536003113,-0.10370872914791107,0.2072143703699112,-0.41107022762298584,0.568581223487854,0.5360050201416016,-0.17645861208438873,0.19086840748786926,-0.13990776240825653,0.01698295772075653,0.17405471205711365,0.7808167934417725,-0.02344675175845623,0.009277589619159698,0.9111659526824951,0.2529156804084778,-0.7965291738510132,0.46104440093040466,-0.47482776641845703,0.3202393352985382,0.10322262346744537,-0.13442794978618622,0.3598329722881317,-0.02760155312716961,0.13769282400608063,0.5836697816848755,-0.1216719001531601,-0.2630513608455658,0.33990076184272766,-0.24501171708106995,0.0012514996342360973,-0.5466177463531494,-0.29607537388801575,0.6176810264587402,-0.5216412544250488,0.262201189994812,0.6187847256660461,-0.20090337097644806,0.16903138160705566,0.22803933918476105,-0.16061316430568695,0.0008789175190031528,-0.5935510396957397,0.33540669083595276,0.34072810411453247,-0.010864879935979843,-0.2325206845998764,0.1069672480225563,0.7161285281181335,0.1420077085494995,0.2566148340702057,-0.0758092924952507,0.5158076882362366,0.4476253390312195,0.22992782294750214,-0.0632818341255188,0.43466272950172424,0.23562897741794586,-0.41882720589637756,-0.09774427860975266,0.3667924106121063,0.8341103792190552,0.053498901426792145,-0.397582471370697,-0.03345394879579544,-0.8075403571128845,0.06838610768318176,-0.32558828592300415,0.19798040390014648,0.2640226185321808,-0.31857234239578247,-0.12666480243206024,-0.19031129777431488,-0.13785451650619507,-0.22789441049098969,0.2837497293949127,0.5464843511581421,0.5271417498588562,-0.44511234760284424,-0.12269672751426697,-0.3066388964653015,0.5134108066558838,-0.08644866198301315,-0.1607426255941391,-0.46810445189476013,0.17066912353038788,0.4888492524623871,0.025445789098739624,-0.06884897500276566,0.5869674682617188,0.2527296245098114,0.4000019133090973,0.17619842290878296,-0.06850410252809525,-0.18639738857746124,0.5107941627502441,-0.2052929550409317,0.41897720098495483,0.008097587153315544,-0.3147302567958832,0.2320774793624878,-0.4757264256477356,0.49215376377105713,-0.1375580132007599,0.13897274434566498,0.12134993076324463,0.2134602814912796,-0.12406931072473526,0.6675866842269897,-0.2751864790916443,0.8189319372177124,0.15318767726421356,0.615626335144043,-0.6118302345275879,0.5725285410881042,-0.062487706542015076,0.37732186913490295,0.5387224555015564,-0.7981052994728088,0.0036238282918930054,-0.02955591306090355,-0.7221936583518982,0.5083513855934143,-0.35829347372055054,0.2719365358352661,0.1747158318758011,0.05039730295538902,-0.4442206919193268,-0.556484043598175,0.23956270515918732,-0.3120347857475281,-0.2437504380941391,-0.04430219531059265,0.1498473882675171,0.377760648727417,-0.3989870548248291,-0.635613203048706,0.7544825077056885,0.36027923226356506,-0.0575721301138401,0.8105812072753906,-0.7796013951301575,0.08451962471008301,-0.025418484583497047,0.0846988707780838,-0.629962146282196,0.563105583190918,-0.18681764602661133,-0.5727740526199341,-0.1646103858947754,-0.30320504307746887,0.11979056149721146,-0.3751533031463623,0.7756358981132507,-0.911504328250885,0.13090559840202332,0.2897948920726776,0.828922688961029,-0.1202346533536911,-0.2682603597640991,0.11358238756656647,-0.049786753952503204,0.12402013689279556,0.27614161372184753,0.2762644588947296,0.02071109041571617,-0.12850503623485565,0.36604365706443787,-0.664639949798584,-0.26577290892601013,-0.23554964363574982,0.06670956313610077,-0.14039984345436096,-0.25950363278388977,0.19340667128562927,0.10264205187559128,0.09338875859975815,-0.4556500315666199,-0.820393443107605,0.038317833095788956,0.6215051412582397,-0.7151539325714111,0.08992495387792587,-0.24731504917144775,-0.19607014954090118,0.3529917299747467,0.4165055453777313,-0.15492811799049377,0.14979325234889984,0.1576084941625595,-0.3574260175228119,-0.008129141293466091,0.3448907732963562,0.24429698288440704,-0.4197561740875244,0.46098360419273376,-0.083475761115551,0.041128937155008316,-0.35627275705337524,0.11068323999643326,-0.33841201663017273,-0.18138450384140015,-0.8659663796424866,-0.16430972516536713,-0.7919500470161438,-0.18818709254264832,-0.528965950012207,-0.30499371886253357,0.06685366481542587,0.5497942566871643,-0.613164484500885,0.306852787733078,0.4124898314476013,0.2989732027053833,0.07602808624505997,0.5547900795936584,-0.27230945229530334,0.16619296371936798,-0.6299631595611572,0.19880737364292145,-0.4382212460041046,-0.48332178592681885,0.7967863082885742,0.13254058361053467,-0.6088143587112427,0.6282330751419067,-0.2938677668571472,-0.2286616712808609,-0.7000225782394409,-0.32409536838531494,-0.019245238974690437,0.4562540352344513,-0.61053866147995,-0.44362249970436096,0.23358820378780365,0.7668200731277466,-0.11464125663042068,-0.0022438345476984978,0.25238579511642456,0.6312211751937866,-0.04447087645530701,0.11461620777845383,0.29750317335128784,0.3752909004688263,0.4180688261985779,-0.12368640303611755,-0.04030793905258179,-0.3910280168056488,0.474275678396225,-0.08699522167444229,-0.9107846021652222,-0.013914234936237335,-0.4930955171585083,-0.3852134346961975,-0.637649416923523,0.650498628616333,-0.4311050474643707,-0.4007548689842224,0.25062432885169983,-0.15010276436805725,0.48776787519454956,0.4462893009185791,0.14981713891029358,-0.25105196237564087,-0.24924078583717346,0.12261443585157394,-0.017483307048678398,-0.850556492805481,0.4174065887928009,-0.21727116405963898,0.19331520795822144,-0.18928848206996918,-0.1400606483221054,0.004904743283987045,-0.4343547821044922,0.03165164217352867,0.2566052973270416,-0.11532420665025711,0.2324448823928833,0.8630606532096863,0.3174683153629303,0.18371818959712982,0.08785383403301239,-0.05503508448600769,0.5171446800231934,-0.2692205607891083,-0.25419941544532776,-0.5849995613098145,0.34333911538124084,0.3612702786922455,-0.7704195976257324,-0.7877151966094971,-0.4409688711166382,-0.5646916031837463,0.2740289270877838,-0.07374349236488342,-0.1655425727367401,0.6755353212356567,0.06464210897684097,0.6763362288475037,-0.03514997661113739,-0.5057119131088257,0.04899577796459198,0.6571364998817444,-0.2543083727359772,0.6183398962020874,0.14082401990890503,-0.3524059057235718,0.2416587471961975,-0.5155569314956665,-0.485750287771225,-0.20495127141475677,-0.30603107810020447,-0.48357877135276794,-0.5793463587760925,0.03932657837867737,0.8507974743843079,-0.07356369495391846,0.14454595744609833,-0.33434298634529114,-0.918828010559082,-0.0607883520424366,-0.043195366859436035,0.4165976643562317,0.26429811120033264,0.9080582857131958,-0.14936167001724243,-0.3107241094112396,-0.6598737835884094,-0.015548975206911564,-0.02031031996011734,-0.4881771206855774,0.5591624975204468,-0.841009795665741,-0.81536865234375,0.17350351810455322,-0.18348456919193268,0.13858720660209656,-0.19292303919792175,0.5512010455131531,0.11628278344869614,0.42910104990005493,-0.38945770263671875,0.2280782014131546,0.22356921434402466,-0.4420013129711151,0.1164655014872551,0.03775053843855858,-0.40997371077537537,0.2952635586261749,-0.2311859130859375,0.03951086476445198,0.20109786093235016,-0.29323750734329224,-0.20525944232940674,-0.4076298475265503,-0.26416757702827454,0.09469500929117203,-0.24511927366256714,-0.15595178306102753,-0.3300999701023102,0.3531419336795807,-0.8319255709648132,0.160665363073349,0.5316396355628967,0.02640482410788536,0.7375580072402954,0.20125623047351837,0.19915448129177094,0.485101580619812,-0.343791663646698,-0.28584572672843933,-0.19735334813594818,0.10415966808795929,-0.0491827055811882,-0.9459521770477295,0.32987117767333984,0.4853166341781616,-0.15933865308761597,0.30054888129234314,-0.28963035345077515,-0.7356070280075073,-0.7274596691131592,-0.07878182828426361,-0.32803356647491455,0.14469894766807556,-0.11402164399623871,0.9275033473968506,-0.0963338240981102,-0.05747934803366661,-0.010323340073227882,-0.01586022414267063,0.2733023464679718,-0.02885189652442932,0.01112623605877161,0.3202621042728424,-0.18443943560123444,0.42282190918922424,0.18349169194698334,-0.13915003836154938,-0.3674597442150116,-0.006686652544885874,0.04526151716709137,-0.40085452795028687,0.3862861692905426,-0.26354244351387024,0.19387002289295197,0.027946939691901207,-0.3280808627605438,0.11086785793304443,-0.20788243412971497,-0.5615049004554749,-0.0264233760535717,0.34331178665161133,0.5657371282577515,-0.5697663426399231,-0.02231585793197155,-0.4522152841091156,0.3882320523262024,0.8666342496871948,0.3700108230113983,0.2058447152376175,-0.028118867427110672,0.06379787623882294,0.21509391069412231,-0.029964251443743706,0.2190428525209427,-0.5729339122772217,-0.008923236280679703,0.03299282118678093,0.32942995429039,-0.4219677448272705,-0.49380093812942505,0.12496937066316605,0.25166523456573486,0.027231663465499878,0.2393442988395691,-0.4225696921348572,-0.3785850405693054,0.7720391750335693,0.49978363513946533,0.5182746052742004,0.09612645208835602,0.48957720398902893,0.36653468012809753,-0.38852640986442566,-0.37648898363113403,-0.14429421722888947,-0.29184389114379883,-0.494088739156723,-0.416854590177536,-0.22514492273330688,0.21400472521781921,0.3021670877933502,-0.7201360464096069,-0.3403734564781189,0.6630555987358093,0.19943667948246002,0.3251255750656128,-0.16367332637310028,-0.4787762463092804,0.31829366087913513,-0.9138673543930054,-0.28060585260391235,-0.2208191305398941,-0.8473498225212097,0.48779913783073425,-0.6295275688171387,-0.6884589195251465,-0.1938045620918274,-0.1706065833568573,0.02663593366742134,0.13641147315502167,0.37801364064216614,0.024677768349647522,0.6129589676856995,0.5029995441436768,-0.4405461251735687,0.696451723575592,0.29518961906433105,-0.17259171605110168,0.4457116425037384,0.014385325834155083,-0.7447928190231323,-0.84564608335495,-0.7508594989776611,-0.6389279365539551,0.08391694724559784,0.39108264446258545,-0.32795488834381104,-0.7092530131340027,0.03456307202577591,0.18080921471118927,-0.36040249466896057,-0.579554557800293,0.6837064027786255,0.11067229509353638,0.06591302156448364,0.19167515635490417,0.6003468036651611,0.07985710352659225,-0.9679338335990906,-0.43888434767723083,-0.7197741270065308,-0.09734105318784714,0.022965088486671448,0.4054690897464752,-0.0037096263840794563,0.33385878801345825,-0.6072342991828918,0.47898346185684204,-0.43882620334625244,0.3737899363040924,0.14512571692466736,0.4967305362224579,0.02633834257721901,0.04385421425104141,-0.09247099608182907,-0.6592738628387451,-0.5316060781478882,0.3270447254180908,0.017910897731781006,-0.7896169424057007,-0.3947671353816986,0.03779122605919838,-0.33429262042045593,-0.19704633951187134,-0.01719946227967739,0.6882498860359192,0.5569668412208557,-0.012368714436888695,0.46572792530059814,-0.9371082782745361,-0.28318312764167786,-0.1890793889760971,-0.2390976995229721,0.33518725633621216,0.35620078444480896,-0.2671981155872345,0.051223017275333405,0.3418554365634918,0.3099208176136017,0.1316719353199005,-0.24146458506584167,-0.5643475651741028,-0.3983023762702942,-0.14353829622268677,0.3833024203777313,0.12243720144033432,-0.061793241649866104,0.10960154980421066,0.26553913950920105,-0.4165685176849365,-0.7927438020706177,-0.7907891869544983,-0.003950668964534998,0.6317079067230225,0.0009805303998291492,-0.05985915660858154,-0.34589171409606934,-0.167141392827034,0.45775166153907776,-0.20534583926200867,-0.10543905943632126,-0.41637706756591797,0.2080516368150711,-0.2363055944442749,-0.12908945977687836,0.6855849027633667,-0.1975143551826477,-0.3419713079929352,-0.1865243911743164,-0.44622597098350525,0.41216781735420227,-0.14961214363574982,-0.21209117770195007,0.27937641739845276,-0.20283275842666626,0.1632787436246872,0.13081954419612885,-0.3537375330924988,-0.4983818531036377,0.20095904171466827,-0.12414330244064331,0.04308481141924858,-0.13273879885673523,-0.16795310378074646,0.26859116554260254,0.4564442038536072,0.0272610392421484,0.16364073753356934,-0.7362664937973022,0.855570912361145,-0.7902648448944092,0.5993083715438843,0.038385480642318726,0.3092036247253418,0.08757736533880234,0.31996452808380127,-0.1983403116464615,-0.45926162600517273,-0.046603161841630936,0.40547552704811096,0.7375315427780151,0.15284070372581482,-0.5824631452560425,-0.14929719269275665,-0.11716412752866745,-0.037410371005535126,0.12388333678245544,0.10576963424682617,-0.10874933004379272,-0.09364864975214005,-0.1562483161687851,-0.550939679145813,-0.5214785933494568,-0.4055827260017395,-0.3143831491470337,-0.1292259395122528,-0.5988169312477112,0.3554360866546631,0.08881162106990814,-0.517617404460907,0.13805551826953888,-0.6336963772773743,-0.027056336402893066,-0.05811665579676628,0.571229875087738,0.5440341830253601,0.7644584774971008,0.06924955546855927,0.9018787145614624,0.2961677610874176,-0.23913973569869995,-0.11578628420829773,-0.3447321057319641,0.392181932926178,0.5222041606903076,-0.11504805088043213,0.8343098759651184,-0.04503210633993149,0.22823002934455872,0.05705215036869049,-0.3100256025791168,0.29792076349258423,-0.6006452441215515,0.5582630038261414,0.5588510632514954,-0.22709445655345917,-0.26426029205322266,0.6231462955474854,-0.2084094136953354,0.02333115227520466,0.26649177074432373,-0.18435291945934296,0.100865438580513,-0.3163238763809204,0.11772110313177109,-0.0417666956782341,0.3138364255428314,-0.4815185070037842,0.7271413207054138,0.173023983836174,-0.4383476972579956,0.31426548957824707,0.28340664505958557,0.04417731985449791,0.04843197017908096,-0.05587643384933472,-0.3617953062057495,0.008054498583078384,-0.5120882391929626,-0.6995205283164978,0.7523663640022278,0.506860613822937,-0.41998904943466187,-0.08097495138645172,0.6521565318107605,0.008716166019439697,0.019149012863636017,-0.3778302073478699,0.5395108461380005,0.191872239112854,-0.13618390262126923,-0.0884033739566803,0.03734511882066727,0.8595730662345886,-0.746404767036438,-0.2361217588186264,0.34494033455848694,-0.05549504980444908,-0.35816818475723267,0.10715392976999283,-0.5614739060401917,0.7291738986968994,0.65928053855896,-0.0495462566614151,0.3495785593986511,-0.5500814914703369,0.3117082118988037,-0.1221463680267334,0.48630931973457336,-0.34276801347732544,-0.03620106726884842,0.36039748787879944,-0.7055562734603882,0.365425705909729,0.1017313301563263,-0.07494596391916275,-0.7513467073440552,-0.37328776717185974,0.49563708901405334,-0.6172005534172058,-0.5011882185935974,-0.06297331303358078,0.5340620279312134,0.02878538705408573,-0.21685051918029785,0.20036259293556213,0.5711605548858643,-0.10306429862976074,0.09905961900949478,0.30968818068504333,0.24145710468292236,0.051256272941827774,0.40633445978164673,0.4287685453891754,0.012188456952571869,-0.3746924102306366,0.11129312962293625,-0.39686092734336853,-0.814666748046875,0.018139466643333435,-0.3419891893863678,0.45592108368873596,-0.18477219343185425,0.0033536599949002266,0.10603471100330353,0.25765374302864075,-0.45936450362205505,0.946979820728302,-0.02980361506342888,-0.28249138593673706,0.8776469826698303,-0.47561874985694885,0.7219777703285217,0.2725754380226135,-0.025440383702516556,0.1575581282377243,-0.022760264575481415,-0.07233002036809921,0.6550504565238953,-0.4403151869773865,-0.42092230916023254,0.7870002388954163,-0.03178761899471283,0.6961324214935303,-0.2667158544063568,0.01578357070684433,0.10558419674634933,-0.31763896346092224,0.434260755777359,0.3836257755756378,0.30217570066452026,-0.05213543772697449,-0.35025110840797424,0.5601633787155151,-0.23581001162528992,0.12993726134300232,0.7014845609664917,-0.08343178033828735,0.37213921546936035,-0.6139873266220093,-0.16000065207481384,0.6637436747550964,-0.5302959680557251,-0.34048113226890564,-0.49751707911491394,-0.24523770809173584,0.08221445232629776,0.12612809240818024,0.23986569046974182,-0.12059111893177032,-0.06360235810279846,-0.12011601030826569,0.043448131531476974,-0.5943043828010559,-0.6480979919433594,-0.9426588416099548,-0.23058189451694489,0.37061622738838196,-0.12321823090314865,-0.23796598613262177,0.5066196918487549,-0.12322957068681717,0.4763820171356201,0.2860136330127716,-0.13715030252933502,0.5642641186714172,-0.0204303078353405,-0.5608118772506714,0.9001743793487549,-0.16510964930057526,-0.7828112244606018,0.4190131425857544,-0.20534321665763855,0.42843589186668396,0.0181447584182024,0.07457710057497025,0.08272320032119751,0.14760568737983704,0.4141042232513428,-0.11829596012830734,-0.187271848320961,0.7929879426956177,-0.2748267948627472,0.0496799536049366,0.13890385627746582,0.09428012371063232,-0.2553858757019043,0.10471737384796143,-0.3779771625995636,-0.23983734846115112,-0.7065718770027161,-0.12157086282968521,-0.13208703696727753,-0.4131214916706085,-0.535827100276947,-0.295457661151886,0.2797778248786926,-0.27164900302886963,-0.1753460168838501,0.2185889333486557,0.38409101963043213,0.5689021944999695,0.549895703792572,0.45029106736183167,0.11602707952260971,0.29957032203674316,0.163565531373024,0.29790374636650085,0.047262415289878845,-0.05405433848500252,-0.3290971517562866,-0.6337510347366333,0.30682680010795593,-0.9136974215507507,-0.34797579050064087,-0.32286277413368225,0.009696073830127716,0.38350048661231995,0.12720614671707153,0.020722780376672745,0.8643911480903625,0.4274182915687561,-0.41317784786224365,-0.4847206473350525,0.08881250768899918,-0.037270981818437576,-0.5212346911430359,0.652899980545044,0.5177916884422302,0.6296705603599548,0.5544271469116211,-0.2576702833175659,0.6148970127105713,-0.10705491900444031,0.05325460806488991,-0.2152099758386612,-0.18826556205749512,-0.17917397618293762,-0.23590244352817535,-0.31107667088508606,0.0794624537229538,-0.6866175532341003,-0.06632255017757416,-0.22438526153564453,-0.23889730870723724,0.5005725026130676,0.8632839322090149,-0.0599018931388855,-0.2799486219882965,-0.32616230845451355,0.010732030496001244,-0.4432789385318756,-0.42217910289764404,-0.38504698872566223,0.519555926322937,0.14995811879634857,-0.08122698217630386,-0.31565040349960327,0.2893374264240265,-0.04891218617558479,-0.3040423095226288,0.36062881350517273,0.733948290348053,-0.046898968517780304,0.5413369536399841,-0.3088380992412567,0.19972121715545654,-0.7314532399177551,0.6432749032974243,0.13885994255542755,-0.4590381979942322,0.10971976816654205,0.07113274931907654,0.4723268449306488,0.2030573934316635,0.044352803379297256,0.25537067651748657,-0.35081034898757935,0.5368219017982483,0.03834347426891327,0.4420148432254791,0.4500836133956909,-0.3100211024284363,0.3367871642112732,0.39208370447158813,-0.07532066106796265,0.29183876514434814,0.04427739605307579,-0.12924721837043762,-0.4029673933982849,0.4877135157585144,0.04577932879328728,0.24000966548919678,0.311129093170166,-0.23219920694828033,0.20047876238822937,-0.6787681579589844,-0.23634205758571625,-0.38398754596710205,-0.08968404680490494,-0.48978808522224426,-0.003963617142289877,-0.2755507528781891,-0.40964746475219727,-0.4987294375896454,0.12082014977931976,0.012055248953402042,-0.31171518564224243,-0.14785152673721313,0.23435626924037933,-0.1983976662158966,0.482749342918396,0.239365816116333,0.866628885269165,-0.030710354447364807,0.030424553900957108,0.5823715925216675,0.36773428320884705,-0.5250891447067261,0.2710537314414978,0.05667881667613983,0.015535445883870125,0.5368658304214478,-0.06364668905735016,-0.11045394092798233,0.19705075025558472,-0.017507873475551605,-0.5473827719688416,-0.298166960477829,-0.9229706525802612,-0.23464486002922058,0.17882755398750305,0.010634448379278183,-0.09895008057355881,-0.44067755341529846,0.4573254883289337,-0.18782250583171844,0.39832714200019836,-0.41745132207870483,0.3490707278251648,0.5797635316848755,-0.8131820559501648,0.14933785796165466,-0.007031313609331846,-0.5602434873580933,0.7911644577980042,-0.2638086974620819,-0.1249556839466095,0.2067766785621643,-0.09997526556253433,-0.008511842228472233,-0.8866184949874878,-0.29825764894485474,-0.240821972489357,0.040141619741916656,0.5301099419593811,-0.30664244294166565,0.660872220993042,0.5918664932250977,0.3000977635383606,-0.3341139554977417,0.09561742842197418,-0.07788646221160889,0.01438223198056221,-0.4986330270767212,0.4445897042751312,0.13774067163467407,-0.5559396147727966,0.5760141611099243,-0.8665264248847961,-0.17298635840415955,-0.741224467754364,0.036937616765499115,0.07550278306007385,-0.29830461740493774,0.8183028101921082,0.3157941997051239,-0.7742083072662354,-0.8601949214935303,0.03620906174182892,0.2860943675041199,0.6977985501289368,-0.028904594480991364,0.49423176050186157,0.24300122261047363,-0.4036364257335663,-0.9005651473999023,-0.8075495958328247,0.44472822546958923,0.7534163594245911,0.14462929964065552,0.09869571030139923,0.538426399230957,-0.6322097182273865,0.5889092683792114,0.14652851223945618,-0.31643253564834595,0.02243812009692192,0.2066538780927658,-0.7455370426177979,0.3728543221950531,0.08015603572130203,0.15192435681819916,-0.06937632709741592,0.039549198001623154,0.20180656015872955,-0.172292560338974,0.09029169380664825,0.07240115106105804,0.07999970018863678,-0.383719801902771,0.39727240800857544,0.3025144934654236,0.5708834528923035,-0.8262247443199158,-0.1392206847667694,0.4850704073905945,-0.8731231689453125,0.13334067165851593,-0.5331079363822937,0.11167771369218826,0.12816894054412842,0.33101174235343933,0.19425229728221893,-0.41978591680526733,-0.5418264269828796,0.3989536166191101,-0.25694239139556885,-0.71065753698349,-0.5004495978355408,0.6433529257774353,0.7232475876808167,0.8003883957862854,0.260611355304718,-0.026766806840896606,-0.5188568234443665,-0.03451213240623474,-0.35292041301727295,-0.034634292125701904,0.2946043908596039,0.05504288524389267,0.2855563163757324,0.6552029848098755,-0.34651657938957214,0.22913168370723724,0.017133694142103195,0.6357613205909729,-0.14299163222312927,-0.41632091999053955,-0.41526833176612854,-0.02357182465493679,0.42791008949279785,-0.2229955792427063,0.3891363739967346,0.07622595131397247,-0.0741797685623169,-0.253016859292984,-0.42276471853256226,0.43338388204574585,0.2663014531135559,0.6291567087173462,0.04150127246975899,0.28973138332366943,0.35976338386535645,0.31117987632751465,0.06595969945192337,0.3767150640487671,-0.3934934139251709,0.05647871643304825,-0.4175018072128296,0.5040870904922485,0.7063164710998535,0.24646739661693573,-0.2025015503168106,0.19736994802951813,-0.7405232787132263,0.08798062801361084,0.4001181125640869,0.46628519892692566,-0.31467318534851074,-0.4633599817752838,0.06878913193941116,0.09558437764644623,0.7851657867431641,-0.09515015780925751,-0.2785894274711609,0.0791894719004631,0.17907428741455078,-0.41174358129501343,-0.08931708335876465,0.3506426215171814,-0.5962495803833008,-0.3486018180847168,0.14547017216682434,-0.017546072602272034,-0.2539619207382202,-0.35629552602767944,0.5122693181037903,0.660936176776886,0.8783717751502991,0.06316239386796951,-0.25969165563583374,-0.3336178958415985,0.633758544921875,0.4332236349582672,-0.19835814833641052,0.128940612077713,-0.10508272051811218,0.05574017018079758,0.7407884001731873,0.08102286607027054,-0.4070894718170166,0.09715934097766876,-0.12236078828573227,0.7166274189949036,-0.3578832447528839,-0.6611138582229614,-0.47808030247688293,0.8408916592597961,-0.2611747682094574,0.10841023921966553,-0.8411035537719727,0.7736561894416809,0.2187385857105255,-0.10644908994436264,0.21366797387599945,0.011718688532710075,0.5521590113639832,0.2818220555782318,0.21579872071743011,0.3447938561439514,-0.22922523319721222,0.4608716070652008,0.3579164147377014,-0.02537894807755947,-0.6444012522697449,0.10139001905918121,0.05394907668232918,-0.2795252203941345,0.6831210255622864,-0.4354323446750641,0.19204451143741608,0.09438677877187729,-0.6401069760322571,0.7471293807029724,-0.7386120557785034,-0.333396852016449,-0.08065029233694077,0.3836333453655243,-0.30811479687690735,-0.03703698515892029,0.41001686453819275,-0.44304224848747253,-0.22669821977615356,-0.5738450288772583,0.48430317640304565,-0.46974465250968933,-0.17468419671058655,-0.11682333052158356,-0.018985459581017494,-0.6304828524589539,-0.6512071490287781,0.3822215497493744,0.5383795499801636,-0.34541064500808716,0.09443920105695724,-0.053668320178985596,0.5608420372009277,-0.31644925475120544,0.4144858419895172,0.2466394007205963,-0.1588737964630127,-0.9060445427894592,-0.28130021691322327,0.14338861405849457,0.06092704460024834,-0.24825844168663025,-0.2194899618625641,-0.31550589203834534,-0.2855420410633087,0.5377391576766968,-0.5601840019226074,0.13593335449695587,0.3275783061981201,0.36098286509513855,-0.41616055369377136,0.7129860520362854,-0.33860301971435547,0.0731775164604187,0.29803258180618286,0.47880110144615173,-0.19606317579746246,-0.016558581963181496,0.41609546542167664,0.6226106882095337,-0.15504518151283264,-0.723213255405426,0.022596290335059166,-0.26133403182029724,0.12927711009979248,-0.31205224990844727,0.013491764664649963,0.36859413981437683,0.4283241331577301,0.06533942371606827,-0.31035569310188293,0.13593152165412903,0.06386815011501312,-0.05492454394698143,-0.37709882855415344,-0.14429989457130432,0.3968137204647064,0.09277722984552383,-0.008843617513775826,0.3398577868938446,-0.47056248784065247,-0.026419442147016525,-0.5568283200263977,0.036649566143751144,0.23492901027202606,-0.6330756545066833,0.5213484168052673,0.2034599632024765,-0.5213470458984375,0.14344841241836548,-0.013647735118865967,-0.29782480001449585,-0.09411031752824783,-0.9650440812110901,-0.25787392258644104,0.47452646493911743,0.5294315218925476,-0.2881297171115875,0.012264570221304893,0.05371507629752159,0.35092031955718994,0.5017362833023071,-0.32041847705841064,-0.1783430129289627,0.024550799280405045,-0.3596111834049225,-0.43392935395240784,0.4077000916004181,-0.029970776289701462,0.017047055065631866,0.25564754009246826,-0.4013783037662506,0.2905648648738861,0.15472759306430817,0.31730401515960693,0.32024386525154114,-0.8979620933532715,0.5652933716773987,0.28125131130218506,0.34758901596069336,-0.20828087627887726,-0.5787940621376038,0.39206576347351074,-0.8426772952079773,0.3750210702419281,0.49414563179016113,-0.19515113532543182,0.6300937533378601,-0.380716472864151,-0.11373767256736755,0.24295885860919952,0.46849295496940613,0.5165036916732788,-0.22972139716148376,0.12761658430099487,-0.4656503200531006,0.5603214502334595,-0.10957621037960052,-0.3555033504962921,0.5398442149162292,-0.5737712979316711,-0.062145501375198364,0.28513821959495544,-0.006582604721188545,0.4606519937515259,0.7223624587059021,0.024700583890080452,0.774422824382782,-0.16632889211177826,-0.3432512581348419,0.006150882691144943,0.5537237524986267,0.162371426820755,-0.24617984890937805,-0.1941658854484558,-0.965801477432251,0.31122973561286926,0.08986677974462509,-0.4112614691257477,0.09608035534620285,-0.34389588236808777,-0.05000126734375954,0.3417747914791107,-0.9449854493141174,-0.44945627450942993,0.015198717825114727,0.867024838924408,-0.9628724455833435,-0.43364858627319336,-0.38653281331062317,-0.7468829154968262,0.013221662491559982,0.2998797297477722,0.44953328371047974,0.708793044090271,-0.11413609236478806,0.8878995180130005,-0.5738349556922913,0.37663814425468445,-0.22760993242263794,0.027983633801341057,-0.4919828474521637,-0.32437175512313843,-0.12833617627620697,0.34981590509414673,-0.1801162213087082,0.3719049096107483,-0.5358567833900452,-0.11162936687469482,-0.6611050367355347,0.2165243774652481,0.13719546794891357,-0.11854691058397293,0.29400330781936646,-0.3812786936759949,0.48980364203453064,-0.5274224877357483,-0.06772385537624359,0.12535317242145538,0.6993045210838318,-0.6929145455360413,0.36965590715408325,0.14721088111400604,-0.33825501799583435,-0.08758101612329483,-0.3762274980545044,-0.5651042461395264,-0.20728936791419983,-0.32650288939476013,0.07519958913326263,0.3852388858795166,-0.25576692819595337,0.38169223070144653,-0.6320939064025879,0.20177218317985535,-0.21708017587661743,0.02672208845615387,0.2961422801017761,0.2883341312408447,0.5210620760917664,0.09682439267635345,-0.1685839593410492,0.27421310544013977,0.23018820583820343,-0.5389894843101501,-0.20842404663562775,-0.42073819041252136,0.3144617974758148,0.0077291144989430904,-0.013641826808452606,0.3317811191082001,0.05116928368806839,0.36148616671562195,0.5165592432022095,-0.45317673683166504,0.782467246055603,0.18683981895446777,0.161112979054451,0.3704465925693512,-0.3532390296459198,-0.24096471071243286,-0.021998431533575058,0.09588021039962769,0.47688940167427063,0.21595457196235657,0.1982889473438263,-0.7657533288002014,0.5765920877456665,-0.13850371539592743,0.3660407066345215,-0.09238962829113007,-0.6229448914527893,-0.33025312423706055,-0.03633435070514679,0.33397507667541504,0.6900685429573059,0.5192382335662842,-0.8131046891212463,-0.18471726775169373,0.6400942802429199,-0.25959715247154236,0.7051030397415161,0.6388838887214661,0.7230523228645325,0.8600068092346191,-0.1886366903781891,0.08262031525373459,-0.14848197996616364,0.30075472593307495,0.8641633987426758,0.6236447095870972,-0.8175599575042725,0.15787360072135925,0.15799397230148315,0.23373892903327942,-0.5560637712478638,0.20673036575317383,0.5401661396026611,0.039113204926252365,-0.2802688479423523,0.6653974652290344,0.1391478180885315,-0.5504255890846252,0.328102707862854,-0.09482532739639282,0.6870120763778687,0.13051697611808777,0.0487382635474205,0.3207246661186218,-0.09742967039346695,0.39244458079338074,-0.9013692140579224,0.6373360753059387,0.00915453676134348,-0.14624431729316711,0.26431575417518616,-0.16822876036167145,-0.6006985306739807,0.01682230830192566,-0.27183616161346436,0.4626624584197998,0.10298056155443192,-0.42122864723205566,0.09994971752166748,0.6834872961044312,0.503258228302002,0.33301830291748047,-0.5069065093994141,-0.7304500937461853,0.1378394216299057,-0.03037841245532036,-0.19642481207847595,0.11758015304803848,-0.8756231069564819,-0.09107951074838638,-0.3995634913444519,0.024562038481235504,0.20870767533779144,-0.4487886428833008,-0.40214526653289795,-0.016193389892578125,-0.3822314441204071,-0.28856903314590454,0.4115044176578522,-0.9043434262275696,-0.9297406673431396,-0.12080860882997513,-0.139158234000206,-0.006543319672346115,-0.7671279907226563,0.0416114442050457,0.1416071355342865,-0.0963643416762352,-0.4489818811416626,0.11054607480764389,-0.6000221967697144,0.08791881054639816,-0.04396027699112892,0.07574377954006195,0.04760957881808281,-0.5777695178985596,-0.6056384444236755,0.22075466811656952,0.08238114416599274,0.12265001982450485,0.7329388856887817,0.21704182028770447,-0.7406759858131409,-0.005041886121034622,-0.5161495208740234,0.5798965692520142,0.8141141533851624,-0.15839330852031708,0.03121539205312729,0.31665050983428955,-0.045125022530555725,0.8698176741600037,-0.40974244475364685,0.09611061215400696,-0.3701440989971161,-0.7257360816001892,-0.6698498129844666,-0.49011456966400146,0.6118540167808533,0.030594386160373688,0.927181601524353,-0.6198237538337708,0.1199333518743515,0.375985711812973,-0.39196494221687317,-0.3602285385131836,-0.0827859416604042,-0.7597808837890625,0.14731726050376892,0.3020535111427307,0.03542086482048035,-0.037155915051698685,-0.14651186764240265,-0.351398229598999,-0.1091342493891716,0.0445428267121315,-0.19573721289634705,0.26559388637542725,-0.7799909114837646,-0.3947697877883911,0.21646000444889069,0.17319858074188232,-0.7317531108856201,-0.3138850927352905,0.5450729131698608,-0.33684104681015015,-0.6149372458457947,-0.4150799810886383,-0.7755759358406067,-0.1837959587574005,-0.3555684983730316,0.6450679302215576,-0.12811824679374695,-0.6002334952354431,-0.660732626914978,-0.2610752284526825,-0.05821710079908371,-0.46845752000808716,0.03474874421954155,-0.47102347016334534,-0.10989092290401459,-0.20105083286762238,0.3866632282733917,0.13297583162784576,-0.5769131183624268,-0.1660129427909851,-0.17527510225772858,0.29800888895988464,-0.05834317207336426,-0.14714384078979492,-0.07585647702217102,-0.4994778335094452,-0.5273216366767883,0.06012947857379913,0.43595150113105774,0.23525476455688477,0.5515792965888977,-0.09375961869955063,0.7604709267616272,0.5719964504241943,0.38537418842315674,-0.23849168419837952,0.05422221124172211,0.09418780356645584,-0.5569447875022888,-0.6225616335868835,-0.8676641583442688,-0.3530559539794922,-0.5972248911857605,0.5882875323295593,-0.49841785430908203,-0.05686569958925247,0.07693583518266678,-0.7962253093719482,0.6329537630081177,-0.7628013491630554,-0.23088781535625458,-0.21625544130802155,0.37288033962249756,-0.42362791299819946,-0.09205186367034912,0.1412903070449829,0.18875445425510406,-0.03906698897480965,0.2100282460451126,-0.5546420216560364,0.02667883038520813,-0.07524197548627853,-0.1883365511894226,-0.14793135225772858,-0.08944154530763626,-0.2933777868747711,-0.22922161221504211,-0.285683274269104,-0.5450753569602966,-0.42587006092071533,0.28286927938461304,0.04297997057437897,-0.36120614409446716,-0.07933735847473145,-0.25225794315338135,-0.6326888203620911,-0.20115995407104492,0.11120402067899704,-0.12520946562290192,0.27433693408966064,0.26702964305877686,-0.24135451018810272,-0.0521317794919014,0.1144876778125763,-0.30860626697540283,0.17948947846889496,-0.32483750581741333,-0.054798662662506104,-0.18603499233722687,-0.07282629609107971,-0.27979475259780884,0.2872235178947449,-0.2592184841632843,0.4294109046459198,0.02446918562054634,0.24158230423927307,0.2832995653152466,0.13904015719890594,-0.2147519439458847,0.31077107787132263,0.08422674238681793,-0.2123124599456787,-0.4682692289352417,0.0861862525343895,0.7645015120506287,-0.2577846348285675,-0.28167369961738586,-0.06004076823592186,-0.23111340403556824,-0.20726792514324188,-0.08423543721437454,-0.026275038719177246,0.029601596295833588,-0.3358922600746155,0.127475306391716,0.2792181968688965,0.8018341660499573,0.1193491667509079,0.1970054805278778,0.7763926386833191,0.09555087983608246,-0.4450114965438843,0.633407473564148,0.12290794402360916,-0.745743989944458,0.4288332462310791,-0.755286455154419,-0.020385904237627983,0.09896768629550934,-0.7009841203689575,0.650236964225769,0.30247393250465393,0.32224929332733154,-0.2904578745365143,0.07187792658805847,0.3219902217388153,0.32819849252700806,0.32573020458221436,-0.5017971396446228,0.6790496110916138,-0.11545715481042862,-0.17381174862384796,-0.034495748579502106,-0.7431804537773132,0.2859037518501282,-0.19865548610687256,0.3877676725387573,-0.4357385039329529,-0.5344133973121643,-0.10155832022428513,-0.43257665634155273,0.6538760662078857,0.2640591859817505,0.07123911380767822,-0.021404661238193512,0.12149681895971298,0.23106186091899872,0.11466206610202789,0.09888611733913422,-0.5187126994132996,0.2623593509197235,-0.7058932185173035,-0.38613802194595337,0.035999298095703125,-0.07914800941944122,-0.11566373705863953,-0.12276718020439148,-0.26082420349121094,0.4217725694179535,-0.3483453094959259,-0.603334367275238,-0.13484850525856018,0.06604380160570145,-0.6107358932495117,-0.33091646432876587,-0.30339154601097107,-0.47303879261016846,0.3137635588645935,-0.07650126516819,-0.0330679789185524,-0.20220354199409485,-0.5927059650421143,-0.8181431889533997,-0.1616424024105072,-0.7566192150115967,0.5094918012619019,0.453999787569046,-0.8744338154792786,-0.33600717782974243,0.14186130464076996,0.340248167514801,0.24414776265621185,-0.7250432372093201,0.3715454339981079,0.3188526928424835,-0.36414071917533875,0.13224855065345764,0.42817267775535583,-0.26108184456825256,0.015051189810037613,0.18967168033123016,0.25482177734375,-0.22489501535892487,0.17736509442329407,0.5845769643783569,0.13949303328990936,0.508378267288208,0.563520073890686,-0.6290596723556519,-0.49659523367881775,-0.3081781268119812,-0.415690541267395,0.28541627526283264,0.20891423523426056,0.350254625082016,0.3318949043750763,-0.09391649812459946,0.029426394030451775,-0.30243968963623047,-0.2813495099544525,-0.6060770750045776,-0.39296212792396545,-0.5602240562438965,-0.655113935470581,-0.2048167735338211,0.02446187287569046,-0.08174845576286316,-0.5404089689254761,-0.4155864119529724,-0.1404118537902832,0.797204852104187,0.4278017580509186,-0.10738097131252289,0.42291903495788574,-0.6147777438163757,-0.538208544254303,-0.2916203737258911,0.3021415174007416,-0.40945306420326233,0.04592780023813248,-0.5961923003196716,-0.03818962350487709,0.4717971980571747,0.22416037321090698,0.4283663034439087,0.20158793032169342,0.7511538863182068,-0.19377797842025757,0.19976577162742615,-0.09072741121053696,0.6942907571792603,0.19940659403800964,0.3760707378387451,-0.642230749130249,0.8740124106407166,-0.3682359457015991,-0.46828901767730713,0.14144527912139893,-0.032624952495098114,-0.27238407731056213,-0.19414429366588593,0.4645134210586548,0.20301680266857147,-0.3118542730808258,-0.508316695690155,0.6824274063110352,-0.1008320301771164,0.240621879696846,-0.3504803776741028,-0.14826956391334534,-0.10359863936901093,-0.13956080377101898,-0.18782682716846466,-0.43614068627357483,0.14462165534496307,-0.28924107551574707,0.9191166162490845,-0.11688846349716187,0.7989633679389954,0.16291065514087677,0.7002313733100891,0.6170986890792847,0.5715010166168213,0.6307706236839294,0.5059256553649902,0.20885099470615387,-0.5563371181488037,0.04427793622016907,0.22704893350601196,0.31473448872566223,-0.8777340054512024,-0.5038243532180786,-0.7164218425750732,0.011912272311747074,0.6909740567207336,0.5882226824760437,0.6148782968521118,-0.8748183250427246,0.434044748544693,-0.2437913715839386,-0.08508579432964325,-0.18483681976795197,0.2992752194404602,-0.02467929571866989,-0.26995354890823364,0.5054959654808044,0.19252848625183105,0.04688720405101776,0.2451905608177185,0.8874894380569458,0.10852690786123276,-0.40343278646469116,-0.01194891519844532,0.4008091986179352,0.1049228385090828,-0.09356943517923355,0.6740018129348755,0.25270581245422363,0.6800343990325928,0.3769562244415283,0.5549625158309937,0.02886815369129181,-0.21011491119861603,-0.19138406217098236,0.15335588157176971,-0.10065505653619766,0.3441880941390991,-0.1351701021194458,-0.3276594877243042,0.20000140368938446,-0.5468069314956665,-0.16945338249206543,0.48014798760414124,0.3823877274990082,-0.19001595675945282,0.027397293597459793,0.4200374484062195,-0.10471708327531815,-0.0025853090919554234,-0.6530756950378418,0.8148475289344788,-0.22487567365169525,-0.4453403353691101,0.20035727322101593,0.39605778455734253,-0.7597892880439758,0.8246064782142639,-0.11963225156068802,0.7803899645805359,-0.8366237282752991,0.013440679758787155,-0.17130957543849945,-0.5550056099891663,0.22853520512580872,0.19817885756492615,-0.6357694268226624,0.09956304728984833,